0.04176887892481628
-0.043536365430034474
-0.044961950917390636
0.03317162804767638
0.019790858902636953
0.04965811037233112
-0.046087379773532944
-0.045615495615995726
0.020099527094017966
0.017158161236970497
0.03704676503812138
-0.04646681252044458
-0.018938265378703807
-0.017176834001892127
-0.027716967208263135
0.027945419070741138
-0.061380975744912275
0.014302972689309242
-0.03952295079781104
0.004830755451894648
0.008232883564967182
-0.04843694021482362
-0.026863928040158025
-0.04292036809479311
0.015494777885852356
-0.00572606618343013
0.024893836832515198
0.020685983961912315
0.017317203376942647
-0.010904956935470283
-0.026362830097438106
-0.003109892195166599
0.03334472271712325
0.009572557427094319
7.763551845495543E-4
0.04827850981489734
0.032458023032762615
0.010474958617915465
-0.032533744143598
-0.05233558992659853
-0.033690614282328474
0.040330652397309846
-0.011397267021192516
0.03907586928028143
-2.864441554396782E-4
-0.03196256922393209
4.2306544802404714E-4
-0.055184804958784105
-0.016860129900589303
-0.01592893743533957
-0.012998349704450608
-0.008381831799601744
0.0014221547822886092
-0.00472859043115533
-0.027980337022397987
-0.053075945118336396
-0.047325337432687686
0.04862457584464264
0.011285234025731958
0.04121673227851385
-0.01099297506604307
0.01681366465223472
0.005666211913374701
0.004394485825583908
0.029943109576621215
-0.019198366870532557
0.06608731702986649
0.008660154048862018
-0.01280426198450929
0.03234889968343614
-0.007402956918890501
0.06289720959430571
0.010210796634311736
0.005494691864052424
0.007936513557041213
-0.016563298727520034
-0.03313180142592353
0.023674745287273743
-0.019783129367686666
0.0222010095093523
0.03434272345180926
0.033369293075259085
0.010358335636938212
0.034246103625887855
-0.014120082480416761
-0.0041562965108862
-0.04113681496874191
0.04262598082148034
-0.03579803475509769
0.031233231663442905
-0.03203512190959971
0.05769999052899641
0.07002890358256504
0.04883968457279446
-0.003084910326355125
0.027953513665679382
0.030392477238605255
0.08359925876578664
0.10652794986320253
0.001979938965874578
0.009543920615878136
-0.0015944976469157307
0.030511185540472583
0.012263229650218328
-0.018390928621144612
-0.05376676240018189
-0.054170699260974335
-0.006220122725429582
0.013349850436600318
0.008274811414962117
0.046940759666997664
0.04078215279846091
0.021914850318906692
-0.03489583841287259
0.00486589640606908
0.0448137850656793
0.03390068984077352
0.05672653989447296
-0.029188582918680574
-0.033370138861419874
0.0033620521324761966
-0.009150138221238585
-0.04199048427664525
0.017721232881996743
-0.00408697587228387
-0.013498819612951511
7.774832565050706E-5
-0.03477769221464169
-0.08131394355629276
-0.07169206449346437
-0.11505351469962383
0.062342131780563075
-0.05362805001189729
-0.049911133113573314
-0.06373757377520363
-0.08719549129442569
-0.02440181841575617
-0.07230503502025883
0.03490822220995418
-0.0040913687690803165
0.009222029300621638
0.03648119399026484
0.04419100500246471
0.029876219480628203
0.025886813962926056
-0.003384039253414143
0.03654561790480674
0.042112740770170895
-0.05332766967926507
0.009094735701312015
-0.04247325828547997
-0.054163392588941525
-0.04017521155950516
-0.023554530338311896
-0.02957377674496732
-0.00832151595467685
-0.06426017166527986
-0.11996176501036776
-0.052015895879687885
0.012024662933427032
-0.03467608654034274
-0.004763897009907047
-0.03300424327034036
-0.0011815599003930312
-0.07429325145092469
-0.0052511223907650735
-0.032339727444640864
0.013660771444359666
0.012516896350680136
0.043705263428146644
0.048949820908735245
-0.01743084028669269
0.014501422021398227
-0.02576617650241977
-0.0052914269058306025
-0.033034032662844624
-0.012438304836888079
-0.03275405786583451
0.026801347213084158
-0.021223057912063883
-0.02882078389786525
-0.0316454122090238
-0.04869150504121475
-0.041271461026839804
-0.03828713562035606
-0.05809679350315381
-0.09067835331050429
-0.002069100397150071
-0.03645912592618639
-0.03183544017336439
-0.07539012847141428
-0.10570443237064742
-0.09911471975990101
-0.03301709010326375
-0.06510138381106342
0.034675819179594
0.03150332765338891
-0.009071919304724351
0.032024346578557315
0.0017031717261281828
-0.002840464309867683
0.003332011649972262
0.03376879537081479
0.010133145199950443
-0.07969036400314808
0.027993793604713973
0.049742742427882056
0.08420716141656119
-0.013402615896342472
0.017158944410785935
0.019744388078113736
-0.07792590070277194
-0.06504638569181047
-0.1425414430893578
-0.06357922790611842
-0.029838382872476817
-0.027310250882234283
-0.03959229756626846
-0.02760546590628235
-0.07136212066165296
-0.06510257428905689
-0.08119170385064722
-0.03869525073822864
-0.05489449571180024
0.021475673510457465
0.050793109179956275
0.06355030293251165
0.0250200838477239
0.055509865904707655
0.0564313424891305
-0.045451005017295695
0.005775062588819102
0.026172286051497563
0.05865351458332457
0.11804298259196934
0.11722081716593463
0.07009506628772041
0.012302078537044648
0.08610425576256622
0.07885850619231657
-0.04006063043217777
0.013018876779625014
-0.08472070079749576
-0.09962935401508513
-0.058500060369904475
-0.030909730292835162
0.00347166772822002
-0.09908766066619432
-0.10001344286770415
-0.10464650477771145
-9.157977351254855E-4
0.007245906428893419
-0.0052731356709606065
0.07312705083256915
0.06434077245836083
0.019555040248198978
-0.01344763498877291
0.011294993077126206
0.003681952687280258
0.0400134239837523
0.026171024506892297
0.059638693237416655
0.042357708511961245
0.04080283314374833
0.05964099609004694
0.01501019582774899
0.08191013261927765
0.0020289844650323244
0.030736069500520418
-0.04281633722963227
-0.14591595529027807
-0.09067539812288536
-0.07643773430464089
-0.04914651295457728
-0.09853674198504062
-0.155328146843928
-0.1581874083125749
-0.04847206002381865
-0.04977802008704602
0.01739738468409057
0.030923033071935533
0.0150686181784865
0.028959325404126747
-0.019332779402843968
-0.004656634074515694
0.00957433708485795
-0.08994838674485077
-0.010447045449490844
0.030208534260733094
-0.022877440881546054
0.0698312589089992
0.0072299793398096866
-0.11592081505530635
-0.03029926222246515
0.036413633338942764
-0.009164787859428005
-0.04204792228031071
-0.07846488762544572
-0.0991769940988857
-0.09069580858088484
-0.08749806507127418
-0.012203406648781025
-0.1236566353238803
-0.11470895632032654
-0.1255881400977
-0.04187699659016593
0.006724747483325572
0.0038341107036973174
0.00845042225040827
0.06827395549697855
0.04093367735424207
0.0560922386475331
-0.01956533009434971
-0.028119311025539245
-0.12448849638314942
-0.08015148354745989
-0.06811793022039751
-0.019185556733048583
-0.06034849917443042
-0.1665414997352254
-0.24004171271565414
-0.19346131026064328
-0.07855763654787373
-0.12056058070257716
-0.11835016242015718
-0.12670043614627197
-0.16108394150080596
-0.12282227316099291
-0.06675331799912511
-0.015362887945513753
-0.01775459604765232
-0.0048949739663433555
-0.072604288113832
-0.027101168615018916
-0.05385282245857819
0.001769438817588154
0.03853806675060366
-0.011723782153886315
0.07132471004843063
-0.03358542888569469
-0.015078648338630261
-0.13622532929886436
-0.15025273790737306
-0.10965184513459621
-0.13378672973451783
-0.1783320288446597
-0.23771449771070616
-0.2618796057736591
-0.26295920502270925
-0.2285841986793132
-0.06510244710063295
-0.06825564339298276
0.004434435971388162
-0.1274741493631323
-0.015904939931563875
-0.04525861150472023
-0.050237403696446394
-0.046856153276953715
0.029095527003007635
-0.0025171951255059857
0.005449705275006651
0.006852424402371831
0.00400316904208818
-0.01342232119223557
0.05464182928698562
0.0025820078297770425
0.025915091722144748
-0.004162882071261947
-0.09308476951539424
-0.13884441699517897
-0.15549202693367742
-0.19014448664283384
-0.1230498469805404
-0.18591733009925046
-0.2348535683918349
-0.1827275037840955
-0.19542207953103158
-0.07960840298473941
0.05059884707326594
0.056390941282924684
-0.027241128584749513
-0.042478327012644694
-0.054675270073740734
-0.053724539493639846
-0.08359880552670418
-0.010484122202290906
0.022969769531127775
0.005735707833718145
0.02555324525509696
-0.01623421128400459
-0.02038223539498103
0.049992953553987036
0.05831722273896392
-0.0033750205421563336
0.06802229554834283
0.051481236582665325
-0.0819896106709094
-0.14379176419070605
-0.14859527528802374
-0.12306724251213753
-0.10433380729405616
-0.132217597548407
-0.17001173393920818
-0.034677526833466275
0.020339343409451874
0.06714807920201396
0.12681791267341727
0.10232241237811274
-0.026802113396862746
-0.10927972602757895
-0.030789540414820384
-0.017391670068033403
-0.04212310246316259
0.034178111401965916
0.04354139962723975
0.06757904608633633
0.030588043411458876
0.06063022899781398
-0.007017820661040916
-0.037178963923213154
-0.01683407732780461
0.013041174219182787
0.04908063901962855
0.03814262598843191
-0.01806176590970234
-0.10730875033251007
-0.041503740988246156
-0.10013436108214037
-0.03940777462835312
-0.005858734555988226
0.03475039640626766
0.03319064635925194
0.05646903094172411
0.18709392304285297
0.14305565980499843
0.08971548670551982
0.04547273561545203
-0.12155924912333482
-0.05289685720666228
-0.03387238739841134
-0.0852230106580677
0.02704597583221595
0.05987290096513179
-0.03154390183743932
0.0030306330527514365
0.018549971985536078
-0.010005232789497961
-0.03305166579985993
-0.004474628181754733
-0.06382057647962673
0.019012955239883503
0.003731316569362913
-0.07080811982622992
-0.0796299112143094
-0.04803231201337669
-0.003927806943226338
-0.07453341224049354
0.011816788445462148
0.08387864120188797
0.07730035772196779
0.052389801945482754
0.22333652856761105
0.20990747857960257
0.0887143075467372
-0.07150694023281573
-0.12082313258156831
-0.0607144827658193
0.003930459196706555
-0.050789512507038524
0.03800754839200695
0.04237114738363749
0.041421056362633296
0.09135023254583116
0.11121728557190345
0.034067388824890604
0.005746798212521272
-0.06268376211089406
-0.01268058990281234
0.0045431842789292005
-0.011522219844291715
0.011785226339333725
0.0026808438123077844
-0.03619265346359529
-0.048842613578299915
-0.01127824651416248
0.06736916542141913
0.10733854117873533
0.03831636537497481
0.10458092820145938
0.13154129492479658
0.11655169515097155
0.03372432784843021
-0.08176815358256054
-0.09277988738214041
-0.08428054291428844
-9.605598164665686E-4
-0.04881720881319663
-0.026678067487072032
0.03378325790569495
0.020068906896194887
0.025265419327749235
0.0466653200895108
0.04240726448380827
-0.007251013341637459
-0.0031553963179494736
-0.059153165733046464
0.016944760935812684
6.162372881283298E-4
0.04508436262908702
0.006833988451991319
0.019426477804836775
-0.020418731856555253
0.031976203060608735
0.039152302845997085
0.09655558416365097
0.13119414862628287
0.14042190468932325
0.1565356899522369
0.05535146594689982
0.04529114693243996
0.032397061550356286
-0.03436498599972515
-0.028356292675663152
-0.050198201582976845
-0.05149747008916407
-0.026513138043245073
0.03832107089076322
0.04866677422702219
0.08667191735398777
0.09540692903193965
0.07142491495429118
0.06868986151280053
-0.06632125358334005
-0.00668604887496996
0.0018263488356752336
-0.036524185025321516
0.06226568343264523
-0.03220397910445714
0.027819123340241413
0.05431707639910043
0.0207728013475342
0.06717728170383253
0.14570680023182114
0.14716093034367994
0.15521399286845936
0.13635093078468283
0.09742217459351733
0.0981329331176095
0.03251730125250563
0.03580883203523887
-0.04124340466273531
-0.053710238554857896
0.028339728607782638
0.007578617925338161
0.020715352359356627
0.08176557792493029
0.04227145071545704
0.03772501007304083
-0.011922714471535034
0.06037869644937148
0.024577853911676998
0.026854292242039352
-0.017880290716827372
0.0450815248940599
0.10507323283558002
0.01623206269657348
0.057227859039706556
0.05296943845171776
0.0739785162965334
0.09693265098333594
0.16571752972560652
0.12274015947530482
0.10772467586086186
0.06472016740587576
0.06160699659028996
0.010713920346615292
0.01617552762504485
0.011924579849694365
0.05239321028223058
0.05765773449461496
0.02431345331515863
-0.0016290631060744236
0.07453540263977018
0.05260195764133023
0.08238014307728246
0.008136243562273503
0.017543413224745848
-0.021047492912076117
0.001347892825331861
-0.015094909359497387
-0.051943775677195395
-0.015966613828252863
0.02608806253820791
0.04981207823523176
0.019862887385581302
0.06146461856776544
0.0737907586848204
0.07488735066181255
0.12672904873392873
0.059194378583458274
0.09967504764438057
0.05118249710066372
0.061236427051359024
0.023388306022929014
0.03910477273592071
-0.033234225885767646
0.10727571897162652
0.10968024839442217
0.014968817789384173
0.051430968950602465
0.06534298281862713
0.12076224438421285
0.09057997986865166
0.005620556002808421
0.024959713186605358
0.05840283170865669
0.023676176905304196
-0.06674618666083405
0.022840580331652916
-0.023070223182712207
0.09495589622389398
0.11157091881609678
0.058840633403329776
0.017246965450172395
0.07202286897389092
0.056462834481897255
0.0608659940838916
-0.026777193637940122
-0.045628201192437955
-0.12799803159207845
-0.03466604594793549
-0.026041500632888785
-0.054871999780727626
0.04879570207443202
0.02303163919001488
0.014718664290890877
0.009264904322759138
0.022793170306754533
0.07401225730118527
0.015324670948073304
0.08855061782198305
0.020448042362753886
-0.02099508802922643
0.04169791991735762
-0.03166723838761099
-0.04781453245383047
-0.042434845657747716
-0.014162978819992901
0.021948694685607888
0.1049995061121276
0.029960149937917208
0.07319494656589563
-0.03168173588304591
0.03669470308364719
-0.08886049636742893
-0.05546420314277678
-0.028184626557868755
-0.0932371199048941
-0.14375380441112987
-0.03125786510717798
-0.016959389623544582
-0.06014519146263189
0.02255087615383925
0.012139132534340503
0.04813598564774664
0.016169831459976563
-0.046981706436066716
0.02631992502926104
-0.02768838573935655
-0.032176491104614756
-0.009396077544692055
0.016684185053802075
2.8851084457102977E-4
-0.01659831522061047
0.05023269932087486
-0.02335224785170167
0.0514980577256437
0.04152571399995785
0.0625171075344068
-0.005474757266150073
-0.02878300021189208
0.005430236111793966
-0.09438572659231162
-0.05898174728446145
-0.04297149828723612
-0.055932908211751106
-0.039695348481171046
-0.0278513772696085
-0.006480067406225456
-0.023523047104812487
-0.008344080559503536
-0.0566583974442651
-0.061651983785567195
-0.03260548308895543
0.0010596487358551525
-0.06802852239049458
0.02764648892995542
-0.04571372604668634
0.04844582028655406
-0.010361551402541833
-0.04792971310640611
-0.03254372005846159
0.032720101142245425
-0.020423858186280123
0.014133877231045137
-0.012503716452536827
0.006567227872496504
-0.049245054895948055
-0.013268653746237155
-0.05175960621523401
-0.07991968739924482
-0.017340177818687963
-0.007238840386508623
-0.0829547241943307
-0.061683426318621205
-0.06113983576848814
-0.04557335822251377
-0.047759191559853746
-0.0324253674833222
-0.03687189072947824
-0.03832518762367439
-0.0314763211928205
-0.03891912259892779
-0.03470335126843314
-0.017733171167090975
-0.009131252948638431
-0.04337190694341484
-0.006948346342977815
0.017351114273841322
0.0019306067353445403
0.014381441065193009
-0.0058511987001055475
-0.030306223477358774
-0.01735720672982441
-0.004268494863351551
-0.05504655861086536
0.017528085239874838
-0.0027706791150417165
-0.05194235277763157
0.006406702752234925
-0.02949506562349367
-0.03489157326305429
-0.024002618058967157
-0.06544245182050522
-0.022485906408691896
-0.007558123799608418
-0.04776419007358438
-0.066373087777742
-0.05670433981652515
0.0015907127135884318
-0.0029885023904685057
-0.057595582760576435
-0.016265862779364253
-0.03911898835181826
-0.023740584140346736
-0.027143733337718877
-0.0350460890593287
-0.015984745806129238
-0.009179063341158497
0.03166914842951177
0.03296377282729166
-0.0216282499229659
0.010337581962528316
0.04067798835796163
-0.036209034585642966
0.03464087463855578
-0.040357847359381895
0.018552868754821948
-0.050589074860699454
0.0264955424167875
0.011384930442141497
-0.00876448976256341
0.02175660405240523
0.007929153632322173
-0.05752992483758015
0.0391639317909353
0.027557942263451134
-0.06811047918070708
-0.038757105164521674
0.027117834970683187
-0.04408319746538165
0.05010427891504761
-0.01104085627282214
0.02056621083166044
0.021615540938851884
-0.047445736022493135
-0.018907230290076488
0.003556053555716367
0.04033780701915963
0.03534728933223814
0.02833022913802322
-0.03252115579764406
-0.01764933608175504
-0.02501037433069602
-0.03335871087149914
0.010938385282440764
-0.0010467386824914674
0.008724451731860807
0.05486001433827518
0.06680045456866812
0.011488474088385917
-0.05593366224213597
0.025681134575578413
-0.017095537634572257
-0.03909101358060071
0.0013086026692452552
-0.020396800938312306
-0.004312220590897321
-0.036820068531784066
-0.03445459592756742
-0.05909841962801268
-0.04495663457573174
-0.0069020223336801285
-0.030904730213183986
0.007367061418724308
0.04653173271459987
0.03548861623829258
-0.0020731924229659537
0.005748470400281477
0.04133248275310977
0.036638720184067435
0.03576053283434133
0.004797180933129724
-0.010102791040828086
0.017940702688186247
0.060371692360801324
0.052275429056306603
0.06002308805190463
-0.013355302356060842
0.01125719755800172
-0.04964310996248322
0.02387350283081023
0.0514849339391487
0.02126416242778947
-0.016905253176429425
-0.010718395351554496
0.019619736044833268
0.0013080627462335836
-0.05543902659385116
-0.009906593257279816
-0.012955382512074584
-0.034892739672774814
0.021967779692330314
-0.01954348513868157
-0.04519388359353381
-0.011159410220877653
-0.012957526852664339
-0.027005734586899404
0.010334934066551766
0.022436293474862635
0.05428967175701458
0.03727999252701371
-0.013406101649842258
0.01990973021525267
0.015163795705754634
0.03124957018911617
0.0021888800556820603
0.042485170545538596
0.04183612604802197
-0.013360003949290832
0.03353805100641514
0.00605966166683463
-0.03567475667196921
-0.0014811957696340924
0.011706536322905175
-0.0624018992258455
-0.05147690903338326
0.0011551153890087824
0.028936115618107067
0.01865518396036588
0.024759767258485842
0.03275171712143232
-0.02478024348766095
-0.030821131768216107
-0.019571973832454827
0.031240256382131376
-0.02933501424394834
-0.023264533712048355
0.004319748776933077
0.08149260445596268
0.04025628776810619
0.0344164053503015
0.015009098577312606
0.04818277836828222
0.08409745715399712
-0.022333985091950313
0.006272428084906806
-0.03596978565589918
-0.02613401037842177
0.02356282890010601
-0.02336726213321194
0.033130393765158916
0.05385294543497405
0.006645716632959215
0.014982604475969687
-0.014349729750500166
0.022702887200880494
-0.032474927198107975
0.029117965352616137
-0.01330015257914156
-0.031545442572798114
0.04480632062261467
4.951163951115084E-4
0.012369877960402838
0.06108442795092236
0.01700715367936675
0.07448100250970041
0.07541506770500965
-0.0056999032371665885
0.013041093743551578
0.05440574803533597
0.05942736690489713
0.08588171625921322
-0.01931199881005877
0.0682896016280924
0.010254933002180881
0.08293658416202863
0.06118486674242672
0.04960054587061977
-0.009657700002553735
0.03071829669743797
-0.021768034963640295
-0.029976107561510028
0.018064210691954106
-0.02200504647677762
-0.03634593623658823
-0.01708985721898511
-2.418869631094786E-4
-0.0016091233939241306
0.019978829203568957
0.012565884500278112
0.05764673494742145
0.02915500533322272
-0.007252458504224702
-0.011889639784492402
0.0035781344169267966
0.008167201339972197
0.09266233650418977
0.051848474854878715
0.0365987417858481
0.10344738560732701
0.026287742365823426
0.0075401739208679815
-0.0450334135839137
-0.03917865708519361
0.02797035167626982
8.656501024481943E-4
-0.08679026354636618
-0.01516225523259025
-0.037767046340019386
-0.035974690144373385
-0.027075889122668548
0.007384354073237768
0.007489811960082195
-0.005510983015646299
0.04578202228776835
0.015690525940818056
0.06433332495989862
0.022786850075930235
0.02480004379047359
-0.05013676336734801
-0.013153567784313376
-0.0072078113680296005
0.014159926647597805
-0.0659083275537087
-0.021193950396559316
0.011959124167784822
-0.03651830640552273
-0.01741750887479319
-0.08037629069087376
-0.04659470796300907
-0.06934303436035966
-0.08572170472770906
-0.05741035656386483
-0.060122566824167396
-0.07443245759873561
-0.08171667824029931
-0.07245826544168137
-0.08133045851160946
-0.051868652811850074
0.026961918649089624
-0.003316551213593916
-0.030081374178592295
-0.004875734445820414
0.05213540111373435
0.07285690548577506
-0.01846707741439684
0.005685449761535614
-0.018870014295279236
-0.0033983205760642235
0.014336115638549791
-0.04038958524435087
-0.0393589048686852
-0.06313914476508636
-0.06162607675817777
-0.04331643720751007
-0.07420572889948537
-0.09689567413475615
-0.1346114051930441
-0.1801197343447156
-0.1622847112921271
-0.07800294169419315
-0.037601183026903004
-0.0659845899400813
-0.13179894302666853
-0.09575163408195436
-0.06726957712518018
-0.09162937397360575
-0.017631835903918494
0.015353643163999365
0.06115085817584035
0.005470154588720009
-0.006410075116231511
-0.002066801040774586
0.0229393849498003
0.010027791723210512
-0.001096927678896834
-0.019626752779713163
0.016360248236464585
-0.06258445460485655
-0.10317483613158694
-0.06673678434159636
6.470843156613591E-4
-0.03154323437762167
-0.038654580702832494
-0.112772514233229
-0.038353379735792295
-0.05313216627207108
-0.09951967784371357
-0.03622839360445683
-0.013588333113252667
-0.05375422347840758
-0.15107478267785632
-0.17683430801067074
-0.11619369152203761
-0.06379292789098817
-0.01614511386834169
0.03770679252371392
0.05856954120242167
3.8026192306116896E-4
-0.01653899636076268
0.044736480126129484
0.07840514120809644
0.07313778599188084
-0.04725783354427465
-0.005232864209353715
0.009446484587768223
-0.023446573900174666
-0.04250786280339774
0.012159779604028028
0.02801669905886919
0.10666063385306901
0.11615462099178477
0.0875939207554372
0.043184355070151725
-0.02843799602623978
-0.013234037666941655
-0.06043652185809501
-0.026690306556092034
-0.07574326169101356
-0.18461350790387654
-0.25424316118349255
-0.17285321820776528
-0.03710682744686831
-0.02998498074364004
-0.007570660145188139
0.006718652303185689
-0.0021610629508906007
0.06477680840692981
0.05057424612644264
-0.011724779992267745
-0.0036215541595859407
-0.017895184274913902
-0.032902022450060825
-0.052308430000658435
-0.020239523222354585
-0.07625701682908705
-0.04171114643399137
0.06088605661170915
0.053041593616129645
0.10247446443299994
0.0845782875310632
0.11962105105963806
0.048347924733973945
0.02878081795876903
0.10548033631177868
0.059851473569253605
-0.00201147505876914
-0.09826873936222139
-0.16467975395413417
-0.1651749100181602
-0.06731000366051287
-0.02084903250402368
0.014572599685843951
-0.01739596207476153
-0.006431646229701531
0.06872906570459668
-0.01617478513260767
0.0068851964699533355
-0.04103421770709299
-0.013788850714305603
-0.02659341457059054
-0.050035027063976244
-0.04186662139666411
-0.010670815591128441
-0.08366966278239507
-0.020431298154369962
0.08780325987349738
0.12543347872948818
0.15279080132364778
0.1953071133367383
0.13169415004460927
0.1505387610350073
0.22907069354076548
0.13192998523397695
0.12171426580314074
0.007086279851037302
-0.06924552565257497
-0.10265759218229421
-0.07414810726012962
-0.06191042718049972
-0.03528752030870106
0.06647712852440245
-0.031827697708361816
0.037543736238263965
0.01911430033128823
0.06485629326348069
0.04941360386490686
-0.07282172101681907
-0.0473812534588125
-0.05939999644320457
-0.019997387404883167
-0.052350689461396045
-0.13869459255979955
-0.04317852505931323
0.07531329414001964
0.1663036341671414
0.2532180575003748
0.19818686348579798
0.15362745156532784
0.2292797383487232
0.232365891935525
0.2119252392817705
0.20616317383974
0.09540226893599041
0.03258205625168521
-0.040874529871181765
0.0055473112487447575
0.0032246979355566867
0.03526975220519224
0.05143866345673342
0.02338550026669596
0.031436484142248075
0.03444359867390623
0.03620194141506617
-0.04242609085316475
-0.05975012645182322
-0.08819300285132273
-0.051139707023812465
-0.0608621211789774
-0.08002512826898826
-0.09971223001939643
-0.0015536861941333508
0.05407572198600623
0.1793412198493422
0.21029686020775074
0.23626893815814173
0.15637429206026698
0.14126610082820093
0.21793702986590333
0.22159863641587493
0.14363759341704724
0.05610899705922409
0.011238533460670823
0.009141100258914703
-0.04102773764567948
9.893932053959597E-4
0.012058639025784974
-0.014322930208690084
-0.010398250066369198
0.03873349995873263
-0.006032518556056828
-0.0206723669722975
-0.01762182560850654
-0.030646177286869948
9.774114970730722E-4
-0.05869154273743324
-0.07197741668754992
-0.07419488383126699
-0.005962296345662991
0.013957785007492497
0.09201369383804456
0.15201716206174784
0.09512305579402756
0.09896886687311465
0.13068170420307115
0.15119803968048287
0.11910613490387373
0.10818647143427405
0.043131685009087053
-0.0012256275006908637
0.01934515905913574
-0.04900927764888369
-0.012347612039998832
-0.057457343467884524
-0.03587937887573295
0.044037831773921995
0.04931982230412022
0.06285661248936525
0.05789002547941734
0.06687580791275226
0.11225780579089607
0.05631271770100501
0.03732613413533722
-0.013345953670862897
-0.0950031453939363
-0.04611214345143077
-0.05897366682567631
0.07450170468343466
0.07379183857273498
0.06522352354389457
0.11758193142558955
0.11667508005912265
0.07933328845302418
0.04247100563440267
0.009106232492313335
0.0661837047158566
0.04286011857384964
-0.024422418174613575
-0.06299374780388
-0.010143880841715606
-0.04606988462631001
-0.011963073524638986
0.0038032406111492977
-0.03919799002518577
-0.03292806100605136
-0.028646333335628014
-0.020852653957035523
-0.0010065792891104373
0.018898552225679703
0.1327959731894246
0.19436036899323064
0.12517478136562213
0.08233569212580125
0.039621782956833836
0.07122417342481327
0.10556584563515295
0.05690036766072764
0.04838038144918039
0.016244392068978708
0.10171983838308034
-0.012572428750438468
-0.012444927494093322
0.04165925548894059
-0.06038658344242718
-0.016357319696856696
-0.02727544979733372
0.02923050337871636
0.0034751169339348603
-0.014621110639917688
0.05011623228567077
-0.0469001596418552
-0.075827013240094
-0.045924934953707974
0.01951013998385745
-0.07717960864953255
0.002729890944744687
-0.0033870230539066936
0.0413582536640449
0.2277589487173791
0.2458421135064626
0.2768459468960272
0.14824461646881262
0.12653484785311403
0.22070659937331
0.1513640919002656
0.10740167761089454
0.06591768786844535
-0.03760980035027871
0.007654850364209362
-0.01702771900475884
-0.027998998979642684
-0.03242479854793474
-0.03174608690044019
0.026770738092543298
0.045305322964986044
0.004459113365652888
-0.028865913382099255
0.05304660505495669
-0.031153173025639483
-0.015319798054286307
-0.05155375732585189
0.008683453197033848
-0.06767370560134875
-0.10216201853691696
-0.047998156986627495
-0.006053836732584087
0.12019356873916817
0.2295704715101762
0.18742601774527143
0.21227728526705633
0.21307591245173046
0.12216719090971953
0.11097671268645527
0.08075913114720513
0.05534923958593869
0.03324125342072757
0.026545943484686623
-0.01739373651651984
-0.035031753980999475
-0.0496590464870861
-0.06938449020160721
-0.027427040718869974
0.054357128882464814
0.014806326998548952
-0.005425625116557688
0.03924818145824735
-0.028539317417931417
0.01008333310294764
-0.03771567637562428
-2.5931713330356796E-4
-0.033923650674989765
-0.04886444977057601
-0.14003785408258107
-0.027755324201922872
0.03305707338876443
0.08766569761523955
0.12902984300020268
0.12409442678788322
0.08936012598613728
0.0872623766438183
0.1441128136797345
0.06295132047402056
0.04709603554949266
-0.0052401334695223985
0.0032830673492492287
0.00899360928738824
0.023954321294471368
-0.051112164575320494
-0.03901197745117414
-0.04969272851196229
-0.007086352955500638
0.0646389873080053
-0.020053297681589866
0.028615331849120657
-0.0645371192802167
-0.07260118823395395
-0.032480807906302304
-0.0938739038942967
-0.11605541475515496
-0.08466348997114102
-0.05553832192022754
-0.06050133943374485
-0.022636366865464715
-0.007121944610114968
0.030995151331441984
0.03573772446138127
-0.014847295168709097
0.06162274671376255
0.14359055502181678
0.08004690064306585
0.14809932665098963
0.0710891465102564
0.017287546387153917
-0.047884468843576784
-0.040331970354097184
-0.07318548690839206
-0.07791710908946396
-0.06354250041360694
0.05490834676220588
-0.01947571349738782
0.03502287255052038
-0.03769277550561627
-0.025979572315209302
-0.03202786497448924
-0.062310984160928215
-0.09363788905427071
-0.08345170007667604
-0.003189152885011756
-0.05508388713555782
-0.09403039925692303
-0.0313131425274957
-0.04776495482352031
0.03909265575810487
-0.023241861409184477
0.00873287571304569
0.03446122886249775
0.08391316907039313
0.034879867638567326
0.03710473112820148
-0.007345398843807139
0.07274084738366497
0.006136361276207388
-0.08905339552913344
-0.027569529733853917
-0.049221298441355074
-0.04520726480680096
0.06178593784881355
0.017848835716368635
-0.00905907197024634
-3.1395668793258855E-4
-0.06275701145147403
-0.05675326182198437
-0.03105632692474813
-0.06491538301315393
-0.03812991870736506
-0.0035781994994078512
-0.06537729045315435
-0.02378829821536099
-0.029422003083532173
-0.03259500235632802
-0.043584602017109134
-0.02889081400079519
0.029081110521679273
0.01269603130240287
-0.007190439377984955
0.03993657761751335
-0.03694594895500058
-0.016730226237545505
-0.058795945610065
0.008407504627400322
-0.010805852001790652
-0.039772351583645456
-0.026775257867147618
0.024221154044753827
-0.005423532152460197
0.023911714876787876
-0.02530137474323721
0.005484720984892458
-0.04145771053983347
-0.03534250572809016
-0.06317655179492158
-0.07711329021027305
-0.046314541571611946
-2.7715644261352735E-4
-0.0020076953280026765
-0.03251295885904484
-0.00791768786871978
-0.08956058595616465
-0.11866015859169227
-0.08990070319027633
-0.05051237560757166
-0.07672762105595855
-0.10028545977640578
-0.1040741889516724
-0.11268264695075736
-0.1009915964727939
-0.05304672416424972
-0.07873512557589339
-0.07380369208413436
-0.03511181027274679
-0.012285944859429564
-0.029002819722858123
0.04633000180794482
-0.028797255472386988
-0.030947690990473134
-0.030652871243775387
0.01566965335624129
0.010445474012438047
0.02038917992777144
0.035350705778675766
-0.03167345205156941
0.04147552206066799
-0.06655137501174255
-0.009034447814601007
-0.07333850802075988
-0.06833508458883047
-0.1418817860959847
-0.1428528495209322
-0.1824618844286938
-0.1814405003976982
-0.13096401364639482
-0.07225565884945
-0.06304948510497282
-0.08821557838031124
-0.05036615876372693
-0.00982822387172043
-0.06417734296483117
0.03289433823623283
-0.029372668095670865
-4.190881959938442E-4
-0.008824411232040233
0.028556624853119852
0.04031378237582792
-0.0211892109849246
0.017495763124051076
0.03870952398093825
0.01192731285101638
-0.00289056233220264
0.041872791980153166
-0.004595760396835228
-0.033200041515825854
-0.03484547715950692
-0.050366023084824026
-0.04468449868671747
-0.05010068344745466
-0.07238747009509361
-0.047140341231044616
-0.08684520169296588
-0.06570391022474575
-0.04529775584754255
-0.1001676149522513
-0.0466816571048653
-0.0577420888705625
-0.03999363777928816
0.019616879880976032
-0.012295894763400992
0.03446854566075773
-0.028416430423664055
-0.002521983293323954
-0.03337529736336297
-0.04440585539053561
0.038936303665046156
-0.0013850702161947825
0.05151468222887597
0.0065318665493291645
-0.04830854201286783
0.01868183171087188
-0.015363422766000478
0.01155703607077384
-3.8706919255962355E-4
0.01555986935973205
0.040191230055878144
0.05838375770616718
0.007358219524963846
0.05152906420735939
0.04965770257735522
0.015037836445689026
6.688384574216176E-4
0.0034204580455640516
-0.004713103726442523
-0.018030651245275205
0.02639776086549606
-0.023803703097207394
-0.02777820221498944
-0.0158329056868162
-0.05322723664100314
-0.024313442296532626
0.01805881408665796
0.015720387104312922
0.033734111702886996
0.045662362909792885
0.0025751069740420447
0.008490774160127411
0.035469026245392714
-0.026610551962092135
0.03220348022253746
-0.053703596033004085
-3.49049972594289E-4
0.037836819013614825
-0.023684808276966795
0.06726632886570037
0.012927563054670932
0.01629170372248204
0.039921071791055515
0.05054102079678703
0.030832261694698684
0.02239381163822701
-0.034949265467022365
0.03552938306833323
-0.01134707864627632
0.006847201365952529
0.025498929060155103
0.012183355525382177
0.015204620614882485
0.004938468696339845
-0.02937963081979045
-0.01304886952321183
0.01160771741611009
5.780748889405649E-6
-0.04893580801688568
0.011048629248240403
-0.0031994951846412373
-0.025084963033896155
0.024590838861606477
-0.043486203584084296
-0.034826292550161425
-0.019270454912113363
-0.035095177768405636
0.07065237966119235
-0.03354353306682253
0.06296872764784252
-0.038144451811231064
0.03093360588648491
0.03869595785021859
0.03395663697689228
0.03891799284821916
0.010717839480214604
0.004394768761745287
0.003712650118698408
0.03814628139248874
-0.03347840426705338
-0.012993754707001993
0.0470106734465212
-0.00311291343934504
-0.01647012595889246
0.012280900296345036
0.005635625813774291
-0.04329740618938007
-0.039981798816735234
-0.05339490431189107
0.005319227113445466
-6.967782600178437E-4
-0.05357950930895426
0.04034948189405145
-0.04432284105017231
-0.019412590682227327
0.037161918165484344
0.0034849093092051203
0.0034369103285367387
-0.026976286669611767
0.025278965761013572
-0.011045734336217673
0.011249249523256484
0.06932610446213548
0.02882853220951178
0.016774433975259434
0.04246799124774179
-0.012712532965051994
0.026369549040046986
0.03064259813875826
0.011152865500493934
0.025790693587134032
-0.03347587614084671
-0.02180127649814797
-0.003874450913211491
-0.008719670558816983
0.03436230055256921
-0.005101723057119106
-0.00910957419262647
-0.001473876103457992
-0.048472565847854795
0.011376326179856497
-0.026596808945719093
-0.018280925543738342
0.015098337555177574
-0.02825262001213866
0.00511953651833824
0.014095813669763903
0.04144805922022717
0.040578175701746495
-0.0034020333404267667
0.01662594161317859
-0.012020469811538927
-0.018036127180524077
0.05006043619400398
-0.015067869651527423
-0.017441528539165682
0.06290286393619672
-0.001643419494881352
0.048017481104851184
-0.01354228055900828
0.05550353578766881
0.04801582976618687
-0.007604040044000099
0.038690069949829986
-0.05436160871032504
0.018618192556661854
0.0031006859467282524
-0.02847297907108028
-0.034197164821808526
0.009405204009011505
-0.023787858068561995
-0.02116418802692696
-0.01842189612134499
-0.007919452980159574
0.0164719654996599
0.06451158738865923
0.05146357862952271
0.033702556007522186
0.06659870511338568
0.021518325996721197
0.025210435874821756
0.08084806693492667
0.05281338814904815
0.061266535765750745
0.05028692881947971
0.02763817638936414
0.018403625833351794
0.022798086668485935
0.02034124293270705
0.025981741311161117
0.001266428405680737
0.037599723559190834
0.0024238717308572334
-0.0015446867061630531
-0.01555211850381438
0.012523859313244711
0.003933161349674263
0.007575070616289137
-0.0688728774118697
-0.032206453003836684
0.02409701665180657
0.05728238060219072
-0.039642948056394914
0.007475815447314486
-0.028756745266130312
-0.007733994887250928
0.06268261120318155
0.08698306622000558
-0.01605707421674239
0.0017178134026142558
-0.005111365320724788
0.048432427678850594
0.08889577986674502
-0.002322308419009872
0.06849160907450397
0.03737302998650357
0.02029796695760617
0.016851644586787055
0.03201810286582299
0.014058783810609375
-0.0396265062017371
0.004136190381204896
0.00539133549064023
-0.05672324383810518
-0.10735117193479791
0.006536840886243104
-0.02955607809592025
0.018985690969171735
0.024881023955968404
0.06519483378399583
0.05577137877525703
0.04928717271232693
-0.02591261440076591
-0.07206138203815171
0.010455817576015955
0.007195408154274334
0.05596741648957919
-0.005916042225566544
0.003346395751204764
-0.015298323908879159
0.034941012685093496
0.0632650582998093
0.015217752182458189
0.05297294759752952
0.004866172654388047
0.018072752078732726
-0.007393570228619298
0.0383237014042725
-0.04746253945650886
-0.012365668978691265
-0.016497753047640343
-0.1006889084920102
-0.10884657911895448
0.012987859504179411
-0.020481665396092783
0.06585056489115354
0.04941207839845505
0.09881153672119439
0.10362960755785579
0.08633966190336513
-0.03482641867179716
-0.04196132775280676
0.008735310423964226
0.036388048449659656
0.03059328810543745
0.06097146071312059
0.10784440305630995
-0.00500612278226028
0.03082108635575097
0.14014961113421273
0.06536715831019446
0.0011319940143228319
0.020741689388095588
0.033466282567217086
-0.04562030579470494
-0.022143387266702685
0.03512931597030329
-0.024820223958274004
-0.050191008953911424
-0.10051287842422309
-0.0038801486193215753
-0.002187325218640207
0.07858822213447893
0.09589260109375208
0.10554075667514057
0.16379506412529043
0.11167209693185384
0.028035674844215583
-0.0029159674422900364
0.013789961070162473
0.054191505971878086
0.06260292432540904
0.047031279214445096
0.03911681608239374
8.10951310356181E-4
0.012228557309355584
-2.468594380868558E-4
0.0848488150788448
0.06780280799020566
0.10309847768798
-0.006829104884484574
-0.03459287000221567
-0.07466973180128593
-0.037978054605716294
-0.062061388664108194
-0.01385027767853186
-0.1307445098588378
-0.0870313613242253
-0.036781753099949376
-0.00830235083148677
0.0726033557289269
0.09265194637760692
0.1204646564359072
0.15115900731395873
0.08526617197876549
-0.006684109947643254
-0.06967972856349326
-0.08675918475484871
-0.06885876745990926
-0.024313406456221296
-0.03267847743764419
-0.058197963198126604
-0.06002537573222527
-0.05107987322241786
-0.04278281225230349
0.08071610592361925
0.07950083760311986
0.055519612018886874
0.027892385727853106
0.03854091351225209
0.009108190621615228
0.002711095655624736
-0.09450321969569715
-0.07235170525554953
-0.11439500645373622
-0.08131486241653847
0.005618722189775356
0.017316133685372204
0.06538336048292694
0.14317828232487664
0.16390408892555855
0.1776617716933317
-0.021367982883769798
-0.09457436529443827
-0.2654618812546937
-0.24818046826036771
-0.22868457282063323
-0.1850103856260127
-0.09335903287432641
-0.15373670711865461
-0.15184870781892668
-0.08291379736957602
-0.09720270881951837
0.021750780163307344
0.043716806854959
0.027162651154375567
-0.02089625667037092
0.015396441335747399
-0.07899756148018486
-0.007928942113975502
-0.010043941930840275
-0.037773823265927
-0.0919087583810585
0.007859827209162541
-0.0015088114469313837
0.1044991384304214
0.139580302389862
0.19313955274798592
0.0946067676855813
0.08828775990404897
-0.0424497189361414
-0.14124600251443212
-0.2647384634299345
-0.22990773077639445
-0.18217583214918462
-0.1626128334437112
-0.1825830534250163
-0.175749919863366
-0.16472382693201984
-0.12586191887874768
-0.13274223871799146
-0.06150299494726946
-0.005588513253703696
-0.005683420257563505
-0.01154416079259826
-0.03913243822594178
-0.06549722220189644
-0.022729461545573135
-0.0778972142378585
-0.08943790257184146
-0.07239461112770919
0.003314487104658856
0.04902578314212676
0.1408674546271175
0.10391995226084899
0.06721099783106411
0.023830010276191686
-0.017040439781180184
-0.09186466497865076
-0.18372242588759932
-0.24484725610556513
-0.16160255565529424
-0.05590930124286761
-0.07318244009566899
-0.12925388730451517
-0.11842042979834902
-0.1475729680778701
-0.05553599910727478
-0.056751634244906105
-0.03695828501161461
0.04095307138236358
-0.03987469075072936
0.017269672286205885
-0.025390903189283488
-0.006309915982381147
-0.07890515625451561
0.003199353784109558
-0.025110366192132402
-0.0021421999573538663
0.03251783961061058
0.16931527944804628
0.10331012613298644
0.09815398925176452
0.056209255994681843
0.03353414809189289
-0.049375978717493434
-0.08143325932908252
-0.21345500909408022
-0.22658582900720217
-0.11541333779895192
-0.02183843004966611
-0.03967130693352626
-0.010417695863480849
-0.07106397459404909
-0.019239959864343934
-0.08674697348913521
0.0021659993728191987
0.020240165261237744
0.0031397619235792556
0.020580388119732104
-0.0015321277025016308
0.05347353735871624
-0.07643013616399043
-0.061694445351953196
-0.07958953535479958
-0.05218524272444742
0.015426932008157345
0.06544339617249996
0.10681491411790574
0.14679213880129982
0.11371775191951737
0.01716615624904921
-0.0667480415520489
-0.07741364146730241
-0.1796051599649141
-0.13048765429875367
-0.21149708554859833
-0.04717298649077417
-0.03432961547443431
-0.029668893827748802
-0.025701798103611704
-0.009940960050008732
-0.00836243289993647
0.013192568767083463
0.08911803659119515
0.09062716742530968
0.03443272477949496
-0.04296312020918821
0.03332508318654985
-0.037475325962425594
-0.06568414660370347
0.01439474543357051
-0.020072221005745756
-0.05358417326505204
-0.028918344031652304
0.1208579582366344
0.08068658900638687
0.05776314030301919
0.02857215323323079
-0.00304401105738921
5.633178219710616E-4
-0.09615422352841965
-0.14228391344272553
-0.10654665447777331
-0.08558844263776659
-0.13699014079665345
-0.04810096728223511
-0.08058043902338889
-0.04993263904670241
-0.08339505033626766
-0.005278441354811172
-0.0027105078673289834
0.12633048462340254
0.08997241835964954
0.11333669076565149
-0.02023210104414733
0.02457992198810022
-0.019574124262846368
-0.013667742950669467
-0.03023995952111949
-0.05534844057290937
0.002019077920782746
-0.05821244433361945
0.09466127275725489
0.05111556455908137
0.12034632605159773
0.07385981304634584
-0.01895376298456179
-3.3079996156104303E-4
-0.06283933458723452
-0.08008061349637145
-0.1318211264232043
-0.08842003053008549
-0.13796204287622818
-0.14675328237003687
-0.13084240015418885
-0.05556134290662693
-0.02546048764487344
0.07354509411353635
0.010372704903092759
0.09957383270757926
0.0965487964498748
0.027165127479204434
0.002596776869797868
-0.031639934045582095
-1.7546661811515974E-4
0.015163471117734603
0.009674701909738695
-0.03477325613431943
0.05180470248787393
-0.03444521585154259
0.056628056853907795
0.12055603569813327
0.10148931711994817
-0.00824031774511959
-0.03998120705543443
-0.01458284876978827
-0.06104949603016642
-0.056316248656700825
-0.11728521139624332
-0.18269806036754568
-0.1455538975205705
-0.20923608508035285
-0.19199480153033774
-0.06155171622054708
0.0257731657221898
0.003384763158735132
0.10881134007396816
0.02757888532988265
0.1206406263645577
0.042728550460786364
-0.03435992987090656
-0.0144509114773547
-0.05213205676173316
0.06486365009337586
0.03662176468141426
0.004767270848350773
0.007786064552707889
-4.8169673270988207E-4
0.03792927054546505
0.05105407351081302
0.06353581447974375
0.006545811029509817
-0.01446574999817298
0.015228142819564121
-0.002606216499776558
-0.10371929995168977
-0.14065089907728245
-0.21947594173191062
-0.13307112817931846
-0.11745274139519436
-0.09770238157143585
0.02678657482746729
0.06512724581290193
0.11420355013555002
0.04190329776494779
0.06324200161950466
0.005538879847919759
-0.0021069137555561187
-0.02307759002974831
-0.03359726299395409
-0.029019016692367994
0.028804655928677897
-0.011296569795308476
0.03392379048122518
-0.013794708664098482
-0.012153491049053052
-0.03814648811610812
0.013371972973321074
0.03593842359086622
0.008079202494977884
0.026552270863884817
-0.0684150443847535
-0.005193810301225913
-0.0510308386726706
-0.13811188258503904
-0.16447649309549883
-0.18965993898812167
-0.1072050637567126
-0.04760460824542161
0.07473487217708327
0.11083831317616803
0.09387414879375745
0.010132778741245824
0.033459993818869146
0.02713805167794207
-0.03402864150849758
-0.04362646449496797
-0.045253901791120044
0.023242417605210248
0.03700993315827493
-0.0038927600831047404
0.05812190206220337
0.030426684549464744
-0.04763782409806857
-0.02411521031731759
0.018418506945283346
0.03947029397113598
-0.019027680964910705
-0.018958738476223688
-0.005144629013746219
-0.03524077265770138
-0.03427450020443896
-0.1208328852550081
-0.09938421573869187
-0.05999001387431472
-0.07752247207400186
-0.004226966895449197
0.13200240890958603
0.07249850687967108
0.05267290315436462
0.004802946737685931
0.015339000311753195
0.028553434011231723
0.0012300150888748338
-0.023965727316993538
0.021412089489723504
0.03951586550781948
-0.01219519215901744
0.016454875911052387
0.026709023135927237
-0.032157512327731744
-0.05261106202031694
-0.03965946775072071
-0.06508431723466347
0.0051294713959663995
-0.05701954242325751
2.605135137023691E-4
0.032611577284902736
0.011671900524074458
0.0359051320368907
-0.017504997395439068
-0.02783745228710053
0.04003937709726117
0.04450410422118668
0.08363341175982773
0.10910542959903245
0.08488718491976346
0.05051308238667145
0.06766378354639341
0.08183514612872259
0.001767090084947444
-0.020425897639818006
-0.060075762691452136
-0.04393869062733044
-0.007007180026984037
-0.023647399515085394
-0.022591410283367225
-0.004959688171107146
-0.01819861581070504
0.01218858396640006
0.014048814909302213
0.0048253472079763104
-0.02120843599460427
0.033345022921543475
0.02632845918092363
-0.001891471997412556
0.03648092297043654
-0.011402471703296328
0.05067317122605487
0.038076032260326596
0.10052591689259999
0.09484210319218304
0.03446057505822602
0.07898088930774182
0.0352039455471985
0.0929925554315863
0.012681200938801214
0.037033150284084305
0.013776357113086554
-0.015483367569213615
-0.04430385390909121
-0.012884307367935673
0.04392384738068179
0.07084979569450012
-0.02567258967400989
0.015971070649300992
0.030045576295772564
-0.006077489030676602
2.8857900455775148E-5
-0.024860551979766287
-0.03622116720355065
-0.03606596259088701
-0.0253064801622075
-0.028385596209884133
0.03672429164487196
0.04137656559434771
0.05766149685145773
0.08128480391326544
0.0658426565021938
0.049446398223317325
0.03652092354921512
0.04396349306921237
0.03020363007651567
-0.010531729824397042
0.06488528559978991
0.03930788564062928
0.022834398068260146
-0.02046127284807387
-0.0239833368128923
-0.018881056838137268
-0.013936044601041156
-0.015646373799894475
0.0027566235577165285
-0.00676188165752032
-0.0208123576676177
0.026942019177498455
-0.05098195539929744
-0.057961035443408235
-0.080366748167739
-0.014247580789005386
0.0350819199772668
-0.012477429243931816
0.026633202123519197
-0.02000388852516948
0.04718029179336326
0.009282143871114805
0.06349048257951488
0.0036238826448273097
0.0410518244263746
-0.013206225977588802
0.04755728448747392
0.03359084208975884
0.06919429189952062
0.012211696348308427
0.007762396421260561
0.027792178770383827
0.03190061003819306
0.03692566569872015
0.04179120350092539
-0.04159201014438161
-0.036663073278351256
-0.01888172718431714
-0.03707058647611939
-0.028795100945056273
-0.046237401343155425
-0.042198091017527986
-0.03862541649289556
-0.052347856281304714
-0.00258679384256765
0.06990605089750086
0.002239474152554132
0.0752891348124975
0.007956548684525156
0.021341663634741086
0.04227386836195626
0.0054591586708805356
-0.00887860926173104
0.01071878726570563
0.07215817730595475
0.03561679480598423
-0.020781334596760098
-0.028948450295215505
0.013260144994072453
0.03884227592288608
-0.006738840152442412
0.005601502794598446
-6.436423493248132E-4
0.01926586386167659
-0.04990476862828522
-0.022341013052063464
-0.0391550154237773
-0.0026704364658143103
-0.019226149758764726
0.03469454044063188
-0.0665652227128485
-0.02068766313218271
-0.04815136713728504
0.015162812129798977
-0.016335904147147102
0.036010321323757824
-0.007787601728826535
-0.028840907178388737
0.021990660281870134
0.034285388493051835
0.005933175738824227
0.02499820953337565
-0.03279020129653437
0.0481589183303843
-0.0032362276991654317
-0.011983226324508808
0.04398199717685469
0.04766320786210705
0.013735950040723335
-0.012222351553916311
-0.043432175005569625
0.016034929258032883
-0.024490165928502977
0.015382471562195884
0.010863764637908486
-0.040533045060478425
0.032801731290376265
-0.00607335474267864
0.020461548381408137
-0.06785560545214145
0.00738333231788727
-0.06486170850886215
-0.048860004978619476
0.0016601015325307894
-0.01663981565416661
-0.010953374931818189
-0.05346111142326833
0.01996322513674606
-0.04054837210495017
0.024172535206198824
-0.005005544510955825
0.04029287921023001
0.029042151946183252
-0.021600252150679008
0.02250662215429971
-0.041409185896382476
-0.022930652916034237
-0.021852473602548675
0.03874699453648823
-7.016914888550483E-4
-0.007412868436449085
0.0011202405544727026
-0.006545003910683899
0.03336441092249209
-0.04530662628846719
-0.02552953760605436
-0.008222230918831994
0.028291465125670417
-0.0069138815646428275
0.006469910140112445
-0.0021010750956261906
0.009410395256205049
-0.030705616236025413
-0.05780892941533395
-0.017365095453394753
-0.019717517285886922
-0.009464033095370212
0.005918811024614404
0.04160773730174003
0.030218693594375488
0.011508799499943285
-0.027234342977737126
0.017719569131763122
-0.04474642546766734
0.043418506012975124
0.01545460471692577
0.04778308619382387
0.008708337713489719
0.0059354218988704145
-0.04290828203747267
0.012280956202340695
0.02738457171639867
0.003376339904674849
0.02977859664957751
0.038709905963979524
-0.006839723487363841
-0.02144922408155583
-0.08475942734222469
-0.005491999488184404
-0.04440599799051026
-0.026386995318125796
-0.01694853003019205
-0.04877153753841198
-0.03843948153340563
-0.0011697810489166261
-0.053312522350338884
0.022781558630399434
-0.05842241510865306
-0.07006640281923074
-0.017620643251988102
-0.039990476948224475
-0.04563001081231224
-0.04462072972619222
0.004397186130645886
0.025574275471687342
-0.030819288647684885
-0.02992180104707949
-0.03888404335812366
-0.03624595247347964
-0.028954247795112697
-0.017605874699336877
-0.004197773793526224
0.033506491129473896
0.025714366989488247
0.05721498166233455
0.02880974920443993
0.012424622713694355
0.03009487575402363
0.03194651770590051
-0.008949342887954377
0.009890029652597419
-0.03733349557571551
-0.01245711542266294
0.008457505751427499
-0.0013851291200937257
-0.01938015629915035
-0.027506336448773365
0.02326396571272468
-0.0032434776155641828
-0.030813036580038047
0.034993748634515216
0.038604835089475216
0.03985842743470684
0.04194832889031717
-0.01354759103988018
-0.018944475325259755
-0.0138675925555213
-0.015469488413828992
0.044857934925907415
-0.027440439496078373
0.02080769028261867
0.0242923488788741
-0.021435573516749355
-0.06256573733119268
-0.0357685011055483
0.02832505154180324
0.035270547773068706
0.0207700834790544
0.02922066569865964
0.019462875992345557
-0.03320570831354801
-0.04720221998142867
-0.04979580528546133
-0.02577964917031171
-0.0035532275224480553
-0.033259594736786684
0.002003848947421619
-0.029583685502838797
-0.012339980783426529
0.04134129759073245
0.015012523119427088
-0.002884601879572398
0.03791514752015317
0.04479066538512874
0.0426937354873343
-0.020477461821628393
-0.04679318897308048
-0.06104892332537752
0.019194016788402043
0.005244147409727233
-0.0037683942074356485
-0.03218890000664701
0.04361122335761394
0.026571668534968958
0.01937859503941986
0.013770667676438609
0.015646088433033226
0.0739716857504299
-0.02577150048327611
0.0012531808438090105
-0.009977184698385565
-0.006845626066374169
-0.018027147821965118
-0.03275035777830511
-0.049358675820478384
0.013591672537503981
0.04147907646855148
-0.002590365722155798
-0.015923829391855913
0.019569456197812383
-0.04686576665474772
0.01726702219687495
-0.04089185568793254
-0.013288674632403541
0.03622010950355583
0.019351340065279506
0.03976020126831061
-0.024375882254649678
0.0010960569929365492
0.011815516255212223
0.023767837848167803
-0.03231288376048196
0.0670545482116672
0.026841326306310323
0.0700191307268446
0.09298093955527764
0.07832648204397948
0.06863438870871802
-0.004195902827003531
-0.00464587613326769
-0.001666923607108594
-0.02848555555994854
-0.019868232737687477
-0.03176705700267889
-0.017747426332506176
0.05320016676479326
0.028784912278698234
-0.04397953198917263
0.029920055661490266
0.031932210130142885
0.0010227735490345375
-0.05129028058616625
0.01228985792873271
0.013984791300763463
-0.01668881731790251
-0.07728348998179883
0.018902695543038105
-0.04183098887161068
3.158546314594059E-4
-0.016445400872589645
0.053880712727543995
0.1188716218219793
0.04327274206981144
0.06346220183316162
0.0923135174675453
0.08045122391497284
0.024580749461179916
0.07159490227218111
-0.05110509353444204
-0.008460465567755716
-0.037643801523645395
-0.07553836387534311
0.005985608938500963
0.021872711645426635
-0.02990840344856263
0.013116213737500524
-0.017325550615792263
-0.01996183555148426
-0.015001837162627882
-0.015965070188096033
-0.04670910761649534
-0.01510102506610016
-0.05139744181449641
0.006009528726603159
-0.08443803221110731
-0.0837660811901839
-0.035333935759665536
0.042626701875972
0.06809519558241632
0.12740210629797788
0.10432082238158906
0.151498932143174
0.054038922522787664
0.019850040661749453
-0.03410106617419101
-0.04224424812006735
-0.01653260421399271
-0.08018431827042441
-0.03822835336483836
-0.0729219637751619
-0.02271222241366843
0.04972045726246412
0.05296197253101719
0.022833222719653365
-0.046546883761901414
-0.029645903712274196
-0.016152975328165894
-0.05359831083971125
-0.07016428562820692
-0.0215321424293697
-0.06751118499551774
-0.07559227369062223
-0.06046423889952345
-0.03925492387354136
-0.022493795508581986
0.015853473919813375
0.14577549282385713
0.20240312511413325
0.13205303847609437
0.16176497489060185
0.07190787103197387
-0.056919969317788977
-0.07074809454210028
-0.0024715592120724624
0.009974568117982889
-0.012939128281732232
-0.05466175345689423
-0.007485363160110194
0.03994191560568384
-0.00989382958277285
0.007356299043664989
0.01950608696826625
0.056064117614780334
0.03812521851720955
0.0062064342243846275
0.004287955897595867
-0.009540135039799742
0.028752899306918912
-0.02523294418365091
0.018230259985194272
-0.028874095670758205
-0.03842895055869528
0.015419125204177736
0.09667507739627637
0.11110313706219839
0.17820045457410782
0.1312628453554506
0.10304983869003762
0.024327708624121872
-0.0497509996128725
-0.07842838339628244
-0.03410374334640941
0.03907655016943692
0.08192999155838383
-0.009435129284354618
0.04155791149563482
0.08858879663728995
0.009900171596612271
0.032762353260658794
0.03379418406522359
0.01839179464649424
0.029195474023327967
4.1315120815883235E-4
0.016804952301278063
-0.041719994472239195
-0.0489832622989055
-0.040426431589269396
0.009169383419149794
0.06522860028502944
0.03771594281540129
0.09511003663052547
0.0727592941073966
0.09325717041836298
0.06521539242593566
0.06083580114561243
-0.003126928063218221
-0.09797805664990127
-0.06275236686078081
-0.03200591784748909
-0.00518707326653568
0.07872047466679057
0.10689855344449384
0.06566979524675473
0.15129717003651533
0.10913420604283576
0.040342193023251566
-0.009054800401559315
0.06820863115864151
0.04802796266107501
0.039204743225262566
0.02784951233253169
0.05154588618630177
-0.02130909838267413
-0.03279571380821531
0.06002286381473199
-0.02976260614638082
0.04084424882360683
0.09147003173036015
0.11387968088549183
0.1399177378376066
0.059059408423541675
0.05537235081009394
-0.03266245318942958
-0.18434832351682068
-0.21585231536724234
-0.07187369664942858
-0.018291252873333812
0.02140410990969906
0.10628236548818741
0.10322412148626083
0.10205816394433222
0.12353261532533255
0.08616888279617932
0.08111008579070217
-0.006266300192425086
-0.019629578672001654
0.007039537715379362
0.0022228534289876803
0.05148605992521634
-0.020725146492258185
0.024940425705625
0.014115484049838029
-0.003915601410604641
0.02833219514280403
0.06197337581288506
0.05140240925236334
0.06841481849419301
0.09005075470060303
0.12271805631483786
0.08970451876401686
-0.030685561711615624
-0.22186754244949974
-0.16606540845660642
-0.08482868301071424
0.03627282438382772
0.13259657121442597
0.12262750230339192
0.07108222538694302
0.07462348391768472
0.05796896618293083
0.14228799202116002
0.05275486299675525
0.021562080956659686
0.03561671139985079
0.013020944752223729
-0.012613510267081704
0.04066359212094819
-0.0398591287309708
-0.006736076682025749
-0.016648851268219758
-0.010682707466794375
-0.04329857908474567
0.010232734407498585
0.06774523523965065
0.01106096169119784
0.07885456868672801
0.05279094572706432
0.04905369104837284
-0.06839748114155919
-0.1725680090535017
-0.15817177170079574
0.002554120119373738
0.0545454922398643
0.059979644879911344
0.10868465577616887
0.027942707366132333
0.05052311490904471
0.018965108791602285
0.062585007475034
0.008374948403612836
-0.007947625141358031
-0.03417557989314312
0.03769960387219638
-0.006370146239382866
0.008190779597937925
-0.00543918483367104
-0.025141977868571894
5.622850533365412E-4
-0.016076139399072722
-0.0521550015223728
-6.105020879588704E-4
0.04242051470229744
0.030418772215722176
0.025938857993075968
-0.009909224353188884
-0.027784798891713307
-0.12487300148689633
-0.16032525251027183
-0.14431044584076888
-0.09038676422472705
-0.041739612213790266
0.05256649500961233
0.04490381888014499
0.007592065186821135
0.06486452867699155
-0.023814563781558676
0.0035827580124156684
0.06071030052037517
0.0598719305249435
0.04704758266609705
0.025553826635463434
0.012761888144031334
0.03681050627452506
0.042146942209076756
-0.004165650901535657
-0.034981019195711484
-0.04923622254328357
-0.037935064974974037
-0.056153078898766265
0.07094757897656874
0.01942869200202416
-0.02124450516118292
0.045843113454625745
0.004952432741563844
-0.06735273068014137
-0.13447028820257234
-0.1252537229436373
-0.03251927741858116
-0.019401264725792837
0.019783319243259524
-0.06672724442492596
-0.04928353667902081
-0.04411607210070366
-0.013234485841362411
-0.042062543472103336
0.06810941218245187
-0.023732778546182984
-0.026462356814190405
-0.028132796533529483
-0.002294296672917504
0.03906635654446583
0.0448634566274541
8.593257419297307E-4
-0.040431518198101105
-0.03476944235405813
-0.028598878325135652
0.03305883548774811
0.062377449415703806
0.07530821690579541
0.040133907650290165
-9.26809484689262E-4
-0.026625144420050754
-0.15536486308916994
-0.1757858935036834
-0.05094521087811975
-0.012977744589304108
-8.802261379171487E-4
-0.04566064962668804
0.022471898250674704
-0.02289048301711313
-0.023448948239570815
0.010627039728611638
0.005455523398401212
0.04302231882643292
0.022316508986023404
-0.012554870129949594
0.0033886790275148506
-0.025681613640920087
0.05619842164841894
0.022118028771429824
0.027472417257331582
-0.022323119582262258
-0.017880024475396498
-0.04278169402170301
0.03996277914137239
0.04211209786849432
0.016623386827148676
0.04001701288864642
-0.02070762461370485
-0.15772246656945976
-0.17173984251121155
-0.139624413870832
-0.0710757377797714
0.03649525705480072
0.056503422610587044
-0.024768023517635712
-0.017067044000780972
0.0013610690340155845
-0.013334840500373623
-7.641317280280088E-4
0.03153295299674702
-0.0053375352987214695
0.033055172185941215
0.038780730437706745
0.051861388199311784
0.0027567657620831535
3.678111005127093E-5
0.05305388756890597
0.07232681024003433
0.07669245736215338
0.10610992158269089
0.050927758430348004
0.031619988389481525
0.10168891814120531
0.03776134046353776
0.1268293874301913
-0.0017683199782148476
-0.10495030713344601
-0.12602565538972352
-0.1031150229108043
0.030726785336881945
0.08880895396134442
0.05762344283632625
0.06096346259043474
0.05264169865590338
0.0012679442163296864
-0.010080099284737274
-0.008621335779983778
0.027531546587042797
0.04880373723375186
0.03321965805506292
-0.011511944304129476
7.95791915402059E-4
-0.03188151172565356
-0.010400718203130916
0.023686049976894143
0.021986824702422157
0.1047869417290507
0.15937926290353738
0.14612793000794735
0.08003492378412262
0.13212176794453237
0.17291248850323127
0.069473879611807
-0.009925280763048622
-0.10621388632534753
-0.07021481030899993
0.046868759436422686
0.07435762750168944
0.15369713200957202
0.11982951882119874
0.130431779119806
0.11202518512860711
0.05597191127640356
0.06658799858756506
0.0024396883277247356
0.055660573054948995
0.0404439225557395
0.03482419062873502
-0.00487439417620907
-1.257849743592993E-4
-0.039510034315391
0.0369052966954312
0.05912961957381748
0.03506132364122395
0.09336226795013325
0.0671328252764681
0.17313672043571643
0.1627299622475801
0.18290990108970262
0.1018203777707706
-0.0014049098227681776
0.04187573728961096
-0.08781422096753283
-0.04371640479293021
-0.025916998458318952
0.06926797365195958
0.04736832449392823
0.11795829266329355
0.11016625859213525
0.11890415391669637
0.11875607740331293
0.12901645393020827
0.008712758188666089
0.013748385214598077
0.004864654176387062
-0.010926832221040598
0.04950623373208287
0.033446474457575225
-0.031941297814318204
0.0577685209826506
0.019859276556475323
0.0022087864449216147
0.018294246105191606
0.04969665159296903
0.08011486726056692
0.1264502763417169
0.11905241792228625
0.009649087967738522
0.0025321771576924863
0.06516099083687309
-0.015507695666196992
0.02819448746951669
0.03309757356963367
-0.009935580805805753
0.03500307614918437
0.11798821415195293
0.06774948507638544
0.12497469634002854
0.08379768458631688
0.03047403564936717
0.03837825307438846
0.06404637800048744
0.022851746171231688
0.020244077221544646
0.04258271981943258
-0.016154597038802385
0.01929928351519793
-0.007670191351885585
-0.007571988013690716
0.04178841162019193
0.044613290895021605
0.09489296172429133
0.09404735237036906
-0.007013470171732307
0.05381518016559038
0.0814939692373274
0.02720734034704124
0.030613449200038535
0.07129685405729821
-0.002936099435148046
0.005836536288672069
-0.01487479041044972
-0.014828865307282696
0.05330917795758389
0.01936957507341813
0.11434937858827181
0.0977983992261675
0.06084881813716464
0.05110350587829098
-0.007627877981287293
-0.03703965819880176
-0.03680203207389192
-0.015003907915427788
-0.03611723256666201
0.022620148470294105
0.009849263061477518
0.031062359681498862
-0.017578251222481824
-0.016733882119272517
0.032321515190010544
-0.010345558480949427
0.04064653082914684
-0.025988857702755046
0.038829364564081315
0.12552047226660534
0.06148530438754747
0.11547046747940881
0.0016389641098132554
-0.009657641214858794
0.047350691671471344
3.6381310600821327E-4
-0.018713786063318222
-5.066067632324589E-4
0.005379289342935066
-0.00331601565175342
0.022186493526957986
0.04218026102122772
-0.013725693720859794
-0.011954253596502368
0.030409558218108094
-0.021703682283406987
-0.011073675075558002
0.012707824706484972
0.05047924652334107
0.010718354031236978
-0.02447256689124608
-0.01478518364184859
-0.037324115881022385
0.020792197764449696
0.024172038717739402
-0.04846460041321131
0.036042994121507244
0.07538654519192663
0.04937292203682711
0.05818516864439247
0.0683544432376381
-0.020493719011401672
0.05028513236830433
-0.016652356481722468
0.040461740921699976
-0.029723597254202504
-0.03028077311116866
0.05091306407102892
0.015672048934373493
0.010938341285971596
0.05901033860870291
0.030340511812421634
-0.027187703515489804
0.0035025830707184676
-4.975935841345384E-4
-0.010933272907086417
0.02749003060288281
-0.007455950662390186
0.013781361369985607
-0.07223944559424451
-0.014254216064136214
0.026971067198592397
0.018329945529787322
0.004496782137573858
0.06865694182928982
-0.02880970114801071
0.06154283041927829
0.04893366991258257
0.013082069374143947
-0.04410526445291489
-0.002434304636917503
0.028431309725499315
-0.012882958180515262
0.0014707022934402792
-0.010704362461661768
-0.005835704805363471
0.012563701645832846
-0.0029375968414521963
0.05175161025706411
0.0031658220817281967
0.0025950584919612715
-0.042178795178063215
-0.013902716125589139
0.029121692027853894
-0.03552836314851101
0.03829352262974847
0.014597766202533502
-0.016652188374666515
0.02549322615503147
-0.022170294102127282
-0.0027236008425135694
-0.05826033801935462
0.01960984637411843
0.006697230172055195
7.96925106438018E-4
-0.015651846469804397
0.03628135763899228
-0.039060485712618845
0.045123731288225916
0.04566254520491851
0.09287901528235006
-9.91030716965282E-4
0.0032647593864783804
-0.02802053969411685
0.0038747614729203574
0.008384539110796186
-0.002640407755840076
-0.034302264344412144
-0.049675230676356
0.018844088168842466
-0.046314302670136434
-0.023328421030586608
0.0020610899662617094
-0.045901287556531015
0.033178011712002305
8.62285142889003E-4
0.015867425882389603
-0.033839903996895966
-0.05008474737326285
-0.011021728701618752
0.015557923160353416
0.05096889646314777
-0.018843495960160137
-0.03144110782555232
0.04436833728057082
-0.031910000946436756
-0.02623379466153494
-0.013879874459075112
-0.03376952723832906
0.06765512304504903
-0.023576030241618307
0.0029437998972646436
-0.042147444584223766
0.012189441820200334
0.0380002568334125
0.012490875732808077
-0.017465656031007724
0.03305287245818986
0.035624672244050616
0.03195170297975808
-0.0031428686496989804
-0.029668995887855314
0.009151600806068543
-0.03606399288093353
0.016267194350025917
0.03398061096781216
-0.06390566985590641
0.025102121101929588
-0.005175694309542553
-0.009184076180606442
-0.029007286675019853
-0.029501083029549423
7.972887421519141E-4
0.027268218554473873
-0.006707515964869419
-0.0034846365620104566
-0.012431410947098433
0.02695946051763009
4.6579030842293736E-4
-0.04665181335302707
-0.009116872104453604
0.011981906299142028
-0.013918373909208798
0.04260290304083835
-0.02012002135199607
0.003259888904580622
-0.1250034659528602
0.03305060020157851
-0.018047047580575064
0.04915983337355096
0.03326959811054519
0.0033369839512574716
-0.036491238301498745
-0.05013369600360152
0.03126556072226262
0.04311775838149547
0.002160320090575384
-0.02558837258217747
-0.018696993053918115
0.010952886107646515
-0.03126091972112097
-0.003972533404449586
-0.0038938288299975848
0.013266511192117152
0.022876977659131055
-0.03081354816189172
0.022166040976955324
-0.0515710920222183
-0.03260424717596329
0.050644318930004574
-0.03926134364391592
-0.03241356636394107
0.03380345124674608
0.037164250999583426
0.014387789038672296
0.012394351777298947
0.02823334607257554
-0.020622814961191664
-0.009563793512273093
-0.047103276116028284
0.009985342212008275
0.007631458548800736
-0.009476997390693395
-0.0709772191430147
-0.0026578443747921473
0.017754417071707464
0.0026077064870910494
-0.05931643825850866
-0.016199057567678175
-0.06746387770334909
-0.004194411622129835
-0.05579040715439339
-0.07761386699577585
0.03806787400536236
0.008083757821041709
-0.018284011216673154
7.735091276195572E-4
-0.03340314383863988
-0.023511811901190994
-0.04258832741561238
-0.02978264882687675
-0.033914034217933466
-0.011987336117779029
-0.02376616340300129
-0.047159113450725765
-0.039730587885553385
-0.030035625907381524
-0.014883592330997243
0.005773729962110413
0.04201870809159442
0.039627058214533904
-0.011476416900242233
0.007772769324116105
-0.0326412193510007
-0.07269322302020659
-0.047084707103366395
-0.02576241190963971
-0.017347377533705653
0.023999501240456987
-0.03269300210634202
-0.08150662803268986
0.01203311793369638
-0.0420097036940647
-0.030210508165975494
-0.03670827343651127
0.03715994051243262
-0.033411988330313225
-0.03608877644112914
0.02751001629236686
-0.009871661002029962
0.04047709226026672
0.033037998107459055
0.0393393178533456
-0.002556544311327829
0.015233610332176406
-0.03627832715792857
-0.0019045669743504106
-0.002621602822232215
0.001875507077242956
0.03068869697953068
-0.04828961525169415
-0.035635183422667124
-0.09166117823846943
-0.0067390943482897704
-0.020232648021239696
-0.0072980963079418305
-0.0410617402538694
0.022875076112674687
0.021116830317455582
-0.04351243579917629
0.0056173181779698685
-0.04072212764178081
0.011450082095755189
-0.0521186362886385
-0.03499199002711681
0.04060545384647499
0.020506674406864225
0.025757789561140117
-0.052801826707696016
-0.023079965977449015
0.005791237730301869
0.026534039909834512
0.019761523182549916
0.03638611995937452
0.019936580221447644
-0.008319156506108373
-0.020736895039374204
0.022253958552832416
-0.027455136231434415
-0.0011309702652084052
0.016683343130813856
0.05874957626056681
0.0258163213517436
-0.03201737840245767
-0.034872316806903524
0.017322382162340666
0.02169473611354131
0.038504277725311876
-0.03529776871962926
0.01837177234615496
0.002444031962079737
-0.06526996542573175
0.04538926013827448
-0.058043752601716986
-0.015159729866542309
-0.04049385339293784
-0.011786949961840995
0.015684090692697314
-0.031643311814223626
0.0013663178548271742
0.0038587880504038596
0.059608491469552036
0.01873547170002271
0.0329698689862195
0.06161820424565157
0.016099879845617976
0.05402035596228776
-0.010905119772108353
-0.05426134061459312
-0.057692255401690776
0.03181488667444395
-0.04259864346449177
-0.046371013925693955
-0.045047279753871766
-0.070685694860501
-0.11088564865066437
-0.10864816078147063
-0.1381638622118872
-0.0046606134698488864
-0.08709547265500574
-0.01599209518755506
0.025542221019823015
-0.017457804358484576
0.0021532176078314746
0.007704435214713605
-0.021858128887272076
-0.017339808979676467
0.033846132867849876
-0.01512444173548052
0.03816905463355688
0.00687244846440723
0.03348414774044153
-0.03017536064191776
-0.04261655542625546
-0.009766336119874689
0.0517598734075918
0.01945262037644068
0.0555879361608024
0.02276481363643892
0.02014776721317664
0.03228493409663729
0.05081589416166116
0.029175650099082955
0.012748556248816665
-0.07311339158459836
-0.03878721251062691
-0.03960408313355114
-0.053514787453988924
-0.08662852917947236
-0.025942064471029615
-0.004966604411222038
-0.0036635878957735363
0.011642314025913236
0.04348001794660925
-0.04901495309144423
-1.937711938144401E-4
0.043538769857735124
0.009185760995409499
-0.015071789496066378
-0.03528447087941188
0.0020718764439595326
-0.02866262703859856
-0.01674861125620492
-0.05194211143274769
0.020468182968786167
-0.048379715604800776
-0.016630351918135923
-0.048497612985603476
0.010167702002298325
0.048746871457857985
0.07453510910267883
0.08353928202785477
0.01651112416127646
0.051283286749200005
-0.05100972394478054
-0.07167919709661272
-0.03428654797007641
-0.0302762329998029
-0.014586375247092312
0.025653691117858424
-0.05578092485548595
-0.022693494895597265
-0.013333343133522049
0.03269365690161434
0.04844550875978619
0.04544815940767642
0.02771666275771039
-0.00747324976047607
-0.03259004289871268
-0.08173715134149298
-0.025954099376291923
-0.06774032265450984
-0.07344868585846247
-0.12785463425513777
-0.04487145278928032
0.05787749497940822
0.03997286087575087
0.05103482219602336
0.020114278025667554
0.07252824425157058
-0.003215171037360908
-0.03711000494518085
-0.04249676854899827
-0.07438796371717354
-0.10640820917887214
-0.04951091087738149
-0.08013499508240554
-0.01350215381992828
-0.05578793764269736
0.012497690145629445
0.0460452136632817
-0.02135218149250436
0.01321364098216819
0.03775752083418479
0.03190410358071363
0.00426836375233626
-0.09126398916046963
-0.08271956996377991
-0.03951781840918902
-0.1343996758886756
-0.08761480033631049
-0.12474198116448108
-0.12812184407897795
-0.005142544199756514
0.08523924221440361
0.08239521233503996
0.009229700777126483
-0.03505567342977899
-0.010362276395094171
-0.011250302403476702
-0.01779444171494947
-0.021765425076109
-0.12479724435441293
-0.09254871339423329
0.007872924773553542
-0.047252575286781145
-0.029399568649397936
-0.005874531822954393
-0.040267703466365906
-0.011890069206636347
0.03692327951576511
0.05970080259780203
-0.02568420782616261
-0.10071976139180676
-0.09567401414317142
-0.1350356391332042
-0.15607956793986977
-0.08386621310476144
-0.10920231322823529
-0.17365961453203227
-0.04182715914342758
0.10978563618013427
0.161259581446521
0.15879692741780022
0.06300666879690787
0.060168618535906875
-3.0486119650838174E-4
0.0035758319767189998
0.0014825791347000757
-0.08879218699964166
-0.1054099624809636
-0.10193467804614584
-0.012027544517977962
0.0028462230781956116
-0.018556167378672758
0.03384961826718747
0.03888913779271004
0.05226411601880141
0.013306604337148413
-0.017158898814520658
0.003682040590346066
-0.06644633712319535
-0.017260990486022164
-0.051277247394729886
-0.09146200461576821
-0.03272555789691627
-0.070126502961752
-0.06135800755418267
0.03346770019313774
0.1274241627514734
0.27677240843906303
0.20881587519892564
0.19043096303855198
0.10278762449843754
0.03895719677937908
0.05459576207800233
0.027612438886779864
-0.056514362295834245
-0.08047082628612064
-0.05591011657758176
-0.04250784715803663
9.440992409836366E-4
0.025262308087374265
0.009261767890025356
-0.03741049486130405
-0.002917346985743941
-0.013883700621306264
0.011300377283289285
-0.032505899338977705
-0.08187414723866811
-0.012905811383562643
-0.0320437093624924
0.029635510973622027
0.06050259968628711
-0.002532882542919269
-0.03117272554208748
0.03867107944667817
0.18681335993797585
0.2742064447543064
0.16945642878349212
0.09990547138307829
0.08022213914584787
0.017499773871335115
-0.05760922482266201
-0.041104138735934374
-0.041782399213586674
-0.07828622466451687
-0.09338832416353506
-0.003713270285589641
-0.007205372309840601
-0.057654570624520146
-5.174392046180186E-4
0.021582882329459076
0.011587661772400299
0.03338770301762825
-0.004450488189015388
0.022730686737724697
-0.018548453981362786
0.013841608055923658
0.0027354598118349486
0.03783575021102714
0.0499829592409872
0.04454522790744841
-0.029125052017149686
0.04409107752923048
0.2668451413633951
0.22648736035585848
0.12834730439030842
0.12616597510184296
0.08592770763997551
-0.014062084777273215
-0.02045686449680592
-0.07585480049553536
-0.05961277193638132
-0.04272469582090369
-0.09330754122476467
-0.037420559326284415
0.011196134351213265
0.025213224934187692
0.030502205061477824
0.032747439160811506
0.05633297209540196
0.047136341498732304
0.053198110443412924
-0.06451657354704284
-0.026984564447225655
-0.05467430938436025
-0.02529015438517714
0.1109614091127654
0.08531078710826076
0.06182202722591458
-0.005001477140453378
0.0126384295145522
0.11927213935397743
0.16350287419683235
0.08101154631918452
0.09342895120410945
0.07352100372928062
0.0159098597649575
0.0066744188522198196
0.04195440606066726
0.03604712177456274
-0.03106525562171822
-0.04774059849814305
-0.057882840502270966
-0.021009095183895855
0.03695110058482846
-0.04868259331511412
0.005493746789396214
0.01515081329719124
-0.02693878440989572
-0.012658958358475437
-0.08595305510770004
-0.0770460033177492
-0.0681556779517957
-0.0883850335997455
0.030829585445280423
0.10124188205022122
0.09418648361725492
0.037445836710639196
0.016417886602357944
0.12472294681441101
0.05332592010775094
0.05237863756065575
0.08639198070379699
0.05192086808406655
0.012139573469470939
0.007132479004215341
0.067365010130054
0.04665851791982037
0.008528234554725045
-0.017141648537051267
-2.0345222028208453E-4
-0.06990235222952301
-0.04303890523194108
-0.023444056624545538
0.06675376636381519
0.027621390090804394
0.08091784864875494
0.05800510036495543
-0.10612323607542223
-0.08362032333186342
-0.1351795062906206
-0.141656501413001
-0.031184562979979572
-0.03264543253760789
0.003824109264179807
0.0046915370167804095
-0.005855383184400356
-0.03249468130418049
0.009695160098830308
0.009478760385926727
0.09890237607324216
0.003732475481675686
-0.049308534291712794
0.009637130988043635
0.08081580071037833
-0.016537389068549506
-0.018480053714830094
-0.060002978246828195
-0.008666823804085105
-0.08181509214494738
-0.024653131067034487
0.06481089600604492
0.035422674567924445
0.00818514510634943
0.050875568981343065
5.939356706097022E-4
-0.042884052021280844
-0.09781610116100614
-0.1963551207775922
-0.17321924285713486
-0.2315201804012554
-0.21984748558810233
-0.16172053360923816
-0.1703382131803383
-0.079590890438163
0.03177474844153541
0.039666821551536925
-0.03189094947385462
-0.10495073706850137
-0.08541902742879513
-0.021147451199040976
-0.04452244421827154
-0.04757954627301918
-0.08464766304975122
-0.09149657200863874
-0.11034368364196796
-0.05358505636528165
-0.014675845296597774
-0.03955842614741679
-0.028449207196415385
0.025576418663689676
0.05949148577432208
0.07536021430029888
0.004698869086718364
-0.085261154660824
-0.16349325005329618
-0.14378964527909013
-0.22787561014612964
-0.2950478013603546
-0.23932395547137383
-0.2140859750750778
-0.2309315399440597
-0.062032722254601
-0.036804999854253305
-0.10406349566237212
-0.11716024498399086
-0.0706449881962599
-0.14586247990901238
-0.07918334706968846
-0.09908731435165803
0.0050772158947446164
-0.06182096036711955
-0.12777277728648168
-0.056424170026235176
-0.029030478258550287
0.02671067383164654
-0.06548123729813624
-0.025698225039812783
0.013660177987135098
0.0567721321349348
0.02748063283793316
0.008554294241224966
-0.08603441577142705
-0.06599175905928947
-0.11822884845464961
-0.20107286093104448
-0.17373131440943132
-0.1791258032256752
-0.21227892744430993
-0.21728839555197682
-0.07829937729661915
-0.050706967991977325
-0.059277476848312916
-0.018904500792857073
-0.07117070735233236
-0.0398534349539315
-0.08457400629842658
-0.1141763972802825
-0.12070932937147384
-0.13731525217553606
-0.06324688097922215
-0.04509153736060942
0.012279499937388836
-0.05275039041443167
0.026143988536688187
-0.0015890940011717824
0.03792202219260202
-0.018965583053717372
0.08422433068922693
0.010366468669552409
0.02481938387543163
-0.023624646594023194
-0.051081919591034405
0.01890135553767584
0.007273904243705061
-0.006191213336540637
-0.04381829222983864
-0.06266468509254657
-0.025858200217248183
-0.0700707046015975
-0.08872555116620551
-0.0438976320062623
-0.08303424727018402
-0.1040719299664492
-0.09088343703783199
-0.036756320989707124
-0.11566003015819083
-0.12841560682392467
-0.06343091378318282
-0.023817404461503103
0.004731734593570962
0.020371152040168372
-0.03430495559418627
-0.021700728933818712
-2.2043069987693034E-4
-0.002999280330539468
0.07075171658217891
0.07421138087338823
0.043791229491022085
-0.009024258810286108
0.013956239038751527
0.04529110598619797
0.0073807278928908196
0.021231192736081116
-0.008386021448062945
-0.06378984282987418
-0.0773667783342688
-0.07301778012474072
-0.05030723103904971
-0.06474229358140052
-0.009615814525130783
-0.05303333353991915
-0.12522236333872294
-0.14215432717022083
-0.1459531041142119
-0.13885805325210984
-0.11228051272101609
-0.08588342621971616
-0.0610340469976974
0.009698663808561613
0.013188957430945007
-0.011058113809145842
0.011920795709190475
-0.003890737779645319
0.06843337738657602
0.04024531795929004
0.0814778193164228
0.10608191865519401
0.015932392696314232
0.029924080452481416
0.11636353019678262
0.0807064958784957
0.015842399636347235
-0.04202507269765996
-0.12429017747008778
-0.054791024953209845
-0.0236237569168062
-0.02008415213311843
-0.043834220279571394
-0.055015137605599895
-0.16077415045481502
-0.1290097764423303
-0.13788225320032652
-0.06111908003099488
-0.017022603321349406
-0.0737269902735165
0.016264193187059645
-0.037735591072566764
-0.025485314426722472
-0.0074742963614677855
0.010109237794171754
0.06591525718844535
0.025789876143506127
0.08700769252616825
0.10813459947096742
0.13602439872254596
0.10167990873383703
0.08719463234819452
0.02507006310084256
0.015520726699498295
-0.07058016535673661
-0.03326155915111406
-0.11471514921504908
-0.08276524172934765
-0.10355105636671215
-0.0762490493198504
-0.022044232067613797
-0.14901944339891915
-0.09213379598386043
-0.06465524517674139
-0.1758011919481643
-0.062279556517036476
0.006676849721344013
-0.027815161132169287
-0.0647710120221362
0.010792314346468853
-0.018551945469229305
0.01230150867138159
0.021446477057271197
-0.032941793239178424
-0.020078185583845155
0.041090719038042296
0.10968947767505526
0.11331596005947651
0.16959198760296423
0.11516060106799061
0.06080016411000422
-0.022207863016882212
-0.08681985134127092
-0.054766132854382255
-0.14381572971571413
-0.05593162728511848
-0.10791173954002531
-0.10887154101207601
-0.031328067151168607
-0.07132300346100867
-0.11598315806363946
-0.10334827973794042
-0.013903448578575558
-0.040071050861826385
-0.0135397548800402
-0.024632818071710538
0.03732238249993897
0.02768533868803899
0.007086163028879458
0.052291216231882744
-0.024011152886228636
0.07158756554711167
0.02697259554003783
0.028579948896786753
0.0827375062202101
0.1017802297938151
0.07813245776859266
0.10326085101809435
0.14960243037670384
0.1289963333085963
0.09147384686231742
0.11320553721940671
0.07033239235732135
0.025278632696266592
0.07144234906498743
-0.0016272415286391563
0.01531025501995237
0.014878466469082445
-0.015623007675570911
-0.021309928911135215
-0.03397288283298947
-0.0015308465703542948
0.028210386015834785
0.01759863719437956
-0.03206267617538047
0.017975420892500274
-0.030033881952052345
-0.017285667464853587
0.043577292663052526
-0.024795187443958425
0.04658806796167213
0.027355140183483995
0.05176074688774808
0.007655647369304065
0.09248673697688115
0.016601308950714246
0.10180588451196498
0.05847841826894405
0.0770373712387994
0.041485026251106664
0.07874195147583134
0.1313731439771218
0.044044648965196456
0.08627654868589213
0.009831103440434788
0.08204975256859219
0.05297133430478826
0.019527134798238702
-0.044254700114889696
-0.05757435764334261
0.02604527206627861
0.04358536684464679
0.0024062022020336932
0.007223232056900187
-0.03603454930597421
0.022215226863141556
-0.027342994583557458
-3.429032141505494E-4
0.04256945142926241
-0.0019167194969391484
0.05057212881820881
-0.006260757528401769
-0.01773899748842719
0.04571548389055834
0.047762583418969336
0.0010814659186657563
0.04618586906579527
0.03157067093259624
0.059486135706777236
-0.004698142679387955
0.04462397584526131
0.03566065824808327
-0.030508136290054874
0.0034866249193136072
-0.05905463764649252
0.04285259210638729
0.015325971459416003
0.009999424304464814
-0.038993239428482575
-0.04568794310645889
0.030784777720227453
0.01780361260215174
-0.017427348522832585
0.15720210561629108
-0.03762745516550425
-0.041173789112854846
-0.0542950763458306
-0.005632046022193291
0.04015869637735114
0.0332515817677395
0.0131451585477597
-0.006993691399548622
-0.03365076860046548
-0.04429134817603269
-0.021669102628629328
0.009936716066311456
0.0246888350639023
0.025917109898572172
-6.948717501711637E-4
0.011362757613430146
-0.052568559545345755
-0.011201085145581241
-0.02049057561750443
0.04483572324666168
-0.019794408277433357
0.007663448665795734
-0.025504722257684048
-0.033946933576696287
-0.034925572964078895
0.03388562399477736
0.047970421893796585
0.031611631649680366
0.018069189096193625
0.020588456296548353
0.013392212403316284
0.03563184440157718
0.01602836492207725
0.010766372326142911
-0.03734574978699252
0.015939178857710675
0.021192901057445437
4.305144003253014E-4
-0.035874271689096536
-0.029772272761013387
-0.06981276566467577
0.017165837086447103
-0.024090181088450624
-0.04480280442776266
0.00580144773957613
-0.03068058028546302
-0.07447800173538478
-0.052287003179301295
-0.04132243498614031
0.03769967184102971
-0.02691433077407005
0.034139003230679726
0.050172283172029354
0.006573596792458644
0.014881126869100038
-0.01573310459181118
0.049721373457056905
-0.023548569607574524
-0.010261871229931286
-0.022879993088465573
-0.015181894653602864
-0.036824198255926026
-0.04295567525850377
0.021077153422257067
-0.02000931555988115
-0.030538148796946076
-0.06953304992729478
0.02331271364331628
-0.06597645608403895
0.020746135683553754
-0.011337531127788973
-0.04182894032886332
-0.042835254024532705
-0.07923488445595611
-0.0626363767551583
-0.042159439586068444
0.010273669624758914
-0.07228368130099293
0.02643409451179954
-0.0017962848413830884
0.003723555567287449
0.03238499446494745
0.052114410890335236
-0.00551534472375024
-0.014549296725763385
0.024710147523679123
0.013118328132627722
-0.03755795548252294
0.05206532449319439
-0.029115419989700887
0.0057879497103366815
0.0026863466457136154
-0.029910818462001148
-0.06577451851124738
-0.030087711108221237
-0.034044974286359886
-0.08317542427450174
7.919039947828016E-4
-0.023213186926201234
-0.03071129303272866
-0.08208460209656467
-0.027730924767790485
-0.03853868030837956
-0.0635366568998678
-0.04501693141597859
-0.0390028136311983
0.011151328421628701
-0.0486031717313351
0.0230417369061592
0.05045441093670729
0.02275998216890306
0.02783988021901307
-0.0016611296674474728
-0.04132421556616839
0.04328803690415935
0.003819309260909772
-0.03828848685229448
0.003234764970955674
3.6332015077117304E-4
0.07472629261888696
0.05504123559290281
0.08057956796955898
-0.007184955490265856
0.07705510484997362
0.06867520407244816
0.03705236970769142
0.1421165917182961
0.08169514672888271
0.0678737962823714
-0.013294681592475948
0.057522891620179956
-0.07233129399088536
-0.003501015952204436
-0.042524551501824236
-0.054355610157043766
0.027426629558066396
0.0532759325904841
0.024726664273556565
-0.04845467528967407
0.040745247079690385
-0.03158723852586279
-0.025386702408411434
-0.03550397503220277
0.036385469420012535
0.013540031181844483
-2.6807847248238014E-4
0.06352799205003655
-0.011319642533341855
-0.01413582814997857
0.021328553409705114
0.0215976037297807
0.10914155258200464
0.06895312265677594
0.08236662975365244
0.10170904724704001
-0.026911543163101116
0.05556332772878283
-6.263094337019101E-4
0.055095757383633856
-0.003453086429269009
0.030356324288451746
0.02436776197115882
0.003734032020533144
-0.031279654700337195
0.010380062421302608
-0.020994069832190935
0.0490305319063052
-0.029201252799351016
0.017710371863088475
0.05024814513662776
-0.014050065932785656
-0.022013646453143344
0.050338258441928144
0.019793930459018814
0.015888996870050878
0.012185074778876844
0.044259706643723314
0.07173904219686762
0.03859946598159356
0.038951554882623814
0.014485802518589278
0.047311426543025004
-0.010489182100441849
-0.004942325865190657
0.012272946511778644
0.02959592980985129
0.01357866535186588
0.002948324348399053
-0.04507174643130694
0.03272277060648812
-0.025433633214196873
-0.04344903216601672
0.03874408004968012
0.06999966104269696
-0.030663321321142793
-0.041339525087509696
-0.029362741996030537
0.02469696995308681
0.04429300208090401
0.03925632650060733
0.04873969623402301
0.025489219926971778
0.030307138680899553
-0.002543803303893248
0.03283399119595726
0.005070508076168706
-0.04229486112845745
-0.04511557677592602
0.005549577130701257
-0.027696887761733156
-0.02710450786987869
0.04360396634850988
6.422862389614371E-4
0.04834641751388854
-0.00627560486743077
0.024857259921507127
-0.003923999494217267
0.04759482993391725
-0.06330852369462457
-0.0016234874328250085
0.06489149270573154
0.07929597051266687
-0.003897077360362839
-0.03359642987015773
-0.029862533593015887
0.05165080579941832
-0.03839178775192927
0.05035746614854496
-0.0025976946960985375
0.0648497587163493
0.022047559684945477
-0.01402027297894683
0.044206749025916384
-0.036079424903056795
-0.07427553000094107
-0.0866746065478732
-0.0253974523942534
-0.01608278362965939
-0.07908323493174557
-0.01803258140639313
0.019912862654778977
-0.028237599252783466
-0.032087314134172255
-0.03942687723318622
-0.013617280063529106
-0.02518403616624355
-0.0076410708228077185
-0.02454521232079405
0.0418886590117979
-0.0021726280099882
0.02353357896499674
0.03208561138388816
0.05206086453673892
0.011960456495516573
-0.023858460693440213
0.025160016941948783
-0.041856099221361236
0.028215779365203898
0.03668563267978468
0.035799548989801255
0.025677882062677803
0.006289342006695512
-0.017597484747094258
-0.03701530142877896
-0.0869846374130854
-0.0771032947163409
-0.06492391148620998
-0.03053017507766863
-0.01822209672831843
-0.08903597749909668
-0.005631699046192789
-0.059585648335303866
-0.0467902964959468
-0.04791634404617398
-0.03867856942879209
-0.020769976022549007
0.05322146484794228
0.09361775458515237
0.008040001072073267
-0.027722200600403896
0.009033006162800776
0.019830375284523846
0.007841701128471143
0.05414886593763887
0.010965600613969081
0.002836072142760439
0.06354068247378804
0.033432545198190014
0.04853377766424057
0.049471069056730904
0.06795263700883451
0.05387634226620286
0.036300884676092916
0.02554360141089082
0.03934234399145639
0.0845518880450975
-0.022803758915025417
0.002503299494821775
-0.0022681354970693853
-0.032350967565886214
-0.03540183234757813
-0.008523703111855989
0.00690887488595042
-0.010761058794833838
0.07453062657070555
0.07540771796513611
-0.00954260982750651
-0.02630892101500922
-6.378215144255153E-5
-0.03504233046247883
0.041297582434489555
-0.05143344543502593
-0.007231686141815309
4.04761535897237E-4
0.03743746260460487
0.039698915086920215
0.08954736426064973
0.05304485747348299
0.09923478252692826
0.05359757104575355
0.02287630852777956
0.11884178445827326
0.1643704226379728
0.12807322098235757
0.09266240889277001
0.10838299118278483
0.08607863050733183
0.10950030071680288
0.0923222113707933
0.0317140927229252
0.009915000526533246
-0.03455693878363499
0.08664100534190729
0.027975794635288532
0.035750218769703676
-0.009477382418765985
-0.03854120018099817
0.01362654795914573
0.041116847294648914
-0.027832241917753752
0.015154771777578244
-0.004493841583414212
0.03183254337134611
0.07090304026495813
0.04980710065294714
0.12418779833970268
0.08257017821613885
0.0023033061287520136
0.05008601051398205
0.12494667099327864
0.274725737393963
0.18559599533192234
0.08607003090661942
0.07433352405778808
0.11405914768861898
0.11836558126703446
0.06623858529602236
0.009003730238398356
-0.02775652572566102
-0.04325157739631295
-0.029392318396097915
0.049816293469698764
-0.019196651641486668
-0.035065449677796144
-0.048895301035678074
0.03789185027018661
0.034233941701143196
-0.011188905186303243
-0.04426612394511578
0.019900555343006054
-0.016557903819636875
0.001122716621682301
0.08240121621804028
0.05677970326084287
0.0316913863507128
0.02623609755451948
-0.010390990314100616
0.2045511644040747
0.24959164111306267
0.1448867985307095
0.1107001493712405
0.08639706932024835
0.149745662127112
0.08459071191113748
0.02096589802726661
-0.016176122802677963
-0.020330773004495938
-0.13033668255764805
-0.05856877221307564
0.012350433429093071
0.05466528895310905
0.03670181839501801
0.03178186929435972
-0.006656316447462203
-0.03264305463685202
-0.0383196783861122
-0.056304967663961474
-0.0734941317230045
-0.08977092993598479
-0.09281130514822349
0.0194593007678167
-0.06058720269302536
-0.003038599591419908
-0.03638520165619062
0.055217158584773024
0.2155800825093863
0.19053511696546224
0.21842753130204257
0.10970347023339513
-0.02455390072459327
-0.07193075616496723
-0.04058015397174837
-0.10384695478578033
-0.07605330946359497
-0.10945249224167733
-0.08176950277122895
-0.03431772579333675
-0.0466578634240168
0.016924178550228534
0.02168864786962135
0.03917705440424204
0.05237209109820798
-0.05557370452233734
0.008939956819833969
-0.06003922525454201
-0.12093650015482409
-0.12648912085749708
-0.14381974648864218
-0.0530195424648964
-0.11151437195493324
-0.13789996488022693
-0.054053225202400426
0.08143352102470777
0.12309804027688517
0.17751375226637825
0.09163308882938581
-0.02957472153155022
-0.14140021730068772
-0.1263923234644409
-0.17581615460324432
-0.10267594067565705
-0.07974970557269129
-0.09092258976446368
-0.10893829182769088
-0.00874519721647681
0.006574283048016891
-0.015921542335206897
-0.029046924952850307
1.86434812537977E-5
-0.005531536101070957
0.0059213935829963765
0.002047638383084498
-0.08526434212602564
-0.06393921147459038
-0.13954345512918795
-0.12750705753819497
-0.1356036182800315
-0.10361450252740234
-0.05236524867720999
-0.07066961884560256
0.010378088114435368
0.16358600135099619
0.07350454472751641
0.043555566406053396
-0.14294084167674084
-0.20763713369967168
-0.24252868782817663
-0.16160309501261208
-0.18224213747511495
-0.06661235554821483
-0.07502640166732384
-0.07862338330159874
-0.04763573206713399
-0.08229488773489119
-0.05647340167370186
-0.06112959872425286
0.01506350542278051
0.0392534678918589
0.0534679685980356
-4.22157590254476E-4
-0.030778828706268586
-0.14174007902528318
-0.13628825152902516
-0.10504288120079477
-0.14514193991301377
-0.0883898205837217
-0.09042141636490922
-0.06677141948705105
0.019069698253336962
-0.004588302086273461
-0.03770951744730077
-0.1335383967988964
-0.1055000778042543
-0.19498999674522685
-0.23745128290935255
-0.12318029308680242
-0.09212114402194982
-0.0366701715158313
-0.020723602165428023
-0.010984358173502122
-0.059651745364131814
-0.029076179281983326
0.0013781358124692823
-0.016224948508195166
0.0529655321594438
0.004703442171198319
0.047419399393068516
-0.027814058572852067
-0.06383797524659365
-0.09867190154192426
-0.12298898233131589
-0.06822748288920501
-0.07210212244375283
-0.0905743756529443
-0.13908127109671561
-0.15537180763531233
-0.11084265525539913
-0.05060649622910807
-0.10696173482344294
-0.08948454999172434
-0.1977658956458659
-0.1484315333315473
-0.13517412457909536
-0.08224172219960241
0.0017969714921308156
-0.0018724730848973122
-0.027791878037684986
-0.05653035767987719
0.015965915842311544
9.076707015678555E-4
0.01508813291790368
-0.010482325459692982
0.009392283708532578
-0.0029802376059721984
-0.013037803913933213
0.06397176320472954
-0.038527089721064646
-0.059397580877835345
-0.044074544613329526
-0.10138888143726732
-0.06920454012662852
-0.06415235115034655
-0.14672781826637063
-0.21797592038717606
-0.13035760034312993
-0.1614001571327314
-0.0753118508900782
-0.09711015168007112
-0.1112135105715544
0.0024390607536900707
-0.10239892415226454
-0.07485555464913403
-0.04146190137014385
-0.03011495874307608
-0.004921760352658497
-0.06278478503683388
-0.04553907525085957
-0.010316428761362713
-0.0077486654403280475
0.037765062716207644
0.051684905229701684
0.03678085591812392
-0.013563397618364118
0.0030172356438182488
-0.0034669678219973418
6.389347714504792E-4
0.040764604176911814
-0.013595364972679524
-0.0366560239784912
0.024648626166022546
-0.06167317137896016
-0.10801643257920565
-0.13714585541991983
-0.07744351022902428
-0.04401983452003599
0.0023248306773865977
-0.047067759273744236
0.03805187997247556
-0.02905362943241261
-0.04145983631329366
-0.0044053552039516174
-0.002713206206377062
-0.06662017453533972
-0.033626591491952046
-0.011916629223097613
-0.03922835221453334
-0.04500303571148212
-0.01230551325602056
-0.0027193177458440295
-0.002625616294238632
0.038360393171371895
-0.012317270942866138
0.02321391793080139
0.025307960327665833
0.06683794425891953
0.05535549034606022
0.021947720226637896
-0.0027146206926563846
0.022432956332484925
-0.012060315193220875
0.03490868554526391
-0.005406488554240102
0.049271841729587304
0.007796571909896669
-0.01477069507742517
-0.02089604237859989
0.04740032971837493
-0.015169269341012695
0.01530396682475127
0.022573850344912223
0.03775062126132513
-0.04144513225755282
4.076592635853777E-4
0.021430789395540887
0.028971846568787697
-0.010906550479283687
0.054031724217452955
-0.002790507659316252
0.0035981876245865766
0.034115190047809
0.034237168747246326
0.05823764036205708
0.028844984905212992
0.027245779774283645
0.08303510726161413
0.03452811238232806
-0.013962192197637016
0.030506561560317964
0.0010930429199482404
0.08967228904467836
0.07716878508372518
0.08541958500020315
0.06671061555866062
0.04931484468326957
0.0253226181543695
0.06886537786057383
-0.03680355291703489
-0.026552710596486565
-0.07845948465785194
-0.023008021379708306
-0.028529185750307932
0.013834845215387638
-0.050149070652878276
0.005035298347644854
0.033209287216927535
-0.003158509472610655
-0.037595290345690396
0.0587565682442383
0.06068336809081813
-0.003264870669007499
-0.01225817308923581
0.05682916709614496
0.06998346215417692
9.609593094053225E-7
0.009904155935048302
0.06352881999670129
0.05292462324207834
0.07418947534293427
0.11470476444736966
0.031365440189725834
0.11113205423430056
0.04414685021527741
-6.559868708800209E-4
-0.024587766048438275
-0.0346878748912275
0.03382427687646068
-0.06451006337527856
-0.07725071130909883
0.031374519471883786
-0.03983429016136099
0.010768670341155957
0.01688956858777826
-0.016474264280942175
0.0409450058687485
-0.009100788490184298
-0.021122855052119312
0.04346842053476599
0.04010538951502116
-0.047863579347030824
0.06452524931100476
-0.0019823743703879138
0.06358653678953159
0.012318644490782417
0.03631295531197465
0.0635514261886777
-0.014849807436884502
0.024615006277189613
-0.0043984396556927185
0.03957855459436526
0.061072619310262824
0.0017079492255582755
-0.0025697938919343327
0.018509901602935495
-0.02874833783491882
-0.007507332561533073
-0.04476552421296185
-0.0482483078094401
-0.0514030393065201
0.01946109530269859
0.049929749213288036
-0.03235231236533689
0.01836601491810194
-0.03736352422305234
-0.04859684639096269
-0.0025338470147797517
-0.030639550366606906
0.018689579288842566
0.022977277025092255
0.051729571061239266
0.08586246473170908
0.06545547251338117
0.056843190484650134
0.01548623269986565
0.07603619223202059
-0.008024480368663291
0.04264009427275005
0.02526120244960805
0.1003746257357982
0.0472454679919383
0.07541661893426024
0.03450285569666735
0.008065874203213424
-0.03241628576046953
0.05147174576564072
0.030897804764677555
-0.04854222586214157
0.022963528288251753
-0.012582987623470265
0.006778733592539842
0.028979838085309337
-0.029134485056534407
0.020004268719798903
0.037509329789023375
-0.04215099205104599
-0.048702558884968834
-0.011543417433435737
0.04879753390049147
-0.01965027225823824
-0.041394213142470646
0.03259920448994643
0.022594726819223632
-0.0023063735856134688
0.010030222054378054
-0.004855690311067455
0.013744932393389196
0.04052889519997739
0.01892128908360802
-0.02640138247177429
0.06995483874739822
-0.004174357356148356
0.04642364401327411
-0.04674240433326499
-0.014633585120898827
0.0049820166147526
0.0034910924976908593
-0.0022578580859343948
-0.02084356392622595
-0.03898516206748084
-0.03320250176956688
-0.03986711506197339
-0.017672251295225212
-0.029885765375754436
0.004757174471995063
-0.03431175226939143
-0.026657650425470428
0.06364803560239003
-0.038409438830196554
0.007293058869787338
-0.005707078624953107
-0.035946419413029944
-0.034970645352583096
0.02326856321982989
-0.034299107945890174
0.027641462226365387
0.04673099726421924
0.021840731852832966
0.012576146113619556
0.004299064199283695
0.04553343715583644
0.01763099651765097
0.041745581762401375
-0.01659319152581875
-0.03515416327101684
-0.024801296539930986
-0.010237578786483506
-0.03142447673392265
-0.0294450695480668
-0.0112432316495424
-0.03577255486781057
0.029015303757344086
-0.039595789205984916
-0.03395742817408339
-0.04510021980960477
0.019129198757865937
-0.06961400078160367
-0.014732508481071804
0.0012387399760973958
-0.062329380352944004
-0.07193735834292135
-0.07727113141602743
0.039561773258039674
-0.06226027536406504
-0.0025776539551565438
-0.03992637694027118
-0.01603643158015265
0.018512997909789858
-0.05376248334389852
-0.028006945687000177
-0.07012791442607196
-0.0311067852804289
-0.022512243400727553
0.023046467336476827
-0.052706022174935134
0.03963625476966497
-0.012036443908743054
-0.04915392847134208
0.040466067066197826
0.03326674476344476
0.04068310264969824
-0.039395973385208276
-0.05193338320625094
-0.047171203411773624
-0.061765487754573134
-0.005385209340461731
-0.06004486186319598
-0.09165111422640065
-0.018989320506714914
-0.030404274430834224
0.006955732612723894
0.025136006327457848
0.018475342269960258
0.03462880191364337
0.01634504496514731
0.03914357302005139
-0.03624976344300571
0.016224385315990606
-0.04699277398351267
-0.04736477716756385
0.009000058984266984
-0.037159292155271834
-0.0335921819988065
0.040362539591651966
-0.014194100356327455
0.02038592838684482
0.004198433341982311
-0.01122036426494021
-0.015494306225834914
-0.016617669134720247
0.03081002967969294
0.04562040039714745
-0.007115581180764705
-0.09038917270986911
-0.08928469398591932
-0.07929676528328665
-0.029470002193737035
-0.06347588709098707
-0.02862627092404086
