0.0472190332133198
-0.024503362265224468
0.004904630204878688
0.028597650914227644
0.0075808438853800005
0.0169853642633336
-6.647042782841994E-5
0.05417784232450935
-0.045337350602627544
-0.05662412263115851
0.019052702101256366
-0.043550009669632156
-0.030029448941148354
-0.018925229006516314
-0.03375395318334578
-0.0402117561620641
-0.044194893571279585
-0.05779579661783661
-0.06138177318064482
-0.0431935051936347
-0.057161315684969446
0.005259710337629201
-0.05584169876944615
-0.031703332250759594
-0.041657581378882855
0.03135951239175636
-0.023223187480216796
0.011653061495125103
0.007515916421898711
0.060533875116464575
0.00526904533206151
-0.03859956519591296
-0.03298587351848869
-0.015606924762789711
0.055094648860249895
0.028165063240057953
-0.033745545743494185
-0.06336618905805803
-0.054875417612076205
-0.029621966775016533
-0.07307282962197893
0.028986993394884114
-0.05006337818271749
-0.04246620775255028
0.0014599080061840342
-0.059533062968120304
2.6450141546006565E-4
-0.011113169554891389
-0.05708507511820196
-0.04108207511712238
-0.078110767119724
-0.05575376088891377
0.030172000066967488
-0.008986431131799474
-0.03111121594271823
0.006639841895357598
-0.015229714311501438
-0.009031161075472333
0.003963017214340194
0.04139429212648464
0.01600908762874949
0.0038842118496315824
0.03704039782294398
0.04530544195618916
-0.051576116065249214
-0.04180812114222504
-0.020907251947817725
-0.051426215824021085
0.04279896255957066
0.0074753929855198974
-3.809717983436536E-4
-0.0378009938171954
-0.010895041535309083
0.016723313719094114
0.007301078096909925
-0.09565155992520523
-0.0639180454792821
-0.040582771231161725
-0.07622687667292288
-0.08159933183915596
-0.06005739269878398
-0.05714695869747313
0.019116630080712384
0.03320937499075852
0.0029382575162303576
0.030447182804794814
-0.0036351399564711795
0.03424858790853245
0.024582007323330848
-0.01310759590077035
-0.05233898912475519
-0.014967419998355082
0.02477087905688348
-0.034789526266969205
-0.0206597294862346
-0.003950440252445823
5.206897484121299E-4
0.00516254464501942
0.02349968553662843
0.09593698680187826
0.001430912354812344
0.0505275007850767
-0.030344754063955617
-0.10010256882737277
0.008799093273808609
-0.04981493105511513
-0.05251266700536189
-0.06019233525484305
-0.05367723060468114
-0.041612262008177255
-0.06426796031234419
0.006808678789299837
0.018797789329083683
-5.538036597909204E-4
0.05316758285328137
0.014698085548339892
0.0012353305712513483
-0.010254407591762467
0.07165457657029004
0.03080646858096745
0.0867470345898116
0.08272110299982606
0.025973196055207134
0.040455800086424076
0.04737176254206705
0.07553974752411312
0.028114073957206363
0.06971937414798185
0.039923837125964395
-0.001726698212528441
0.0029921523957654596
-0.04239608048645356
-6.012616685582606E-5
-0.0328176984976955
-0.07423930313420558
-0.07726077949510378
-0.04744840132777951
0.0025726032026827453
0.013714688845714652
-0.023639906448995354
0.04561486073720054
-0.005374417771206299
0.008810425843515088
-0.029987278827965553
0.06526514155071908
0.06690415643718936
0.09625601647161416
0.10069035845904714
-0.006057408373249254
0.07477806026433141
-0.007436255586489334
-0.018167833513473827
-0.030253500237988753
0.06833692402261528
0.03403125694633445
0.10801588251826844
0.05135955243774408
-0.0249833019426452
0.03253917218576504
-0.06077799125279322
-0.007440446269683761
-0.0029539635525146907
-0.16935951779664407
-0.1821663581066813
-0.07828720191969454
-0.028709354583833537
-0.05516713476481638
-0.012939129063059747
-0.012208835169675962
-0.024173116417404647
-0.019649979658212614
0.04754663901909481
0.08222269811827096
0.0053790601662766615
0.1154090872662881
0.07232800074695574
-0.011239906296694623
0.012873208609464374
0.05768539632265331
-0.01463226517039365
0.0396074400122771
0.00737090179342384
7.495166541352307E-4
0.09946883725868139
0.12706382597777638
0.03436713151588075
0.04974914326184187
-0.0721308350019467
-0.08928616866200755
-0.07766584005644883
-0.1456644863604336
-0.1582362621182008
-0.15425102818356556
-0.08308090954387226
-1.097964095108269E-4
-0.0642359894548163
0.021527011776157342
0.0576417779666089
0.0018661156530571494
0.004521364234379379
0.07704389068815042
0.06194820309552917
0.058379353340465075
0.015035450864854487
0.010594886838958553
-0.03851771263409998
-0.0757771392674939
-0.026075326854008443
-0.031975648955783205
-0.03777934902848728
-0.022856751309478777
-0.044253891884897555
-0.06173600790646227
-0.047809111516037964
-0.030422667221190896
-0.12910157421586443
-0.10563505586384908
-0.16834446450440765
-0.13248512256284564
-0.23028774032678445
-0.14327159452323954
-0.04751396428434508
-0.04707143274716023
-0.04951897144044843
0.017184942883083507
0.004234289223438443
0.08643731574314113
0.09245981866312207
0.08717580615336627
0.07935771103671663
0.10151017784482284
0.05861830560929818
0.02329911802647924
0.058274518381882225
-0.014853880750771369
-0.09076108742213793
0.005998848619373907
0.007554857650227864
-0.0026219177148255933
-0.004156458628172806
-0.04288658711289701
-0.016237275948602487
-0.06524115765195267
0.0028348380976628675
-0.05687222441977102
-0.07703616682038036
-0.118929963476777
-0.09916824596885089
-0.18455237742615116
-0.07217045437214752
0.011684594037134127
-0.01589413696002825
-0.006638381807722498
0.012966862444875491
0.10537742691258854
0.11565918157492354
0.06522385155389344
0.10793839328852543
0.1471388448153851
0.06437646522380785
0.032829562655206215
-0.06642962669150679
-0.06604299226396869
-0.12723289646151714
0.02235464167547344
0.11880084556397752
0.1913489686207068
0.1272114122293336
0.02728579334498664
0.06597805441638704
0.03640477939348992
0.08073069145436484
-4.6310174535897224E-4
-8.343433001658883E-4
0.01304037315413177
-0.05786899564788166
-0.043087422801370484
-0.06595325019963835
-0.005819212672040503
0.011341098615500136
0.015095138527600227
0.029324321872638778
0.04861251027409139
0.05256127477684426
0.058944696170795424
0.14209454692249637
0.08379417799557667
0.07966702032935503
-0.026676779664088362
-0.1751111696011957
-0.11534356159430709
-0.14880771844005036
0.002752908542697697
0.21431213549483907
0.3015620188857027
0.20554064982587644
0.1623690483202813
0.15320496611029225
0.2410515415030662
0.23988195466540058
0.2347574419882188
0.13265002832212908
0.13486273782977282
0.11122236396976883
0.027706461358589802
0.01569273582999922
-0.06437118646931793
-0.04388700883564364
0.02702101656155448
0.015582279852845944
0.028617077653222845
0.07144047213783014
0.05351921553652978
0.041012993707532655
0.0907218450884162
0.050065846475305285
-0.08399121443934138
-0.14362848153900296
-0.18403235702980472
-0.1644381351874213
-0.017723307748824052
0.22616270858326457
0.31502285275674685
0.09108857073584817
0.0593894214186117
0.22156456457875212
0.2371002666816966
0.29615467274604595
0.266392763627347
0.22394082333151777
0.163363994151887
0.12149075444690909
0.04292156434994771
-0.025724579835149745
-0.041780022451989564
0.04797006605242909
0.08131753046191535
0.056933706674353844
0.06192501029292184
0.043572241569058194
0.10630029461963976
0.03657518079194807
0.036429423867812824
-0.04718522882579771
-0.08223356514473901
-0.13345371824031158
-0.22342316317235536
-0.17844384856963943
-0.12030300892260236
0.09499000377162715
0.14494646139324402
0.010198606001640713
0.06700646098508117
0.09156480579556864
0.1560540023547405
0.1595336538992891
0.184304840361941
0.257988777426071
0.1671308133131442
0.1480872666168807
0.1037707899111719
0.024966181406601395
0.044209978456661275
0.027094608097514662
0.05254433936233143
0.08868963245633858
0.09772845226649993
0.02121830632560883
0.023688926565794265
-0.023809414858598013
0.05426331809336938
0.04011294448028207
-0.043556038989169696
-0.1416723967578978
-0.2056498599853261
-0.16659501964412401
-0.1704648099979702
0.02067615961167527
0.003122050212806387
-0.002746166246606491
-0.009050297923786022
-0.075994030387559
0.00889754916479662
-0.07900265652569977
0.04878300047737079
0.0955718796830479
0.11058589182712839
0.11538930897091242
0.09970097339453786
0.031115217414574316
-0.012033080782934276
-0.037710273254592044
0.021210924167555528
0.04597708220457287
0.06228419097596089
0.018410344473947717
0.02599960786255123
-0.018230067891370084
0.028572398625495685
0.06481478409796358
-0.10454719412840265
-0.11891391225648727
-0.20725115101246278
-0.2091372919922746
-0.11176440751255765
0.009646182232272623
0.07166736264913809
0.01450057412319312
-0.04809277799105319
-0.12268370665287123
-0.08581326911878062
-0.07914384261773574
-0.006594531546466006
0.05633723006472204
0.10126641395907357
0.12758863313998686
0.06990224876177897
0.09730740774196073
0.03503274584804643
0.03944937944432704
0.08217968412379031
0.09196404787708053
0.03094496563364324
0.02413234128081051
0.07026551548895384
0.09559695679589342
0.12493697803175026
0.09646463666782897
-0.025107108097151876
-0.13498435898415664
-0.17432072558336628
-0.13299959728772187
-0.1880527112580422
-0.009489043004468118
0.058235141811159935
0.05941924391575997
-0.043137033192606554
-0.16473590021474313
-0.05897345273557943
-0.08285463110957103
0.0159580545423589
0.03316627796581107
0.039094617221611366
0.0604987421209955
0.11798753404013437
0.029971468882545867
0.010318986476807865
0.04283250631070977
0.030573531416381576
-0.04918044719020112
0.008053614016958113
-0.02204265234195992
-0.021274748427529713
0.09604887728016047
0.11830297509549595
0.05795555131565812
0.014952924285055192
0.03452847702292039
-0.04576308782522095
-0.04732864137117976
-0.14234325311124585
-0.03930170657486886
0.02144587646474391
-0.0441530716125641
-0.05906746296439602
-0.1514928773961883
-0.11991298085586226
-0.030709518938491935
0.020231047920005442
0.05957377500513055
0.02950295312227804
0.11737602894487106
0.09966789722743806
0.09263892876880692
0.006131057537701501
-0.033088097254927014
-0.05973597157209421
0.02028262364732512
0.021620137890915894
0.027051919046625277
0.07618216159913604
0.0762860553189717
0.10801539160962294
0.07897751686153986
0.20167420264929137
0.1817355729430839
0.05804557821156756
0.024861262235640398
-0.004025135524462499
0.03343353871706482
0.03251349174898931
-0.04985145630035911
-0.10547071185734673
-0.04327248315751091
-0.06505943968666757
0.025817668625343106
0.03381216605119476
0.06402783847695794
0.09638957813839331
0.11510276320076808
0.13133164021723157
0.12821428154196826
0.056376280780855555
0.07022803783473114
0.012523399513188233
-0.04113424192941022
0.023405550834728044
-0.024976413226607534
0.01577580614518769
0.023097721442879526
0.02924816358706064
0.12582030256189286
0.16816831952375177
0.15928599922451617
0.21763344517617408
0.16265288675448217
0.11110880811633654
0.07636791173637587
0.013719854099242848
0.02690504729713108
-0.05280399095514915
0.02513492818859752
0.05311233276218555
0.03184014469682847
0.09511525984367443
0.09798492089254517
0.07687214666495379
0.07444418185721527
0.05571426392554075
0.09441636568328343
0.035480924555422
0.03979552208664893
-0.05435329361111884
-0.055961062702768134
0.006703721989173211
-0.004906602382336424
0.051944207122988285
0.00919175158424339
-0.02153564936700348
0.1001833686081063
0.15364191033610114
0.17103499567479713
0.21795629460363067
0.12577863358128666
0.08532335087273185
0.07320067980217222
0.01714949917535788
0.07840114011427156
0.08751047475890665
-0.00800944232996118
0.006654190546831011
0.01926011601840283
0.06383126275388487
0.10382145033851019
0.05043574280543909
0.0926206347817328
0.01864252370537371
0.05620508242858941
-0.00669829405018804
0.06250878006819961
-0.011049021949520687
-0.03353186482435068
-0.0505475599021001
0.02586476580277276
0.053057218883458795
0.04572445178951961
-0.011463200514344553
0.06883312219473049
0.05639512582614378
0.1116520802776157
0.10959743086271213
0.10428828985765823
0.04549900240414429
0.11617612438010218
0.07401041292705449
0.0032572760060004774
0.018339252710541914
0.0027675800047051403
0.024485042234978275
0.09322320279103816
0.096662509618471
0.02681828848974863
-0.007174438212921577
0.05676458723793572
0.021973807420365688
0.0029781987999434956
-0.020358741779229465
0.03465679480474122
0.03984331305764204
0.01068235943618345
-0.010616596191181408
-0.03379346113345242
0.044705706219925215
0.0874389184376012
0.004155727638263957
-0.02148514845240183
-0.0012816071322120613
-0.005700420924153096
0.024224311640920496
-0.004150938023368627
0.07738991946613032
0.08287437396033565
0.09606645859744982
-0.006498523283582841
0.07416400286271313
0.03034272920499329
-0.040596223086000936
0.016115952450462896
-0.04463297066912652
0.019043390915248024
-0.013754645321309177
-0.05207769390923068
-0.00774289050055074
0.05380004546765538
-0.0018682323261117227
0.06228237334390814
-0.018642865938694655
-0.002552610906489024
0.01119278316998561
-0.043459659648944805
0.03119854751258437
0.0636830624403037
0.07690190896187915
0.00956158772565357
-0.03293711419813262
-0.03937879757621594
-0.03445470801046472
-0.00950895646906126
0.01158013978020312
0.03997891466542999
0.07503682095981004
0.0395916925336106
-0.03583745087707801
-0.09536112532140464
-0.05129006239533989
0.01284175105117595
-0.03880676192492194
-0.017587982459305953
-0.01953058154903027
-2.6531260775426163E-5
-0.03527851385428513
0.004013513891753824
0.04324868741120701
-0.021398283318118563
0.010494755815854346
-0.03494898306110841
-0.030228652372075625
0.010552467093899646
0.04729948388884152
0.007076222469304043
0.06741875500015189
0.051479349957717704
0.011640732376944019
-0.02228803219436416
-0.03857721139687139
0.04758075772890692
0.017792426270097705
0.026078878364995017
0.08281612452514826
-0.004530093522352855
-0.005635038882900724
-0.011761648867178367
-0.036779604413321856
-0.10268066572553185
-0.06480667535061588
-0.02900754849884832
-0.049189723204778935
-0.029654768418447285
-0.030060942807287414
0.050249760293326985
0.03173856338496007
-0.0027845360948762967
-0.016536218419773513
-0.0016687656356427054
-0.0028017982054719475
0.04795911600970941
0.03095314856064276
-0.022966454346333834
0.04833988895042291
0.04062691126814411
0.007857304198196195
-0.023485831694528097
0.015356838574622394
-3.920257945065122E-4
0.026417800609158607
0.0664027429179338
0.0052130843049989755
-0.017727695477812225
-0.048112190574539665
-0.033264817077799665
-0.03453076660426355
-0.025071114444072912
-0.06657845305121449
-0.07968605642757554
-0.01776257324715811
-0.032288005019726285
0.007550454133215826
0.0470770303280568
-0.010672633569547866
-0.015074016043397188
-0.036064522196616676
-0.015191213884842642
0.035792123485749214
0.026435537324416884
0.0034563686449483218
-0.017592834430281565
-0.01369586032330743
0.03576519123675922
0.013297094501926149
-0.0025648279770713774
0.02172265124133278
-0.036917376982684075
0.06482528978879332
-0.009135281155905173
-0.002117888323183101
-0.016604478494537517
-0.012415504239812549
0.038220211407559775
0.0035591525568283242
0.04879486651855218
-0.05677060941205723
-0.06618695470079217
0.0014387819667614947
-0.07571474485198465
0.019877612754754175
-0.010000072651797554
0.025477706212164507
-0.02652968908297776
-0.013995928130859639
-0.026742522380759862
0.029068990484290194
0.035545568890599046
0.019977240370510466
-0.0016785675526475954
-0.04199863691145887
0.01937793543852281
0.046561441541372525
-0.030041663930069424
-0.04101300796532867
-0.02150818254413995
0.003218959905713888
0.021870400225732882
0.007678820532811644
-0.018045741365582124
-0.001580144296800073
0.02497901995765234
0.06219350252693282
0.04971706731045593
0.01988566799791709
-0.001210727788491774
0.006345091773267584
-0.037600836862030765
0.0011693274410069364
0.04991713255493272
-0.030251078976443316
0.026667762513827912
0.02550701731976259
-0.02085562218586643
-0.00411508899664494
0.034145869629826395
0.007695190002590293
-0.03262893583423309
-0.049174746405248264
0.03373383499369819
-0.021717949947890676
0.038376114715249224
-0.058792597036039076
-0.054357367938706644
-0.046736264979867694
0.03020357070390085
-0.049083688858543355
0.02032532972400123
-0.017370346056554253
-0.04438870952747642
0.01149033131971584
-0.06064393365250612
-0.006563576633253497
-0.03666549799529321
-0.010839388847199195
-0.0338644054942426
0.0046986482432989024
0.02086253184056973
0.018830975305923665
-0.006479030245919628
0.00794019413677784
0.00187156991965038
-0.05197656526630196
0.04148405304258489
-0.04828876082135464
-0.031575203016907416
-0.028745143022065416
-0.042403998629037126
0.04137134643123738
-0.056996711235770825
-0.02766889865785755
-0.016397084098618654
-0.026316600674420973
0.0408623641961593
-0.00596319032968817
0.014404271179195264
0.03564583298456169
-0.045983550842683366
-0.05233489734699185
0.015425555090459722
-0.008430927861494646
-0.057606566182877086
-0.0332384214595126
-0.0057099010908093035
-0.01638447765337903
0.011145038508922652
0.035059647975409614
-0.016331623138429504
-0.0011630888669895536
0.008031717498742407
-0.039527568746113136
0.032250752431640106
0.042485840113852626
-0.02804222289304707
0.032578052878257095
0.04018835082178159
0.04233213147376978
-0.033182275877163235
0.05002770349066923
-0.006279834667196824
0.02868474981141903
0.06606236656225248
0.019184142697869253
0.054332577743672957
0.01171123793200539
-0.013120918271640592
0.012283743322218314
0.036857219713555024
-0.00789994881028391
-0.02201157991590325
-0.04059494568997767
-0.022720265897724898
-0.05172492978355723
-0.03840261596221776
0.03336462315393066
-0.02028055827454829
-0.04342041378339226
-0.021153607810977346
-0.02734913274797029
0.014587245544595213
-0.05031481567633562
0.0011561588896557328
-0.04546180799718114
-0.05299460457215397
-0.0399613553648734
0.02389488208198755
0.01879387874392047
0.026878553304387615
0.004297747473755562
0.08625145307780949
0.03897155259155761
0.02195445203646791
0.003633964360266086
0.02766549326292111
0.024703351276523528
0.03455409602165572
0.04360635438439064
0.019653312195366583
-0.021079919637678815
0.010089968281941461
0.011334713844327413
0.00915341082772448
0.042735505517173734
-0.026632452986436392
-0.003384612338009999
0.023769234670907677
0.018571774733825878
-0.04619955247974568
-0.012230111127680132
-0.027247145278891823
-0.02150491226613308
0.004446584480831175
0.03987936703052658
0.02989115808482191
0.036818040946450914
0.09179025212215755
0.07326618332588884
0.04456349341703768
0.1479406560299638
0.12412394853742371
0.08559626330661739
0.08646036609221038
0.004566998144223652
0.04632389748806108
0.04194303692872254
0.03692462112545297
0.01707568983046403
-0.03936871684098211
-0.02390564502641478
0.04133106840215905
0.05112723860457506
-0.011980799277171814
-0.0466935391006682
0.0037956398773471107
0.03852126003672184
0.04234708693180686
0.0218952708419053
0.041023270784713003
-0.004831963519660374
-0.01063994251088804
0.03686971460714648
0.053822038526615545
0.0537600555588535
0.032321843586194596
0.06420907469975891
0.04150801123669883
0.04845047254026868
0.021556723988243064
-0.008196570527035173
-0.05981173733149407
0.014198010977086532
0.01765387781796053
0.002157093435112825
-0.04526832776222174
-0.06030317977440405
0.022456368760259245
-0.016608719379669245
-0.014105968130732944
-0.0306891271983088
0.02097944851196786
7.352942534696344E-4
0.023658274308613086
-0.03195360151936085
0.029055322473281492
0.028581268702277493
-0.01781058719691045
-0.0016832473115447283
-0.02239288401573983
-0.04466103056660571
0.03898494366250633
0.02835106049946383
-0.01398677795480138
0.021215347585161762
-0.02035176643472116
-0.006683310695037804
0.04958509882042084
0.012906732380729312
0.008975365669920821
0.014758561619069514
-0.0320503823477034
0.018628054015856516
0.03689147170668526
0.025068459132745274
6.009990923150623E-4
2.27073887176934E-4
-0.022050025829161032
-0.023406928309195447
0.04210199604653148
0.028059000652202345
0.028506832976206535
-0.0018884157101872888
0.02535081939314344
-0.0020713551440737876
0.014754929914481707
-0.02556082779507479
-0.05542695343599486
-0.036544452128316654
0.0023171505819594767
-0.09834597336979237
-0.03153091554303298
-0.03570760062604584
-0.05463114714590717
-0.006593378035742693
-0.005056868098596659
-0.05756284815275555
-0.12957961865489367
-0.10298289979970061
-0.07853742798035236
-0.013012333198813276
0.0164256527263516
0.04148029480650527
0.05421794346011617
0.003768660984481971
-0.028439704728697043
0.01982532608816138
-0.03881037375063808
-0.031080033034594574
-0.018640213093502486
0.023648914689383196
-0.011307682887176325
7.172705230011216E-4
-0.06082474288065734
-0.015628374382654395
-0.041593071877679466
-9.692467273162366E-4
-0.08617933764070226
-0.0327056783181421
-0.04176134682730553
-0.006979474869169619
-0.02240990887835571
0.019363176882121514
-0.04930547533379027
-0.12307861967243687
-0.22053106835681047
-0.2081589571261902
-0.16332326925780236
-0.04629035235530149
-0.1024312250678055
-0.09392991188712857
-0.023881255781239785
-0.03772816631724271
-0.011046533917239263
0.010644107070751955
0.0106799354896955
-0.006855136384003793
-0.03597430949426543
-0.020729598751328463
0.028674531813709894
-0.008960496405367585
-0.06633776289889344
0.008060425210097297
-0.06304849315747771
-0.005826016547091256
-0.06567950221812642
0.0214005324853208
0.08337399198269295
0.02063511147645475
0.10414465298650866
0.03036240894435262
0.055277092048572056
0.010016912676430385
-0.09353238429481829
-0.1229508531486299
-0.15428852525666437
-0.046056880918828355
-0.09194383067046655
-0.02806826479452808
0.005020763286674572
0.06606554444374786
0.015079467563970876
-0.0028461470368413406
-0.038177055923732814
0.033779112503487786
0.006518875160597451
-0.051530991575097024
-0.022982472250534024
-0.011278539881219402
-0.06564435189332951
-0.02276984657173261
-0.027922699709423193
-0.03817941785596823
-0.04433212006153128
0.00769841433658476
0.08927830255511718
0.12387377876862367
0.09456933997785531
0.11331309638921462
0.025547950512479337
0.015164498779541116
-0.0368710492423321
-0.025736331488112007
-0.0755696980815217
-0.08044425895856992
-0.04560783453976247
0.011288425306911452
-0.04993476817510524
-0.01878785470440644
0.07521589743621027
0.03659475983759906
-0.01710097867082004
0.03892660239653271
0.00329991678778964
-0.01462770895944927
0.0016239786696603273
-0.04515375360455238
-0.014194543633422903
-0.036506986530156736
-0.09593887450990254
-0.025758469768122728
0.05241783268592407
0.05467832121319626
0.03929954624206434
0.13713333922614687
0.07865749859336521
0.05520432013664994
0.06249881000546937
-0.03802552404160182
-0.10570332616146993
-0.026583682185635293
-0.033398189897896835
-0.07628364266050325
1.1506865988426567E-4
0.004318316118205659
0.01589717303284287
6.403963191045887E-4
0.07185548647907634
-0.028645157874022716
0.0012311372181955233
-0.01152937232667487
0.006615489659717908
-0.02309449422594585
0.020833130102793595
-0.002907086554685732
-0.014741039477560012
-0.07804534760355189
-0.05167099736521232
-0.057237560614587416
-0.021890104994077193
-0.0348154004538087
-0.04113335993049068
0.022849690992239605
-0.034915528586116094
0.057528476401632195
-0.009048922409983715
-0.14679589922416172
-0.07524026483230563
-0.10430540670711554
-0.096713165981076
0.014153844391471706
-0.04080903846538195
0.0290797811872216
0.027741203873667904
0.08103737268508755
0.09032893878967009
0.0013764736446619929
0.029067541412741406
-0.02958883954663154
-0.04351343604330545
0.044942422367025746
-0.0330562311113369
-0.0662027388980087
-0.05547939432598423
-0.07969034202391563
-0.08259589617252144
-0.08491479590630488
-0.04309997486046517
-0.0987090705814212
-0.1157236233736685
-0.0460685283361205
-0.01910687823376213
-0.019750842282509624
-0.12478810357259111
-0.05896079853111328
-0.12145757465251662
-0.11166689645232915
-0.003750429259290543
-0.030444237396338208
-0.057104003704249666
-0.019842089843695346
0.020867656210468696
0.036563731646892
0.07323917619618565
-0.004403912235969416
0.020656424533974205
0.013964513175320823
0.04385315651858069
-0.058245156855427194
-0.020583224787463866
-0.008181193814159781
-0.13422485053735103
-0.13690917059773025
-0.08767209029956913
-0.067688882402949
-0.06919148371004721
-0.11117440233851328
-0.1119322266680572
-0.06880702062507707
-0.022003021800204747
-0.042965119037499236
-0.12077160740469654
-0.07766768743820117
-0.11534264248214324
-3.3712068787242926E-4
-0.0026490226060463785
-0.01289528794604937
-0.04830273622067143
-0.04504886514042254
6.316622776943486E-4
0.0978993931038954
0.06685775325823062
0.033952045982663694
0.033552109518462325
0.05302138011716458
0.007131192288174803
0.027194181928316824
0.050631160970535195
-0.04062477762443371
-0.09598991036829949
-0.09004519004634426
-0.09389101765818861
-0.07135655766628297
-0.11526792349013386
-0.029669181770246637
-0.05435055976638285
0.016772042961849126
-0.022970784111864765
-0.02579137738276766
-0.07026943375406727
-0.08240326406976518
-0.08760347655595313
-0.10319415405293196
0.0011841458552726179
-0.028232247250616738
-0.046996401866974395
-0.00704907594429965
0.09501572550148689
0.12123092895781253
0.08955945116377703
0.04829301083807766
-0.006511035397206608
-0.024845606118221297
0.008694030204678675
-0.021001255832471998
-0.010935416942850327
-0.005526896789302079
-0.09078915363377799
-0.02813129162668945
-0.13796221142815518
-0.05705621677911252
-0.0491379108982295
-0.05496040895761928
0.025137250312690224
-0.02763200888459446
-0.030570940921670543
-0.011305604203307803
-0.03088754893543309
-0.1425630884712987
-0.12271039599983306
-0.10576946469595265
-0.01741927029099019
-0.031139626601659816
-0.024700901294711492
0.019064329927727015
-0.029251207916139933
0.07788698831397604
0.0718246068849401
0.005158549449809582
-0.004503647538909693
0.009582254726454895
-0.004563470278490872
0.026205303542568323
0.017956046551822636
-0.03085207259708051
-0.03455489396897746
-0.015039556608047662
-9.55198505335945E-4
-0.06528277402067913
-0.05188123866962957
-0.036060486998219794
0.017353524988186562
0.025084439219197563
-0.09402373801681305
-0.036239392665495196
-0.059587727078399017
-0.018623435197791836
-0.10838488782482568
-0.05080701733103613
-0.04568381460660878
0.037576845658239384
-0.020216475313056554
0.03155062246664478
0.024043118040769352
0.10606109038507487
0.03787801624283125
0.0032633124829065325
0.02616952186294172
-0.01631917843944186
-0.01810556100000371
-0.011233839810821772
0.009425420727079433
-0.0032047371017939865
-0.018226681374235117
-0.008231182659416629
-0.0011810622470214294
-0.0356248526099105
-4.977553167875673E-4
0.04380973968896266
0.11123062031347657
0.03912522648303289
0.019413337237107437
-0.051250821267346494
0.010151204416030266
0.0055794597970879965
-0.0012351536691009475
-0.03947029750219374
-0.01784981475742525
0.016120859023284882
-0.007004072759857748
-0.04759370509767734
0.03502194097997185
0.055768770659931154
0.09420098988500507
0.041205864464943794
0.003590161167612499
0.06044833092012051
-0.02255768008499478
-0.05226652461669159
0.004307316252236958
0.01736978854622385
0.07686458249866011
0.06658076783937565
0.03751528424277927
0.09608592877234937
0.03490055414451401
0.11434162306594664
0.16545616164220875
0.15013487494849256
0.12918430184948346
0.05742299232584788
0.05936057856498706
-0.022061057106318477
0.025104914180447895
0.04943278180612202
0.05589183648607651
-0.047446954299696247
-0.04261304915023442
0.02200072572632323
0.017227431166638694
0.10918747916343269
0.08901948227300588
0.012044248101591054
0.05461232775404323
-0.00338703045962288
0.019587890800600076
-0.023651393737152387
-0.03166073429311282
0.027968142035831322
0.01673984532219031
0.056203729077337054
0.1152711910617356
0.09546564432375709
0.12286331291486097
0.17242743362693402
0.2039236320133211
0.24818669378074043
0.190745734965428
0.113794381199415
0.1304030713231232
0.07115603464753473
0.058098449219072604
0.044108224011225855
0.03537102185952143
0.0183116814782841
0.01913920617468213
0.056965378605502666
0.07253326834510661
0.08217275929029998
0.014844158532047005
0.025030674129177664
0.03771013093940001
0.04847205036096054
-0.01104683334471404
0.05060247150304915
0.02364811704059067
-0.023062872422480542
0.03659383135323249
0.07659788279730959
0.054790330776976655
0.15805192285241598
0.18026687250929843
0.2181549969000295
0.189602565783504
0.23332501836817668
0.26849691607161946
0.1527263191177987
0.09095689893735559
0.1046277917988141
0.014008469422778834
0.053183475027295195
0.08172089715716374
0.011344211831428638
0.04171785510460843
0.05240857887994147
0.07766105703462221
-0.007212286207208462
0.04304335704926168
0.017911593478802276
-0.004866204345656005
-0.007959020815947918
-0.0062605163044534
0.02996247081649425
0.017955251848695977
-0.04311882294776102
0.04120238931426615
0.03670840203151854
0.056062330158481354
0.08733867829371009
0.10426882457192972
0.14929286765343974
0.18602067718195633
0.19414967267459304
0.23224765514248796
0.2012540893906834
0.1533507369538323
0.024985315094461193
0.03781904154974392
0.005947866481432633
0.053404712091950926
0.04758894594076417
-0.02097554496624932
-0.023812179972157784
0.004829630662309173
0.11532251293360919
0.06661350246772306
-0.022958266787273
0.006793571115188775
-0.03410821713208372
-0.05739636970776564
0.0299878643882023
-0.021477557587688212
-0.05886332703855977
0.02963060393436597
0.021240055620711445
0.04303824248794728
0.06402473225565908
0.009704966697109753
0.12452034191455741
0.1216411521261093
0.06154099995293618
0.11010287802029653
0.09989440549137421
0.048492654055957624
0.05012147244974477
0.07105636849410613
0.012637207464115967
-0.03224497589557844
-0.013383930989495404
0.049885114552242794
0.0066492722965598786
0.01732468704381793
0.030777920949798924
0.007276696637621255
0.01815209133397581
0.004207624065177124
-0.01640801957650297
-0.01395713531024341
-0.05381483263421507
-0.020140965296926237
-0.03807860066329305
0.012631070682065114
0.023662016353293545
0.005340179830040604
-0.004874801614539296
0.028605755192181368
-0.0038633452772382994
-0.0065039807082337186
0.013438892355124861
0.04786194231265118
0.06916658416313112
-0.017055092064566322
0.014354371110996909
0.04948552752182345
-0.04200230053479987
-0.023934583597953626
-0.06783843517574775
-0.043647685778865644
-0.04519479403516643
-0.041357409610131
0.01210592841726476
0.035787502658626236
0.03804755653003631
-3.143606713952164E-4
-0.0033999658759773783
-0.04932436224149058
0.02287826134089102
-0.028423005402748797
0.014364607692243276
-0.04267531988523284
-0.0611643987619367
-0.07311217116953901
-0.09135951840416635
-0.036749277405699644
-0.05904571847998729
-0.04685928160525461
0.04718454870837046
0.07679323977807696
0.06507348439539719
0.02893149187785773
0.023076607653119363
0.04856662135970403
-0.08068501428380574
-0.11051073390377604
-0.03836133072840384
-0.1112611225381176
-0.08608016968761895
-0.0532125379712945
-0.04555310265378479
0.03930019041891258
-0.022872638606646484
-0.02807409287918649
-0.022496628312100482
-0.0495602291385725
-0.05753769295818799
0.03655311265331314
0.04746808872861844
-0.05803279950058702
-0.04582653770769342
-0.04052338533290234
-0.04344060330505373
-0.10960961715789092
-0.05855902277262636
-0.09573548922350235
-0.1182480797184412
-0.05395847611765437
-0.024852440258609346
-0.10141548212469452
-0.12705645959770706
-0.04036391343488007
-0.07214183661713833
-0.09583767395796597
-0.06483899386175519
-0.08545151353155152
-0.01279051428567768
-0.0696866625517583
0.022557644560658004
-0.014024425911751641
0.030292545478431656
0.012355060402220733
0.022663850962158217
-0.015251404345095428
0.0026260133035323884
0.02447986487517029
-0.009846615122018443
-0.023333837961117074
0.009087435474242782
-0.04230981984477301
-0.0376874815109236
-0.01906633796121646
-0.04279609456774559
-0.03455348052410295
-0.0385099493625873
-0.07530427151976776
-0.09360648201432271
-0.023999471204432174
-0.08725714519633926
-0.030804872925113323
-0.06832954359656236
-0.06719025109759316
0.01204346669486294
0.001988357135007941
0.013941842456459269
-0.03317726207929612
-0.04288047649113661
0.03959941745718594
-0.018497663098440965
-0.03543206047031185
-0.04889528289947272
-0.005178787569818981
-0.011215743308600685
-0.03451762635912566
-0.03714720508848514
9.242010522178383E-4
-0.03949593033730414
-0.019953233017782682
-0.011022878240417788
-0.03549305485662408
-0.05157099636108154
-0.06725851292675841
-0.04325645050347636
-0.060728330736327676
-0.052248623590910724
-0.08223589008667122
-0.014936289986809405
-0.0157081302550321
0.011361455062327485
-0.045839504680097884
0.02845764117523134
-0.047832007854976474
5.421994822749414E-4
-0.06823937785224568
-0.040374329157310436
-0.033320853845656466
-0.03194444842754318
-0.035702949471615134
-0.024026837782752823
-0.09099970501246299
-0.004222870355460398
-0.008954911993808842
-0.008340875030614993
-0.026256999189634936
-0.03540155748594092
-3.195582074578752E-4
-0.03846850768136726
0.0460413581168147
-0.03093653377956774
-0.004925919037216223
-0.05955178786317259
-0.010228695511020057
0.002801608547802643
0.023931791219055344
-0.028300128461506712
-0.004147436588881026
-0.04249750913414077
-0.04052642803868473
-0.019856922335340702
-0.012167421516993638
-0.0064470125527495365
0.008019656635990595
-0.040022531580123456
-0.01577719201864748
0.03802883239055939
0.006253000562228443
0.03641208835625547
0.023163820123673507
0.016840753968357252
-0.03770324153332399
0.048724386217489306
0.027777613486326062
-0.038460343128516615
-1.8785567814111722E-4
0.014458271810316045
-0.045960883022140665
-0.01958249940620238
0.02122857207343761
0.02153800931636692
0.015421943163880018
0.04035709438989343
0.02983491769517265
0.023144264734220345
-0.049896531702867716
0.026354434970740772
0.0119878495860566
0.053546382637751515
-0.038614072368118514
-0.039178940745823954
0.007573347430681969
-0.011200818484525935
-0.030312796988744332
-0.04051366659035239
-0.04787531755815123
-0.041286440376703835
-0.03984032562008141
-0.045169883537986254
-0.018636616575595195
0.03982730626695701
-0.0227970269053316
-0.03408991241503444
0.044516498128700344
0.0018369278527722635
-0.019372166607398114
-0.002490739860677857
-0.037134077333409315
-0.0062396585298467675
0.003603714901475494
-0.01782867294398028
-0.05132567430410913
-0.03396298011262331
-0.04156669473812983
0.0446769270356287
0.0172990723281304
0.03424450149181946
-0.014377007199992704
0.008906460884214453
0.009107174663166512
0.04157976428445436
0.006989896463938972
-0.015876466727518856
-0.05047921966473322
0.013606093819587625
-0.005349692807954909
0.007643726665869903
0.01250092016462701
-0.019329745357745405
0.04871165447279416
0.0306629123537452
0.04858970159661228
-0.02306651669667934
0.03333206996298179
-0.03717492167417715
-0.06388097762793447
0.01807883359363079
-0.08240103565039111
-0.017713806673353743
0.02204792372645924
-0.02475495248154696
0.005628167235101939
-0.020082577450918772
-0.00889245792035633
-0.007026101897481661
-0.04548202729520889
-0.014408726962481857
-0.019577307282752515
0.004206341825873217
-0.03043142920928306
0.009837166924144587
0.005652659787596059
0.009654879575595408
-0.01948413186808729
-0.041601525297964584
0.01373786723096922
-0.035121045051832354
-0.035720580827761375
-0.019923738818913052
0.030493485614614436
0.041024232687847474
0.03334658109307028
-0.011657594019530529
-0.057481538108399205
-0.005440746201403151
-0.011401576935895478
0.0043033076282879435
0.038311135870544834
-0.01594475730781975
0.005583422069657188
0.037691259445036075
-0.02460868081291199
-0.041300322764667254
0.03453265796526437
0.004650125380945615
-5.061201525884405E-4
0.021843186946125952
0.009693936858814698
-0.0323407038815742
-0.0445360934383677
-0.049747456868873004
-0.009489590225096475
-0.02015637480323365
-0.01181069260094154
0.032576211520543595
0.02784189017437887
0.03321439514329326
0.027153744899711348
-0.03371545388749361
-0.023392094681300473
-0.002736103093091777
0.04063345298294252
0.0058312933249355355
0.04093419145000083
0.10285769446097737
0.10283390670605456
0.0787057631448276
0.11842944410439625
0.030869812478521278
0.04101660367141294
0.03237871136008477
0.06512647072133018
-0.005104538541050301
0.07084172761883988
0.09144058718396879
-0.01119887288554712
0.011961484882844273
-0.04232540166895552
-0.00863637684002919
-0.008085431710826168
-0.02261961684924746
0.052435998019244486
0.04264061168277917
-0.018627781442981484
-0.04308565109557844
-0.039767106102902905
-0.0021561215197943816
0.04622744369480514
0.003219032209718881
8.200087162483907E-4
0.025527114067341004
0.04022414264086961
0.015179723532723562
0.08498682771073278
0.0663363225411566
-0.002218951118046422
0.04288283196462712
-0.0015327430247631991
-0.009176069797011641
0.04365704988947514
0.01786555287777909
0.07029625754524725
0.07226068333622859
-0.01096890900913465
-0.042799014454688894
-0.05773848597810875
0.03198262034432521
-0.022737882787419474
-0.03145313045398726
0.0072178059942154624
-0.04603084256074532
-0.005461857182479035
-0.047385266411521174
-0.029781985816676015
-0.010524030846509129
0.008735576707381907
-0.026950430007041705
-0.06527883058621473
0.02252182808170562
0.01261392796559241
0.06614746788903911
-0.015145128637907618
-0.027600866814522538
0.010222924309784266
-0.005479631028395237
0.04145827703687622
0.05624497463489198
0.019669582134556197
0.025970095931925306
0.042123593746023084
0.027473087173693515
-0.05558470796430454
-0.012312564616475504
-0.05023957052748526
0.02109285263067414
-0.0364756599887872
0.04299571033847727
0.0072229768364441525
0.03563155099973095
0.001837003770798426
-0.0023726095560172027
0.0032431425181070088
-0.006697548876188043
0.006031274710671363
-0.05369041905243184
0.0021519933240482
-0.023953224703170222
-0.0729587160158293
-0.01527469409760904
-0.013615200108527955
0.026846593546233373
-0.0031433666982336014
0.01311025261507287
0.10387789680961271
0.0370619247625983
0.04318731647038826
0.013153412094882204
-0.09071313005479527
-0.052318685757121834
-0.1267505867206909
-0.09567399339724068
-0.07058504278142352
0.004001923675123045
-0.013832001494634009
0.003278331022570411
-0.0323789195305282
0.05144902490929239
-0.009689506833869694
-0.016294617075749064
-0.035755567812828105
0.0015520150565854346
-0.008285775361995049
-0.10806304342434325
-0.10738437579753692
-0.050803730993230635
-0.08070754419042692
-0.10066793686672425
-0.08461227844545872
0.020124679585463198
0.08893081823546249
0.08488381877817612
0.03676820360956518
-0.03733404131158053
-0.09382087455271762
-0.0821724250672053
-0.09217355387767999
-0.13093265804265666
-0.1786375610006329
-0.1380794096315707
-0.08947947904728805
0.011594314007875337
0.024163519969467633
-0.003080851917313202
-0.04187348031282701
0.01739309510891295
-0.006627658789267313
-0.03203912950860122
-0.03104031305387915
-0.0906567805431128
-0.05087960492131118
-0.10267799942190012
-0.12308869905770531
-0.15538027587766587
-0.15412326019160352
-0.16005822368266234
-0.06936356214332359
0.05812455018769154
0.13956463453644583
0.07143265770851454
-0.011390885656625393
-0.026370449570811586
-0.13981404945636744
-0.06514164928018167
-0.13103157179550362
-0.14575807178174688
-0.15925891683588173
-0.062368825581574895
-0.0549300738458568
-0.029294117006834795
-0.05017325571892075
-0.04676004346222768
0.01305057381467308
-0.034778255256669346
-0.01036038550590662
0.0012051070846599969
-0.04328068594823189
-0.07582699759874925
-0.053500598542182226
-0.13935270309976316
-0.16410670933959803
-0.1467588701330663
-0.20480897600611198
-0.180822198520956
-0.08602364853862554
0.07745287016296303
0.1316145414692359
0.07732365641889088
-0.016762599365184965
-0.1330440876700938
-0.16072856834601573
-0.16035839673443575
-0.10164306653256316
-0.07059371756218967
-0.08597240586555234
-0.032746432173981876
-0.06941184345787192
-0.04955606214174228
0.0186374655099278
0.026938039678423373
-0.038625101736992726
-0.030888866858256626
0.03610557097109019
-0.06424091040759507
-0.061555045168808005
-0.10578287743920213
-0.05855326249754699
-0.09243252346061696
-0.143030625027607
-0.17612336337460913
-0.2566547606516941
-0.11661903580542898
0.0033159070976358
0.06637292746636768
0.07748997585903976
0.014994862688254274
-0.13129935632232848
-0.08579861820770049
-0.14068889535115325
-0.09137403500116277
-0.048469773888120994
-0.0790117887082392
-0.12068050381834611
-0.03133397582948789
0.00625725902141092
-0.045786186781475384
-0.003009782044296058
-0.028209665177413235
0.03681150159312044
-0.006810267410724488
-2.727272142328392E-4
-0.019364051221142008
-0.07947126118297794
-0.07967706501390408
-0.06256986732370033
-0.08356529165682004
-0.13285693072194038
-0.21530132940629274
-0.10352050895537793
-0.04015031954851071
0.009755724023962435
0.031103197291716195
0.10878396901542015
-0.06454339287601268
-0.04674841346211648
-0.07554513452051563
-0.09902828812333674
-0.07998330427273453
-0.0992776707835973
-0.05644250907976141
-0.07355071584435337
-0.05933843083700809
0.023746611975250735
-0.033589254067603116
0.008360442635132656
0.018832466770163994
0.03047540734669938
0.03989489224067809
0.007046753842558133
-0.01104496239005475
-0.07713384542788712
-0.05903670509361527
-0.041255969760673514
-0.11681822357005213
-0.11809609550936037
-0.13793299972495415
-0.051029375881003515
0.0502840494385635
0.09132253583525418
0.06324633101106328
0.06491005498108789
-0.05193768367036004
-0.17657312460169058
-0.13070367370462282
-0.09831897131912695
-0.032850662554093524
-0.09032200667554977
-0.07204917092104421
-0.08098987056668303
0.03372578360442642
-0.008053107434836934
0.026202923160977026
0.03571401348635637
0.04576959456706408
-0.028423103807678367
-0.04108608318099338
-0.0014603576067934486
-0.04204987018048654
-0.00416383027545742
-0.03725957567771124
-0.12744270447431738
-0.05343720707071887
-0.09756601402997157
-0.0435878565319736
-0.03629680437616208
0.06774277766858251
0.12969280604906466
0.12860193074455786
-0.051816613633146574
-0.12121413508689433
-0.1814797259374513
-0.14789763958978713
-0.0805116654752143
-0.18908145511747998
-0.10644409684590224
-0.09408651940550856
-0.0785511750543903
0.028751137991534705
-0.008186106284100408
0.009248293934179428
-0.003680873032463884
0.002739129438706311
0.0054436575422214025
0.022663879394405364
0.015725638085076748
-0.059623409149823475
-0.06767388878082395
-0.08101273430862613
-0.07778769408138984
-0.04136942959704755
-0.03613545716326812
0.059766776248519254
0.043731000479169654
0.14978954829663357
0.14643973577978617
0.11448039457309883
-0.040097277382081124
-0.13614458617355188
-0.27767458848841636
-0.26852899892880017
-0.12859066458174592
-0.12270752064523831
-0.09742331388047201
-0.08755644759407655
-0.04773588521780961
0.0035350330306397086
0.04787775964879001
-0.019920960508597572
-0.030592624120558267
-0.04038268839897095
-0.04424085237222178
-0.025742670272340114
0.00473018247884785
-0.04525675909396973
-0.10667534962445482
-0.15005074031356225
-0.05853629578426093
-0.01252499367967637
0.05180809483891973
0.10388155016608792
0.050047242862241076
0.0813163594970667
0.15102351946881712
0.09546986542073606
-0.07265078714749149
-0.2701801196295067
-0.30225740661455586
-0.19407908998953813
-0.17931375500093327
-0.05043752334925564
-0.014666097358905235
-0.05838099446648771
-0.03661158711906325
0.0029440384464497196
0.004806331767977991
-0.009918925818687932
0.016024841325971664
0.029676088583143263
-0.024830283764638517
0.0019312487707424972
-0.03542294280770224
-0.010509858000904712
-0.09786676575559024
-0.11749138704730898
-0.11084375018069956
-0.028543283747560808
0.037077614530071495
0.07159204454819967
0.0726357902929845
0.12111432292191572
0.1520232314406605
0.029398661103991003
-0.10389480599933898
-0.24920538939900921
-0.20964885264193167
-0.162880039859622
-0.11779674200669639
-0.06601960998580159
-0.03257818236612624
-0.031786482777551965
0.046592885919198704
-0.023223582119674634
-0.01902581628192522
0.05605714073067934
-0.037870364305028874
-0.0143153225467579
0.016813114572047923
-0.0568959780956025
0.04099490041213465
0.03334539849421261
-0.0699768166771046
-0.09730357688141364
-0.05522983214616762
-0.056853552696593
0.004555039014730115
0.093469758191427
0.026090075712814242
0.0705201028851072
0.02191294450224137
-0.020887471363858594
-0.0716586865014234
-0.13962602566674315
-0.06048543809444448
-0.07669914649791422
-0.07635198525048303
0.031514313468655256
0.026774212321756252
0.018547378461550787
0.02972999342387712
-0.0017178789505834663
0.055953567916339646
0.022233004802282113
0.047264466878910984
-0.062486228672882595
-0.05468165425396198
-0.016259231521446944
0.023306715306735816
-0.02532943392951351
-0.03592395885041128
0.0017079497369226352
0.037492316994123136
0.05512319744769801
0.04615391770100285
0.034665921263785184
0.04403807055041217
0.030948774432180394
0.05008945755625731
-0.042454542255910756
-0.058860254356579836
-0.03436780916231045
0.026589496957498838
0.025835568748471274
0.08312091810605579
0.0753645368297269
0.04186889322703599
-0.05003642894207419
0.0506374368857634
0.02134493515284372
0.05659925272433937
0.035307107834946304
0.040665620258930044
-0.002670329791849851
0.03592288969457785
-0.007014304110830754
0.03025410740803681
-0.012131132166849416
0.07046412781314468
0.003584188212694931
0.05856239587366043
0.06158890996156885
0.019866261744154765
0.04659778211390472
-0.02275595790106817
-0.02580175529951268
-0.07274988960972784
0.044160923328518994
-0.00949716482941823
0.12051467048922372
0.06031014755445806
0.1470031020772554
0.10893430033082471
0.02428147941984036
0.055840964190222046
-0.0014259235518615653
0.0064547608092411874
0.062053503890939214
0.03945151467041959
-0.0044227099656660804
-0.025225251249469324
-0.03533482370683928
0.0019075241993533841
-0.010451517245127257
0.004620060933309308
0.02766180260572638
0.07052802041313481
0.10655701805617646
0.03596632531751198
0.08186215203140246
0.0787021553319981
0.033655818937487925
-0.06234654960464569
-0.0789880288117148
-0.06557600347828191
0.016686702925050433
0.09405835261230318
0.08925583881489993
0.11760927692099259
0.13452445346672237
0.09408010198698016
-0.0015415898611217938
0.0035075574748079826
0.0408374239115688
0.017455608303059145
0.016058688879091464
-0.02628246849512507
0.015930239541937462
0.034546076399833356
0.012725779687457226
-0.007610605387578116
-8.617982688523875E-5
-0.05597854395191503
-0.015113155796010174
0.04248579939951932
0.09383029325696583
0.09194574568691392
0.021862799491912256
0.09503813191806369
0.010070304078425166
0.02888536725778034
-0.034070317053527636
0.03295758803667911
0.004094934159105008
0.10738940938333735
0.05321878432822789
0.10751876235206209
0.03253577373474566
0.007823899152991812
4.7202799196018925E-4
0.008377739265914522
0.012573156094050983
-0.05564531378522886
0.03793321823308245
-0.008719656880182076
0.012302709225096659
0.03856255695840089
-0.03727463676233579
-0.0016207400489402595
0.033705129636480785
-0.010701613355075428
-0.004126610940598886
0.03433146370099419
-0.015629173443538487
-0.012481112878450083
-0.034695673324484325
-0.008223006006476399
-0.04725080131407839
-0.07198332225168037
-0.09807812449184193
-0.03528011087620946
-0.004032200882898364
0.041507595453361586
0.03427306149238435
-0.010915564557700843
-0.046496728334186256
-0.046735344341150294
-0.009343174224974236
-0.032946579391371626
-0.020341352189037612
-0.032654231788019884
-0.036044025391130205
-8.71065712224626E-4
-0.032184409752582105
-0.009255381622684722
-0.011114202880134818
-0.02838418934359145
0.03237848058760438
0.04187199003937132
0.04971900716571346
0.03611719621451821
0.01317073855689419
-0.05468942917527924
-0.05329795977127211
0.011404441320320547
-0.009673149011224885
-0.0654279959230769
-0.02851480253023456
-0.057848559439497266
-0.060664758410762375
-0.07361750374877872
-0.06988807038225026
-0.0429846322876563
-0.042909196874868626
0.017045738291317416
-0.00678350300944219
-0.05937242855435256
0.028035754134776353
0.037359122808612207
-4.362958712901237E-4
0.0032156437632763542
-0.03700885621835514
0.021465452679117817
-0.02099952929836939
-0.009949354800373091
-0.027272037165580045
-0.026764638834800035
6.954404167437138E-4
0.029385799668319494
0.04314097881672416
0.018500594089222312
0.021872361362494493
0.03399301765719049
-0.00927104647529986
0.014996227420597932
-0.05466350612530652
0.005721353660791392
-0.021320236243751525
-0.029427732889109607
-0.033692048710106316
-0.04199221012932892
-0.004183022485990354
-0.02529980266750829
-0.004411462509331918
-0.03855265801875049
-0.044237598375337486
-0.018944385294575716
0.02682235587106773
-0.033517684719688044
0.03687324172625651
0.015032138887307221
-0.0330818684141431
0.050698012671554334
0.03759522272977864
0.04249364296088755
0.026611030839308908
0.001309185651673085
-0.027259223369231093
-0.02705439883861196
-0.044246143678396015
-0.003919163043079904
0.0015054086996004747
-0.004534916247706695
-0.051268679543527464
0.0077498939709527565
0.025670198233012066
-0.035751112755816994
0.029112989495187345
0.033442254920954775
0.013297062258826714
0.005004306790887561
0.03429312735413065
0.04007375938657649
0.0413439598515204
0.04474199566305524
-7.781503767576106E-4
-0.03241686922630411
0.04035831347509035
-0.03612431407635209
-0.07078704582780398
-0.035632508060629835
-0.014469853638862443
-0.008725629156606825
-0.04072518262279768
0.01249197030297217
-0.02575769294394067
0.04672077067575476
-0.025020263265238908
-0.006555382103957704
-0.011960380371001375
0.0176425137556004
-0.002271813191820247
-0.06373760182774167
-0.02394472024396324
-0.07604774743136425
-0.02097642673920507
0.004530289800738473
-0.022331473731656563
0.00828068823737128
-0.03971339553482494
-0.019866569562163983
-0.02806901010273605
-0.015156449159996251
0.017729689438774676
-0.004717217818546477
-0.014196222045387915
0.0030210473295231213
-0.061206848482472695
-0.020049239761934717
-0.011166850115989774
-0.04794076750447783
0.0067140940051224575
-0.04125677880786325
0.03095572047539514
-2.2268806238416068E-4
0.037180310733670945
0.005071170573158637
-0.03350979861297123
-0.08257822327903429
-0.029036374100957277
-0.006288525341727569
-0.0408644859703315
-0.042050805143393655
-0.04693697595906519
-0.0243674714088191
0.005175775840175718
0.0061933219217935615
-0.033850394583897145
-0.03486177026577045
-0.013674430039565809
-0.052612497774744714
-0.007575953209565713
-0.030830395291945357
-0.01587213949593191
-0.008389228046814952
-0.008197475158061443
0.0014424003391459983
-0.002796463318690651
0.055770915479106745
-0.03443884889110577
-0.021919826192588077
0.005908609470058423
0.028029912463359855
0.0012020422166812822
0.011386109634181608
0.012376256324097945
-0.016896712240913266
-0.015673204913086644
0.02350645252993393
0.02698296719696838
-0.028369525677888793
0.033344236095031725
-0.007232529611885164
-0.007091713270924931
-0.04857383321495088
-0.07830777395541622
-0.08219824892007949
-0.05346521586372964
-5.566179293768881E-4
-0.02950182041876833
0.023477822243171017
-0.053735659195114305
0.008526179272299966
-0.04005054912335235
0.03710294941228511
-0.027659155102745622
0.016210652140017656
-0.029228435373813907
-0.028642382369670795
-0.027482053681757056
-0.045486688915642996
-0.043636579119953674
-0.005610588197086027
-0.024012800195915583
0.0634180608942034
-0.017882466322986266
0.1484257538829729
0.10919270881335823
0.08020614100547827
0.15339099782210655
0.0645187279781099
0.12264943459869122
0.016409830855449507
-0.07970836930425279
-0.05866990956214826
-0.08347880116174908
-0.09607155096681783
-0.07652622223056692
-0.06587092248922202
0.021123632690792097
-5.952031212047222E-4
-0.04022620565089554
-0.024742451959192037
0.03481646400662258
-0.0026511220587421775
-0.005473513404759658
0.03240325125289698
-4.2433306756438415E-4
0.005578880818124421
0.032149683699054146
0.08482886852722894
0.017058735540604934
0.10812573986314285
0.08825862089741231
0.11028461388345683
0.10317315380559897
0.1914095951138184
0.12831183772093757
0.2211100589793893
0.13314312355447727
0.09239734266606715
0.04485567978667414
-0.03581078793740112
-0.02696740474715557
-0.05429611693792128
-0.07656360396475885
-0.0812647592497995
-0.04125536322651101
-0.01030874261006594
-0.00938670851147578
0.00846140179466815
-0.02681761385822915
-0.033296187354926954
-0.016247498218980815
0.06016847374247408
-0.044999387458974305
0.06033889059853771
0.08296500314268876
0.03410574166819999
0.09209746365713087
0.05582055611110858
0.001700515948627436
0.013447005868652237
0.04603849427097387
0.1764783861885614
0.15400439159410692
0.24051152566730577
0.13941016894676667
0.07069160795754434
0.06217973269858965
-0.0304892625785527
0.008607008822314584
-0.05587867879783964
-0.0956159507142677
-0.06908370932348892
-0.07831258216895211
-0.046546439566019254
0.004369039815403568
-0.017029507727491178
0.043936620888273964
0.01329539543801586
0.02191947265457406
0.01821542094284385
0.03920815042465216
0.0108983877611479
0.04535210171724781
0.03122520785153325
0.06829655415148699
0.06368177022793307
0.01773040745512328
0.08239624169869979
0.11425546933179796
0.08187329924098755
0.06756706212562773
0.1452556253684327
0.16249550762534318
0.09919769543887123
0.05412863691240796
0.10023911142973543
0.05782829734596718
0.027106842005392037
-0.052708383069864854
-0.1148501301138896
-0.068799480739617
0.012407211182781852
-0.04657636757981241
-0.018252040784340923
0.003464407961170202
0.0565734258679424
-0.011517668033486576
0.002413521340149336
0.06481376899686862
0.07260461764985972
-0.01059320410528632
0.023000376157646385
0.04531617768651296
0.08172140219980886
0.08953283538909002
0.01524390505219884
0.03865977331090539
-0.02327035685654011
0.04808699481959406
0.1387229967806003
0.15386691171298672
0.09770767137712198
0.09480477646942849
0.16762176114995309
0.07532758158873017
0.0750076078125578
8.787223354377147E-4
-0.15171559962374323
-0.05526555750529699
0.030301703093099337
-0.011090913426658343
0.010023017234425861
0.08661462061655514
0.016311810861443694
0.03477610112700522
0.11478655224202101
0.1041695672044182
0.07672959718838022
-0.018310860625879978
-0.08473601908845634
0.010961920527345811
0.06492530644067329
-0.03078356369969156
-0.05719254305810802
-0.06273056220956555
0.060333985857767815
0.07639318090010223
0.1895562728557046
0.22059502812475332
0.21513425730235186
0.15857626335989533
0.1314200584810803
0.06774933972448169
0.12686818216271767
-0.0953636870089403
-0.17662478077688842
-0.06509644229886369
-0.05191180485636538
-0.019126740183521895
0.07157490429453224
0.08357453465276835
0.04827389991719135
0.11011040118353967
0.0906393093411265
-0.0102202468782205
-0.0695495419697393
-0.13696426149872068
-0.047121813619181746
-0.06656671363027314
-0.08960496560176506
-0.21249097797967528
-0.20068982736651955
-0.18281458207616344
-0.0019357363688984907
0.17506944127223922
0.31346337623757603
0.24118237044019458
0.2109270093541858
0.12349956163658424
0.09549586406513351
0.142951925499335
0.09806701401229088
-0.02570857964413167
-0.13028195994147068
-0.047999990304777716
0.03616352807246246
0.02786327397809512
0.03298336830936525
0.011066597082897794
0.07420404170840081
0.04438927538913603
0.012900357997648309
-0.08915950267313963
-0.13963133466525587
-0.2409198417217738
-0.2281357540905884
-0.21857735689053753
-0.28073497630891286
-0.3525962607008376
-0.4211384924043527
-0.36925978003690274
-0.13553114345794126
0.03636633339025633
0.17909669357355754
0.1943817131453719
0.1565824351890992
0.15183947102336268
0.15966672111832877
0.09950357891365393
0.015859148221182992
-0.06753238573935846
-0.045199508739007355
-0.02346697190430541
-0.01598413951755022
2.2133318066517658E-4
0.05870399053727425
0.08394728206175874
0.03694981727444791
0.05957388577174961
-0.007750269748482702
-0.16848376519031405
-0.2738111648409044
-0.3151988521715038
-0.28169352199748743
-0.2783629567324648
-0.2314240173858054
-0.24063217684224905
-0.3634811247002887
-0.41064123788023127
-0.32244789502519067
-0.07886560467625264
0.020829245889832693
-2.710281215169531E-4
0.0322580371144612
0.038068387257833104
0.12632481453182193
0.07745890551920633
-0.013674285145758682
-0.0384385307294266
-0.026884553192775926
-0.002662891223550697
-0.016061214806233882
0.02155163221372998
0.07885492714984424
0.005868663081243977
0.02892468836987065
0.036681098628294495
-0.09626269182209234
-0.21147567774998807
-0.33541321606851576
-0.2747677573477703
-0.2419967261593234
-0.12461572188634344
-0.11964991591382679
-0.1341389468121805
-0.2753537727869633
-0.312855009379782
-0.3047954167603568
-0.193720445537415
-0.048983068660553054
-0.032087171517940445
-0.04133900090567724
-0.07891744618894737
-0.06260133129477478
-0.07498809785412566
-0.12278666505337503
-0.1413733819758721
-0.013012357925340364
-0.02218244907047824
0.0376999826227379
-0.052214036314723634
0.043023807386641764
0.039161103563439846
0.02130459987039558
0.03852103638300039
-0.07049692613874664
-0.1818051589016257
-0.24283033574776353
-0.12496348098532087
-0.04728747744242
0.046752123273395174
0.06403446421614346
-0.009069724860022816
-0.10259121782285885
-0.25532376871985546
-0.2004728608676496
-0.1764832574521547
-0.08948704329911103
-0.02327020010666861
-0.0793664854580947
-0.042656872043795035
-0.14044019528434526
-0.09195760932364523
-0.16392565456627692
-0.17032286580222775
-0.07622201885361408
-0.01912477386147754
-0.001581985876857823
-0.02772826529612057
0.047974591012095995
0.012252174187044964
0.03302067813986898
0.0130906191480498
0.021209184118132433
-0.13753514184095406
-0.09480721772058255
-0.027281700267491483
0.014631925247503723
0.034665127082652215
0.0774297362718465
-0.020076437384907247
-0.0852048717802915
-0.15988951497184478
-0.04238775353960942
-0.12325129820171904
0.024772657134419937
0.01978069430874923
0.024892305615725238
-0.05994642473159706
-0.07857930614359476
-0.03581520033927259
-0.141186682360171
-0.06457163961047196
-0.0913766121975744
0.014043301877737769
0.027796120131820545
-0.009194539835652556
-0.010873335676719564
0.07855569403625984
0.10456376418790271
0.021264743631214406
0.04832947799934913
0.0676505443611088
-0.013999320526324285
0.07041965242521142
-0.031241497208724225
-0.02144184980491343
0.024962715290722835
-0.05945145639552116
-0.14319252426453577
-0.06773301117861918
-0.058325112570728796
0.00907313647579862
-0.04577073604463016
0.012585799853149775
-0.03515885087590649
-0.06341454442182333
-0.0775682078193142
-0.02824235513917958
-0.11377765070926056
-0.10474538406114393
-0.038178081321175006
-0.001578034589362361
0.05333859212386082
0.037916945304110494
-0.05418735195447036
-0.017879051990840836
0.038973462035652905
0.002192279812429814
0.03798865370837506
0.10788284766367562
-0.033140450951362914
-0.014239310052234142
-0.011325067636180968
-0.051408798883927985
-0.0841163792507254
-0.13243150457863595
-0.11175765990478417
-0.04382631213650394
-0.07692326352356828
-0.021158571232430607
0.0626667014995392
0.04386526639650317
-0.023195384353038244
-0.0818510214671785
-0.17352432178764457
-0.11401022955553315
-0.055176462321951794
-0.002763467660729426
-0.017229614174815933
0.09301809300601471
0.004345679869147231
-0.03034583082996544
0.012249653452016828
-0.0360709310313663
-0.03781547549951919
0.09046477443414488
0.10594818067613482
0.06527398899991678
0.07894367690730165
-0.020451768537931406
-0.08871724114862616
-0.08306407468218764
-0.14431430107761298
-0.15597070276431338
-0.08365411044375279
-0.08256894144306894
-0.04966816852527276
-0.003354413725645393
-0.008358746027071203
-0.06348273533820027
-0.045179488223573455
-0.1304130248764695
-0.1735099245803613
-0.09087728926730954
-0.056695445693514354
-0.05982315208075161
0.048660966815403245
0.05533797747953003
0.06865853732172872
0.03782586173069547
0.032195706251866206
-0.044391413088805294
2.057674737601339E-5
0.06602711596012843
0.13966064886212962
0.11412453330109562
0.0818537003825809
0.054708314692457786
-0.01344853404298173
-0.09252499753667683
-0.1489250746801189
-0.10686502095858702
-0.05373839953449754
-0.03960331586434446
-7.983259901662563E-4
0.039658107441355735
0.037025956872156006
-0.05169703134754289
-0.04761795962328505
-0.07744265846910722
-0.11522817611340905
-0.08459275843981146
0.006344913736627406
-0.0074548031826224565
0.029831415838094125
0.05701358432907839
0.03279268638338215
-0.027775910486123066
-0.06858225428672697
-0.01798482971755135
0.016545876839249216
0.05945333725445966
0.1846392294558998
0.04510026685823848
0.05550754144939252
0.0610769800233249
0.046577942313485755
0.0128445513169237
0.0389152123448001
0.05593021265692949
0.03483757167120226
0.1487571465603042
0.055295333033568185
0.07269107019299025
0.04274758188231929
0.0016858798324990367
-0.012340548219723078
-2.2362840216846416E-4
-0.11656302921188716
0.024395159533733588
0.0652061464257933
0.11571703666203145
0.02687840520219256
0.08949264558038535
0.04718438137766133
0.06641853399790863
-0.02402216830356395
0.0017765246056630354
0.012584841622402327
0.03904608207973935
0.14630863090396612
0.11299303015129027
0.10201626105966487
0.0644148033092298
0.04485897251319236
0.18409231588507008
0.10518029923299549
0.15097918673515515
0.12603223459470303
0.16703447147073477
0.07148389154222103
0.01638526103428373
0.08226656290050799
-0.02066730566520208
-0.01662319240676861
0.06981024558683077
0.07864623732743634
0.04451882310356709
0.02786518004361283
0.1163116160049617
0.04156728436045846
-0.011539295583102578
0.006763166066254277
0.0035397268207156885
0.011579799007905489
0.04032203751592309
-0.0068065929598907044
0.008870042795272946
0.13483402977493963
0.06346336602768532
0.08547999146948249
0.08382310929724071
0.0018279678552320436
0.09457657256309702
0.08311770850707749
0.11679725541725809
0.13852482307347277
0.12993662062076683
0.11921145020954274
0.006627209798779073
0.01234047897268394
0.008781284918847389
0.02153480120095929
-0.010480464188506263
0.029582700713939054
0.0020892772465798443
0.05989376376217215
0.05728516221097398
0.0609079857735631
0.052923249753539486
-0.008580947573178664
-0.035363427464046804
0.016309169816922032
0.03567034192990719
-0.043799291955483544
0.03193771084976675
0.10705489986780023
0.11058520395748839
0.07611477407003961
-0.012396269535217013
0.024598261863234886
0.08973380804409714
0.05639448719113437
0.03578606341602122
0.03867991586509322
0.002198384340041767
-0.0022767241015270437
-0.02200028635796061
0.010868366994236978
0.03156206114052071
0.02017972772564747
0.001985767503919279
-0.04010482170991476
-0.0177694596063535
0.06435783582656289
0.07068285893565486
0.001671379411422738
-0.0058684442394158825
0.013090521167357528
0.06594146117699683
-0.014743219485173965
-0.020374324296439306
-0.02865313268596931
-0.025098227837368998
0.057321719800077144
0.04334401717344795
0.054247663406022176
0.034702883808878905
-0.028355441688181725
-0.005251374089972774
0.06896106016068296
0.034413115003685386
0.05436573747935689
0.034556760519028645
-0.05705167857325125
-0.08374023163484108
-0.017398559026550478
1.988363810054303E-4
-0.05640264695549818
-0.028042414039672336
-0.03808217790338641
-0.046494367357088506
0.07716240980967332
0.01790375777766191
-0.022597607520176744
-0.011815766465003564
-0.0048886202252019844
0.021406441164465807
-0.001598301152410443
0.02651199505632768
0.014152434610926957
0.06333621482465263
0.0424335024817651
0.10757788146994282
0.07634741543776744
0.09509772513762002
0.039960313372112005
0.040562996758328515
-0.005139173405985128
0.05896055588087252
0.046280700575912666
0.07890271516456554
0.06553921565904401
0.05056994399254647
0.01859012784136746
-0.046344385071572125
-0.007955974402888857
-0.08134583335394066
-0.13855364124440317
-0.05698397955471102
-0.074616023910685
-0.021121612828092096
0.013851074352131669
-0.02485117294823942
0.011041758043647897
-0.008154961187705779
0.009022086269009882
-0.02620476529674948
-0.03588244488339464
-0.015665102036815842
-0.027841370117280394
0.0648299127667368
0.01884189429841314
0.003659543824654009
0.10597205186261681
0.12090870238691363
0.10169964665687825
0.07928132766767869
0.14956188896072484
0.08187399800401954
0.07591762059994109
0.07096839293045928
0.003693510714878409
-0.017986657942739605
0.015332529775417571
-0.06476389453200422
-0.03728285420998806
-0.07781253711254642
-0.020907931643510354
-0.047843556356181455
-0.034008657748358775
0.01764123784286489
0.03993164748316052
-0.004561131745990748
0.014679542047547765
0.03948813837045178
0.024410861313781642
-0.036778758120959605
-0.03776868182425
-0.017858390248228873
0.034005144077163
0.029199049653162418
0.01464898892686278
0.03599460803853815
0.0735471962377519
-0.03272822309489284
0.03228030351091449
0.0074637608533162265
-0.026685550713123087
-0.02260262985728522
0.042603037727363104
0.055696509769996946
0.030577730559205166
-0.0040319454696048865
0.020321378290604875
-0.06698442846955499
-0.05785661899808568
0.03162868591210175
0.02729748856370703
-0.02762506113866066
0.022451821388149672
0.01121083978879907
0.04849550958962823
-0.04584281252715443
0.037527441713047546
-0.014329755408132614
0.03254263057801602
0.0017226195388411944
0.032480492121761795
-0.009627253445074294
-0.025132027553665334
0.023227376871034745
0.01864365860691041
-0.03788300742103792
-0.02146632689811052
0.012546872480805701
-0.0038730740184782083
-0.06266809278844572
-0.0025722112002149263
0.006592142102268142
0.011612200165660053
-0.06042901052647808
-0.08531561003760627
-0.045847431356761816
-0.060564477992451106
-0.06197660199802441
2.642333240273981E-4
-0.02075533023594261
-7.408924857817058E-4
0.02294727839486178
-0.21849779696148103
-0.040962400342354155
-0.015123398715699529
0.058688151623207736
0.03427122643980365
-0.002465494756321226
-0.005532130568928859
0.0354812837551131
-0.030183250890157106
-0.04093917586381641
0.016502249937339047
0.028796529509406827
0.003464367733669447
0.054292657899616265
-0.02567865455251024
-0.008792037327537867
-0.04476191631061385
-0.005197346288144224
-0.016671032316712856
-0.04403800727513125
-0.026755459947488052
-0.022799475073180163
0.036031191049310365
-0.06898779961963802
-0.015424536814647683
0.02265097066996141
-0.012333864578281431
-0.012128705473541768
0.0017060099402975673
0.005359250797824352
-0.02648224300389559
-0.03939019543190832
-0.01741482032611356
0.0384600244756027
0.03445074550454551
0.01123890448562603
-0.009903174443128908
-0.012129765328389613
0.010289334930308891
-0.03460556942702143
0.01177974766967111
0.009451991394849084
0.027786722342953617
-0.028690033010838417
-0.03877050852533307
-0.03252706876478935
-0.0595523402012935
-0.0010689258169201109
-0.03295598395661382
0.0016873317082574378
-0.016886208945465553
-0.033071546135071725
-0.0037267030591730363
0.0127879244640494
-0.03507647705439943
-0.045895232423664674
-0.06568317081692632
-0.003364662957838129
-0.028325723197223828
-0.02935557507454181
0.04161031150648439
0.0010085587789476283
0.01889830687585408
0.04366646109625855
-8.569102992577229E-4
0.039991968327215466
0.04973113665546326
0.0687454369780959
0.03098893035904801
-0.013074670135107899
0.027264200563766713
-0.018024382987101035
0.021806540956624917
0.03517704418455368
0.050488352620347295
-0.02155400507483087
-0.03793189387496874
-0.004889172195159726
-0.01925612296291272
0.01896973569014205
-0.0019856075769295
0.01865841123337394
-0.05868697145640032
-0.006557667356393272
-0.03478884718918682
-0.04301777142169447
-0.03339768376939018
0.024629554388638595
0.004239838853763826
-0.027102396289334304
0.06501278640218763
0.03445546557229885
-0.019534654241497088
-0.0061477219454342995
0.034707316118844554
0.010167167976442926
0.03662912459121223
0.061097450995106564
0.0532747945963966
0.06614628117808456
-0.02330269889050132
0.02113007977375101
0.024337105636049943
0.012152238662666215
-0.0704842648775958
-0.025108427464899854
-0.08296684437553095
-0.02392970115368716
-0.03344787998417916
-0.04957512346410112
-0.03138179559194089
0.022588645346888273
0.013492114900430795
0.05516784201069487
-0.02430628281516959
0.019022663724520557
-0.0016951133790755035
-0.02573960967170904
0.014426481085914019
0.05988730561021189
0.07075575919742118
-0.030783714497150554
0.06655063282768008
0.003892356592082317
0.02108826916882331
0.012302438378831224
-0.03235682167454162
-0.10196920553148187
-0.05590996778857876
-0.05853522949164682
-0.12344649435789858
-0.1032746259776063
-0.035229548075382415
-0.022701557349557592
-0.09117647515829594
-0.022358130893673108
-0.07404937202906425
-0.054124020328734215
-0.08457959119724708
-0.06772158488393072
-0.018039228218378126
-0.017924625873236698
-2.0770056000856196E-4
-0.0133066557089892
0.047340738973790764
0.016192276855373954
0.04574506182550125
0.03132602874742031
0.01675801839968547
0.048002531626773356
0.05404840112319374
0.009919290369396672
-0.06282435786677379
-0.040389966105408556
-0.06988911771110004
0.00958864184212536
-0.01884868085246481
-0.03305012270717415
-0.06512237319363247
-0.027425887920211278
-0.06812080181960734
-0.0292852903669437
-0.08195346599719164
-0.08968460420520748
-0.05157806489125609
-0.08289436177520168
-0.03311659702015994
-0.06097638852291918
-0.0383098477963294
0.048357050362554506
0.0018733074083159263
0.0011524597706393158
0.05269324793397339
0.030682435029552778
-0.022281225408666127
0.10722461913386246
-0.007904775048085089
0.01882984782648996
0.02123334495632772
-0.03420066710405686
-0.07637831115865394
-0.053649509180618324
-0.03394320427902992
-0.07885208418193662
-0.01583205626068075
-0.02492197677199947
-0.03588183984951196
-0.050048779473856476
-0.06187369687870603
-0.0545001442804483
-0.03182052320581268
-0.05082980642829452
-0.14914221773984934
-0.10833260520075699
-0.025908992093362747
-0.03639538635423942
-0.06730808397810777
-0.04092275786044062
-0.008431326624126313
0.04158902601600034
0.066539530733945
0.05640700977856009
0.08393109042550868
0.0782247636609696
0.014079052925417794
-0.07370382509612997
-0.026956080001197393
0.030051754260697165
0.0040087919965747796
-0.06492919510117204
-0.05614828233911679
-0.0013988543201604983
-0.008047928006604036
0.003193115554169939
-0.07489103704102627
-0.027728321134443634
-0.025297828072757263
-0.05067808127570169
-0.07562277773188057
-0.08575450810367254
-0.11583230568285671
-0.16752804210546207
-0.05717589603225384
-0.030498388512291533
0.00281711969295752
-0.00641497258908708
0.042432210523218786
0.05666440717927862
-0.009719243576929416
0.10432221664145953
0.05283306890239039
0.043010687784125555
-0.04469862978331472
-0.020329278171377287
0.02633090522451025
0.07511128449651984
0.056266768331282656
-0.011842376774470585
0.036719028824020644
0.11797280471991443
0.07032858709704852
-0.01394910657045736
0.08410499466383117
-0.07395849318976483
-0.07238235646702325
-0.09160834136061781
-0.11894565822957867
-0.055532103027790304
-0.18571379713190186
-0.18776081777175938
-0.09605842722669582
0.009291715424996804
-0.06268939556633851
0.07544175608760684
0.04296149166070821
0.03530328536539811
0.025746939433163838
0.07958018125330416
0.06571408984398713
-0.04084949905460952
-0.04150466673857946
-0.03583636149248616
0.05198176270771771
-0.022885114235013146
0.02465084130841501
0.037444501432488723
-7.251863681301881E-4
0.07773568403931344
0.06341207002620448
0.06466381158194633
0.022873633201263788
-0.05204523551412528
-0.10353324746517123
-0.17150296324950776
-0.15735809077944185
-0.10777272042696395
-0.19680841012233313
-0.22479356986311083
-0.16049591711090652
-0.07529255224626615
-0.02179243540419267
0.07975043808389937
0.03107206461810014
-0.001123561962681807
-0.0017453122851855147
0.025323665245351453
0.018245419024085056
-0.027720077657056228
0.001267448986402287
-0.05066522251036539
-0.07028028461768586
0.014382928180989565
-0.08293088540475087
-0.0315903055434281
-0.04757855345438921
0.09680447523763645
0.0700658912884419
0.050288981714132944
-0.014010477350183381
-0.11250609384684261
-0.16685935155799017
-0.09392080783070314
-0.07615289302220743
-0.1101182503325871
-0.1764911080743807
-0.09187278081821922
-0.06564912460402836
-0.027010679661179624
0.01682225927277956
0.03231082802476931
0.030972283753374116
0.040014764959600296
0.05818764133820439
0.0026589529708199097
-0.07404237780563044
-0.08904774706400849
-0.04124144571010297
-0.129623159162471
-0.08245183223915456
-0.06253572819571453
-0.08647355248571972
-0.13207620742641707
-0.12041664139117499
-0.08839272799594178
-0.05976089250213558
-0.004870896151319682
-0.06239449928797473
-0.1700314062317417
-0.11954171307644916
-0.14819884589552543
-0.09334726741095231
-0.07460148629891679
-0.03839090291171524
-0.09291722786527544
-0.090421770943432
-0.04366416557608506
-0.03521699915735193
0.0644962041192936
0.06454492325316159
0.07806932456722768
0.05569946073135953
-0.03514393470526328
-0.0773862909559316
-0.20630897189295508
-0.10984561640112138
-0.17367396536221055
-0.11317255481121283
-0.07430979104467084
-0.07590674803221985
-0.11820039403532831
-0.12192353096569447
-0.05361939248626533
-0.03250685415546689
0.03817889729415418
-0.053986950063747194
-0.08512495849625538
-0.16724487579965366
-0.09651099748532666
-0.08120251987753692
0.01990479606285232
-0.05141697283037382
0.03694498379178615
0.0237618243747897
-0.04889270937080163
-0.0052098680553731205
0.009155117356103235
0.04755379422334521
0.038677720196196606
-0.021767244081093876
-0.07536948276548251
-0.08033451522886696
-0.1999222029293451
-0.11005306750319942
-0.13647122404733486
-0.07280184481059941
-0.06990063490784618
0.021327178689435133
-0.040257268966660785
-0.04964538913431755
0.06696169839132197
0.0047113719947145
0.03368098514154151
-0.025067034644375367
-0.010599754780654355
-0.10330706200865836
-0.05977638892151502
0.049685561601369985
-0.04772862623492573
0.0609280792247316
0.10198403167101526
0.036295138507373474
-0.00880234782703396
0.04049653166010594
0.07117203557461405
0.01295019455160138
0.02895268623304588
0.0029891223486317254
0.004287592375696875
-0.06153873542711534
-0.13236491119962077
-0.08893821125657426
-0.08687883565989528
-0.018163455359268253
3.056590915895422E-4
0.06236297309851878
0.01483196899972143
-0.04099708791937642
0.09041507704948874
0.06640057331382604
0.003598167847231692
-0.014395645799038142
-0.005901169007465045
-0.01368750891553272
0.05289760972771849
0.022161266757661287
0.07618567179719292
0.08265373231049024
0.07207308656872037
0.04645042023136496
-0.016672928962525105
-0.01126840427785011
-0.010613956484906257
0.074844865723641
0.035790327822414245
0.02168707638513746
-0.029950475155377944
-0.0178153609167452
-0.02051777425961253
-0.03209675253116713
0.0069913018703579004
-0.002306060501653355
0.05653833920333787
0.05032505623297499
0.022738908750619187
0.05888754812258973
0.07559762427821089
0.11543452018145971
-0.01646173888369731
-0.08330928052532206
-0.04662117826009633
0.015686152517685497
0.0034087496101900664
0.14466529155360056
0.023781204966929606
0.0035128300212429113
0.1305194097593936
0.018124835149031713
-0.0011370538655106357
-0.059857435535383544
-0.04792217018997971
-0.07210486730096564
-0.041725695651583045
-0.05915849148373884
-0.05084578635989933
-0.061479672835934925
9.615968465132043E-5
-0.04261444723773364
-0.02775657122524696
0.10690294782667766
0.12347882177965455
0.11070309915447711
0.011359007984145464
0.05596151527408858
0.13517996503125757
-0.023933593777621862
-0.011512598866803048
-0.004241136954406169
-0.026491862662875138
0.04310601702170531
0.03364580085039948
0.09759137894095951
0.0605104466100161
0.04016311719140442
0.1430129376054928
0.1665873003428213
0.03146883266930651
0.07258745658892601
-0.035432773484890136
-0.06282143914106228
-0.017372533913635264
-0.05429203889402713
0.03362340928976645
-0.0025607569067208173
0.03735668269766433
-0.059154235728699246
-0.029053739774072333
-0.020117218069039336
0.051918846906038506
-0.0023972007268543965
0.06525918392458237
0.0495903056698615
0.10680201146091388
0.008405938269439377
-0.057880440141339466
-0.05500646070706718
-0.025349814354711387
0.029051606167134047
-0.0014571332261330832
0.07646121247579885
0.09889049829219589
0.027986425641313383
0.1240685939048366
0.14170957357963743
0.005449035686002362
0.0447152192154738
0.025315541176554032
0.00607761471392515
-0.042284877373924334
0.027840974429238757
0.06515353869848645
0.014249731364903252
-0.04353371447549823
-0.015032886203399595
0.006560649310538227
0.0016991840280406415
0.02983540936282973
0.06265910904465208
0.08867913964001678
0.14612743685109666
0.04320301778489464
-0.035563546815975615
0.04078346258458122
-0.04800753338877377
-0.0571849636115499
-0.05234200119678144
-0.047596762913881104
0.05069432662326838
0.12444965213870576
0.12168980693087345
0.07357016983050678
0.06079671992111106
0.023997873534428886
0.01690521096572775
-0.08046108637104844
2.2919339228273422E-4
-0.006607821234338153
0.0446452673862555
0.03112831232024475
-0.03377060031759364
-0.04968230163182375
-0.02225053280908888
-0.02166633511228068
0.0359297654146862
0.07751308852802566
0.07074054812750934
0.09952963866357367
0.11510739234693074
0.045648675280200494
0.011004278191436942
0.016237714033667423
0.020176047493494425
-0.04061078627396766
0.022425661225246567
-0.02472367950285446
-0.0028044078358420168
0.10884141039895089
0.05219113359225952
0.05550450931538914
0.020293162805004407
0.018045846108725366
0.034548176293967
-0.0505421524838259
0.008705150517143281
0.024233998873719208
0.007197187856343477
0.09326755374104725
0.06700992584172376
-0.002456260677281029
-0.08342023588316795
0.010933478250035463
0.018056413248287606
0.06936563028004038
0.1466496080509069
0.13127919273367458
0.03784257210922899
0.02158827481277278
0.058285950001007836
0.09016081555911094
0.010112275882645511
0.1286692188889675
0.09851554610778084
0.06585731493782578
0.07026596665846731
0.030905746992433814
0.036152566302288754
0.07770829473189392
0.01856145883257145
0.024113875024005083
-0.010495231977300451
-0.030277342900370423
0.02438036460158777
-0.002996422433049778
0.005058382780657751
-0.004882353552827665
0.005620755880663365
0.0025419984088417506
0.02276547120147184
-0.031450170571927075
0.00814874699397509
0.06123991442319352
0.048642281338877755
0.02813602524478681
0.0096767720233695
0.124590973877556
0.04048211123804511
0.09839641175967517
0.02949117686807189
0.12083071187654358
0.1468980402148821
0.052206476374198015
0.06270991010843786
0.07690459345272944
0.07669225297172322
0.02293256022728714
0.08918411516393701
0.01812610397938548
0.01234954579826613
-0.03571081688107661
-8.971642971687863E-4
-0.006630553400758645
-0.02155479841062541
0.03826481186979793
0.11582639433169226
0.040442358945398216
0.008853072264813354
0.03588693831117589
0.0034811618405423254
0.03797118334583302
-0.06537775169961517
-0.07655173944733103
-0.036001565984538235
0.014619376791196959
-0.040736746879130065
0.01586758568192364
0.049496240912283586
0.05995178917366056
0.047739184526978375
0.09941142012724853
0.0039629859886852
0.06171387235099096
0.006112378676396336
0.008764995840500734
0.08699351063150532
-0.002113819086243977
0.016394832628020547
-0.022151520936995992
-0.0550643062684419
-0.03959421374574361
0.011759724270071846
-0.015138012734718485
0.06401707044854898
0.03327082784599755
-0.049311675257062475
0.0017651813519042972
-0.0020522531328883526
0.001310289988908794
-0.0730016951074556
-0.06187246230061763
-0.017540087617995793
-0.06875049552005916
-0.0211797635796275
-0.061129261513215495
-0.04805040743700353
-0.013889874952460114
0.0032614066252742283
-0.019998334645022327
-0.0743891771548079
0.0013795436166607429
-0.0020634205969480963
0.0015033504462751634
0.021035616315772877
0.058688806518255386
0.015410451086711218
-0.005603099424438174
0.047737059571125375
-0.02178751970656743
-0.021558707055379604
0.041584814113175106
-0.04402349391904407
0.02112744755974488
-0.0014576150347693476
-0.11443348091195962
-0.07521622624107911
-0.024503424909629076
-0.005878480606119613
-0.05344632992843978
0.039821002060712804
-8.159588651043455E-4
-0.006408356076474891
0.028795585653422006
-0.05553296805887908
-0.003115248536976427
-0.11005734086694899
-0.07166939868890064
-0.048618821733698074
-0.005641220684735277
-0.03435142335065029
0.03184413944003611
-0.02308580681074341
0.05226231151224141
-0.04050539493728263
0.006269447202565047
-0.059100648190377955
0.030965061251124675
0.031030686847558043
-0.056010610144798134
-0.0511724288096947
0.017316615136121302
-0.06366668609864802
-2.5995085612935014E-4
-0.012831280870287875
-0.056529186510348675
-0.06153693798482864
-0.011479027088339203
-5.551597400473276E-4
-0.056045389347204405
-0.05917483093505109
-0.08893087514646525
-0.10286708798592663
-0.06798850844286004
-0.11360122200042073
-0.0774581043607305
-0.008561336764770246
-0.011695359652690009
0.016722185833149897
0.02159271489279812
0.002653939843538096
-0.012784455621631947
0.047343038257401646
-0.016435037073750606
0.003146513897716311
-0.008229377347184123
0.01766981907934745
-0.028918637953117107
-0.009773778779613265
-0.018078436219049903
-0.046323068777707935
0.012516284036247282
-0.07066811860917076
-0.025776951284560753
-0.015706273313187406
-0.03039426715486742
-0.08702829803757729
-0.009290854265294623
-0.06341918831805629
-0.006647081928007941
3.8793087334932334E-4
0.002611261738570374
-0.06384374648771633
-0.036523109226708324
-0.00675117856449593
-0.05666867830235533
-0.0064340518284363565
-0.042872771574041374
0.03842722346299882
0.03062813484716236
-0.04141094490057247
-0.05599249354151474
-0.02933083176268985
0.012123850579637071
0.029418528788717455
0.04778634707331932
0.04394836859979601
-0.03167782142387047
0.04336447136786462
0.029329285988462447
-0.044307590584328836
0.007364128950272732
0.03509427452556499
0.01846304248967283
-0.0124597834388459
-0.04366092352680272
0.006190689879159594
-0.04771537429697084
-0.05356416527805325
5.887607994111556E-4
0.02609199523323691
-0.052274541138555605
0.004580776171927744
0.03599139095989074
-0.046893122512975415
0.019955869210979242
0.012309688817324855
5.037962172417414E-6
0.03425638787109622
-0.038111484922672856
-0.037041284212174515
0.049950802403896
-0.03322661518335224
0.012040091649819248
0.04513517675093487
-0.006969101346196152
0.044595300941009434
-0.041780908258785984
0.01670083599976497
0.04113320738122035
-0.0020940909036678223
0.0031987801725477075
0.004460309173806055
0.004679752630153834
-0.0038915419353441785
0.03662088849056615
0.0359616380490972
-0.03304454227475495
0.04541582525476501
-0.005031753748597485
-0.04121924595856375
-0.009263676886027986
0.016074771652219107
0.03966089604604963
0.03550206017854918
-0.020888729578179152
0.044227337443713176
0.04328543346815154
-5.615349737170258E-4
-0.025084140140147485
0.005488919554520652
-0.05263053363267198
-0.03891073041813513
0.025404531659064963
0.04952864372360483
0.017864641382846234
-0.0038303368528041335
-0.026233568873485647
-0.013087337338406837
-0.015125764114943858
0.05173746399279782
-5.241562401039319E-4
0.050499871631322676
-0.01956402235446337
-0.051094939684854256
-0.029656076414943798
-0.028985360606853815
-0.06941510049287863
0.035390862066982325
-0.03350701057505683
0.010068059915456229
0.03909870447544062
0.016329874720672995
0.011159402801147964
-0.01268342895499255
0.039836382919514156
-0.02088642318605773
0.0465297990878004
-0.012410749976560198
0.03361440501137462
-0.04112828987941471
-0.037030762880366164
0.01553987165258597
0.05072997805495399
0.028266666574447038
-0.0071837535115709065
0.06133927618096122
-0.0041734228793916936
-0.011469388237600112
-0.03457790684642251
-0.020292569269130502
-0.013492051937007681
-0.0014073581104754114
0.06461566129931696
0.028367147695034563
0.06788119641295087
0.004582261186131053
-0.046625747524812106
0.01310622332412165
0.05222209989159253
0.013903365858338033
0.04293981340678485
0.022387166648102703
-0.020724482029443235
0.05404241257985997
-0.038536937816089856
-0.03345726035885858
0.04791560472470416
-0.001414732322745238
0.012237385844346364
-0.017888860009920533
0.02523593656686831
0.026008493890589002
-0.005568446694489186
0.0048297186107499656
0.035901012476348124
0.007762582267991584
0.08716463390967895
0.10824172631650708
0.08426255725610808
0.020164963690966486
0.012364130271769018
0.06591831544469742
0.0973575803243423
0.03225871633184026
0.06158113115712512
0.04749673424951899
-0.03796154057344665
0.05049938584656646
0.01800051241233093
0.028242673209250432
0.010164971845063951
-0.05141879310381116
-0.027244857508665083
-0.02133192688374776
-0.021014524984964655
0.007231589962232718
-0.044001727745477136
-0.015803124212579227
0.003329232751083313
-0.004320677668759383
0.02046500876658843
0.045871863834468805
0.03622992721596998
0.015434895162044096
0.03348145473049372
0.04469750228409201
-0.014418758806796562
0.0219266133852389
-0.012861728646521043
-0.05078667966514297
-0.05608689158036317
-0.023130553616250306
0.02349191305733063
-0.02778345448573367
0.018375790916996725
0.022382548547668704
0.04911448423690906
0.03028263366440915
-5.027907964888576E-4
0.040099002088463745
0.015459987625216798
-0.024277536412330603
0.009069527599460763
-0.022687069780477468
0.014140819654208985
0.004452026490886731
0.028983205415520935
0.019490690332158
0.026851418079823223
0.03762216204662334
0.021946077281117356
0.02355839366762686
0.0024199795521847164
-0.03339690999293276
-0.07164940985427032
-0.03291769063067862
-0.07251802177307638
-0.037277299566736796
-0.05852287992509784
-0.005217254892249567
-0.08364352866034323
-0.036984113220717214
0.06486362003832513
0.07636340237947148
0.061617478612377985
0.018934068339322447
-0.02886100778859164
0.024011129176706298
-0.01625110274335499
0.05036072613438058
-0.034792055233202654
0.019429607600982182
0.05946095030613689
0.048623689308357435
0.061420172179652274
-0.00957225385414869
0.0459024217613168
0.025425476629185834
-0.027630632698557766
0.05789384139855454
-0.019521836471790312
0.08822684235228899
0.003463726158149555
-0.05169684166209999
-0.10990093448314799
-0.0896550007665919
-0.11835618359022439
-0.1077702369170144
-0.05189484552158215
-0.06036875448498839
-0.01708015614612855
0.0823387598827876
0.10916669433519237
0.08072871949975526
0.010112180361382499
-0.008913902217869633
-0.0550330891059721
-0.032078783118232576
0.004615380553433147
-0.034886035305349665
-0.04575152649676333
-0.04192075133318798
0.06725056495653335
0.03428519289221256
-0.0022454090514619877
-0.041323067190139944
-0.06330152283818145
0.007582646302716176
0.12175173136082244
0.08965074807142234
0.12039636481303383
0.015197669520691213
-0.14025083792740842
-0.16984860188219653
-0.16280697124393456
-0.15284345219790052
-0.11827751919536328
-0.029992106118640907
-0.02149650199497313
0.12965146403552186
0.13462101229078427
0.014828348613157218
-0.00716876638831764
0.02392597282576058
0.02150901097898236
0.01730362164999695
0.004310799473372345
-0.05946793146337885
-0.056017634806680205
0.017511529107269903
-0.042151628914489585
-0.0015592719167443828
0.009336911553895287
-0.0505650607219967
0.01718619406847656
0.08228019893649473
0.177639412392743
0.12496283563036376
0.05856129848692744
0.018497594529357043
-0.14460207230357364
-0.1380580836194892
-0.20229364971350436
-0.15672852934161172
-0.014235648746191357
-0.06756163404009707
0.0433989795652044
0.14054443289877885
0.19614935658332108
0.05083782720002628
0.014518225576935676
0.013560648005601927
-0.0511937247743617
-0.030562937274644986
-0.024725649084848457
-0.08660489496993229
-0.015734847986309027
-0.03934803208104233
0.004582572964184447
0.0806180476766292
0.008171338524838678
4.412244932908693E-4
0.07019005671333525
0.10378318185756435
0.164881592855529
0.17456388131756054
0.014315399247102857
-0.09862715812940999
-0.236021592101594
-0.19040227691673836
-0.14478157714305526
-0.0903734523384644
-0.028165603760417598
-0.018159825296048225
0.07952171269018472
0.23228511024580512
0.1939418187704859
0.10031514545881039
0.023138412043161055
0.019701230134079265
0.02776589787635681
-0.042251140620038236
6.93075874984708E-4
0.0021247099804856374
-0.017855039356351667
0.032187889904827544
-0.006938778796723233
-0.012050191694085518
0.05905351423607173
0.03586467798638703
0.06734806538495876
0.11525182527625352
0.23009313534210596
0.24342557561375414
0.08908971217396937
-0.05119309065856888
-0.2129979643833347
-0.1988197133200869
-0.21225699206326357
-0.19582190994973678
-0.16352460766408428
-0.04627484886089421
0.04168864310223333
0.12946173843471448
0.1714475964241163
0.05392179037303665
0.02780092326983108
0.017811776385358455
-0.04033198897618457
-0.014138653383300621
-0.06371923289924594
-0.04015010958070489
-0.015878148109943365
0.030839818227322405
-0.03428896933129961
-0.002543650017454281
0.03110522680595696
0.011759684867672971
0.009845755028837224
0.14910547397201587
0.3006029416653475
0.25996139779138455
0.13610114850943805
-0.06005087048124466
-0.1471372299201402
-0.12409470026617106
-0.14651612791188856
-0.10993835674461722
-0.18532147093238233
-0.16708131569227905
0.008867787587864938
0.07076980159138627
0.1361697905381626
0.10457167168376698
-0.008078566882823747
-0.014940543310859367
-0.08048116655265534
-0.01964467531551471
-0.019023133243853477
-0.060556977457383726
-0.06859481514452695
-0.01622125768145459
0.013750268139642514
0.047273709084248265
0.014156438661376036
-0.04706952673853651
0.006469124071331118
0.2145707177494271
0.2952459266747682
0.3186569953549947
0.10477167272659813
-0.04758034018357485
-0.06836965054226596
-0.10015685378121783
-0.09015088533710136
-0.0800524411115104
-0.10811751882211895
-0.20188638837981304
-0.07241080075899815
0.011935357967976068
0.06899879087180333
-0.0020229384044938674
0.02164691931705685
-0.02072017837513617
-0.048246580455070465
0.01753990058840156
-0.05887573743138921
-0.10668125032915368
-0.057737775015662754
-0.03519872028895109
-0.0453763432842238
-0.01244976505023139
0.026929299525566917
0.04741879002754128
0.10940196696931834
0.16900093239101843
0.2329938070457924
0.14084490408347788
0.08428374616681544
0.0390123796217276
0.01656534012127404
0.011694134701934606
-0.024309377486260712
-0.038614788876314345
-0.11364870252546072
-0.10088604124037935
-0.1270682423127697
-0.04856120542584466
0.03690869508110965
0.0014469566225882853
0.0025294829901419814
0.012001468975134608
0.01649334347962194
-0.020742089855337622
0.015343222757165311
-0.0515419022382425
-0.13025243547278226
-0.11477784590210814
-0.05837411779528171
-0.01484350966757893
0.07362111709703974
0.0699227941840149
0.14783338023346304
0.161683104384988
0.19037578128825353
0.17606588965774297
0.029611518530493753
0.009976249530888211
-0.001901416127066795
-0.07649824857192501
-0.060851234316831086
-0.10254522907639385
-0.04899227855513944
-0.12027360192948083
-0.08517252080942841
-0.021490482128587472
0.04346626906536944
0.0424233237709423
-0.006605507156258261
0.013695275345210704
-0.021112137261472146
0.01740953687242536
0.03559746065299851
-0.08758273191426715
-0.11167472600972804
-0.10700170765698998
-0.16470898312372984
-0.08805381459278706
-0.017247547704029295
0.07854927989451262
0.1540578012398404
0.19153122968619868
0.2345941192029601
0.16231045124861412
0.063777115809183
0.014579144714917239
-0.04398207999807187
-0.1295723381920411
-0.07442218127397911
-0.08942671893721352
-0.06845532989650548
-0.029790578062163328
-0.02956653875617317
-0.002333045464456549
-0.01128857841510418
0.02034849863374769
-0.02756386623570961
0.05035270429640958
0.05186615467212668
0.06791167455574801
0.027869042275196643
-0.00799693572265186
-0.013444456053994304
-0.07465014649194543
-0.1412961893550528
-0.12841122217041256
-0.028908308918101575
0.05595504062896788
0.057953626475464946
0.16189929557205363
0.14239764564988114
0.03823312791494615
-0.015504985171848744
-0.0737242078547339
-0.10029421987094705
-0.0763762464570773
-0.07347729992620214
-0.14799315921690287
-0.08955687350157707
-0.027480183288505305
0.0058596186776406585
-0.031534972151047454
-0.03201941228384547
-0.06507736381482078
-0.061038259844856446
0.009635056474636212
0.04861904172139437
-0.0034644607458635965
-4.715278857864131E-4
0.010870655395664343
-0.042029667505093495
-0.04568444606427725
-0.0388017520814749
-0.14313287187580975
-0.07209452513840535
0.0240601623723386
0.007533701670633524
-0.0024506754163323105
0.0893647539097014
0.040485445675324645
-0.0010861771806314183
-0.028148439194781962
-0.043392067925264136
-0.06194938299088
-0.04670540766803208
-0.05546741089867255
0.021129697157059923
-0.018601111750827907
0.050630298125605315
-0.01525837085340788
-0.04602838029810847
-0.0714186506231868
-0.06134778716391043
0.06043957150305501
0.07704531899926122
0.012484899662157413
0.003993062606235002
0.008770141025115414
-0.014094146912553021
-0.05429632631214629
-0.07297712054211263
-0.048289946999090914
-0.018392090191328727
0.017837970061742335
-0.03361410759443024
0.0023580446209380975
-0.0051703094755820534
0.06853349070695326
0.10441782348170472
-0.0081046927236674
-0.02643831586852726
-0.05019832473725199
0.0058572431497821275
0.05452781238113839
-0.0034306664208948057
0.0823910429296477
0.07360917374621097
-0.0023264439978821494
-0.03305705937722906
-0.0699008620833831
-0.007123076383335034
0.012861159746695721
0.04968776526870609
0.057281192716286074
0.046392804182967505
-0.030878976444470435
0.04818553552143577
0.04745908709519706
-0.07013374874255067
0.0034336825152009097
-0.018851515144397285
-0.05483093710857158
-0.096309027446763
0.010806258312695086
-0.035132102747310566
0.10773276720832478
0.12763064687550985
0.07889785459799219
-2.2434408148967698E-4
-0.054254004720524024
0.07109895350334207
0.09555042056836553
0.06547977720223486
0.09735075179252223
0.04423508570535267
-0.038904578723470334
0.0011430556122528513
-0.05543004550997801
-0.06255710993004536
0.00867169823485758
0.059552303063019736
0.037203360900508006
0.06252266745404768
0.04257159916655958
-0.07605186558027906
-0.053544640879193854
-0.02999101560718585
-0.08579742224130146
-0.09175127009396714
-0.10513176127010658
-0.04836755407900724
-0.01636862791829904
0.07211204719888782
0.05098820796875102
0.06667317430280215
0.0012310584456833524
0.061806263731477004
0.07997217387797351
0.015487506033437768
0.050681804892283265
0.05325873729766822
0.062258983062392165
0.05553925304398669
-0.022552409780339622
0.014079833474217677
-0.02888172985084911
0.011188193706625802
-0.027113288103864968
0.04444124852599143
0.05893212744969496
0.10403341671840595
0.0038989198803561385
-0.010375045762497719
0.015344635122500493
-0.047629677677324914
-0.11732996117783165
-0.13984724216806152
-0.08858333986160813
-0.04070858407056874
-0.014532949420148246
0.02483665528510755
0.02977044742539697
0.1444778945349547
0.07563520460624976
0.004249877604387519
0.04195286168421263
0.01644215978044563
0.014178714051971396
0.08537724186798568
0.05971010999208466
0.014631444820330542
-0.03644165281010113
0.0191656105157177
-0.06604896241786595
-0.012963824151869799
0.028710555307182247
0.04755316998118609
0.02128459227785986
0.07849885816957908
-0.002475483913426288
-0.05583874036881598
-0.049016429007448466
-0.12295349950528439
-0.09833235746174196
-0.09245452680062005
-0.14993604483123837
-0.101859864794732
-0.016215719808589293
0.03239462708203296
0.051565032350101805
0.09419852534132443
0.10321163809080505
0.06495021697576835
0.03385767349037015
0.06541477474477227
0.05547388020782499
-0.026580290188859112
-0.03124423781976781
-0.013269577806934984
-0.04762525451536072
-0.032981921573857244
0.012375910704185684
-0.03752202471766946
0.04400185132526086
0.022562136805715616
0.06731542244509481
0.015430772571860653
0.07577677057903286
-0.033454515610781915
-0.012912345834549385
-0.05311135493637027
-0.05199822268981058
-0.06568042028282162
-0.05622824122993741
-0.01795141377498303
-0.059511776396957594
0.09353946978769775
0.0349963673686233
0.10847152556714813
0.14514737214500378
0.06466670502630152
0.07672838254272939
0.11213191223037393
0.00806249888670218
-0.0010421998564659014
-0.055125481590011134
-0.047838840620430326
-0.046846241577591236
-0.05246918144492583
-0.028031286488468057
-0.05519741601525044
-0.009319023206434086
-0.04617758490462671
0.041555211644138376
-0.027852236579044024
0.03469148787450584
0.03368152298669792
0.010995649058313873
0.020379631478632164
0.005939645359583908
0.07317824766858838
0.1256510982162086
0.0608151360863283
0.048268541763056894
0.13469452695468254
0.11311445110882358
0.12617893067268332
0.16113699039391122
0.07861720241399459
0.12229871516257894
0.1083616083107543
-0.010840531015074593
-0.04646429774864874
0.04670394274797272
0.035494034830626506
-0.009208389520297731
0.00707682256895724
0.026173840351029893
-0.014929019131971323
-0.03249442242925212
0.03211638651018626
0.017629770497635103
0.03489223269152257
0.028785181867673072
0.009525893267078563
-0.057612016962581586
-0.02805720067953808
-0.032725879250680025
-0.0014514488519967784
0.05748492009566569
0.06705590283121333
0.04809716544083741
-0.003803361243115785
0.021250226250621063
0.04714961717822293
0.1171952354289257
0.03216487163718184
0.05618118026688213
0.020254690627520725
0.04867588757519809
0.039084024333885234
-0.019432568375369667
0.05455341311643299
-0.0026764031551205275
-0.017502103819451224
0.03557174361031923
-0.005391147258067908
0.03257918386238763
-0.04520783776738119
-0.025309521465928554
0.04794110347609834
0.020876328973889566
0.0400362179581722
-0.060390030051924656
-0.009630563321966755
-0.06442921603726964
-0.03358377464431778
-0.013269283967335621
0.034187574955514985
-0.07531297927200745
-0.06219025837724125
-0.04136692865445899
-0.09093644685040493
0.007716414094502038
0.025069953303083023
-0.029110413412350905
-0.007273363892478932
0.05020973715079592
-0.03253058394229101
-0.007354148929001165
0.0464500153645987
3.387639927955626E-4
-0.03431460782947605
0.048696352962527084
-0.031819809180534
0.05015655455838499
0.040238708577437485
-0.03798440591372127
-0.02340929225150919
0.045946455555464914
0.006961396378173742
0.00488859481278178
0.04530774717054184
0.02566455438099442
0.022411523625348522
-0.06756353039297766
-0.07811682505775497
-0.07304973972491174
-0.022931200166041426
0.024970849836606558
-0.03329378430145187
-0.0010446141937879175
0.030868040306824718
0.0017905333109595515
0.01777054699586958
-0.028448677082638072
0.037499839955099694
-0.009883416584522062
0.0372151747861475
0.03980823117756488
0.03503557328058477
0.027573349149494823
-0.0024147805682067157
0.0388734586385368
-0.024044577125978073
0.00826967307761752
0.05102197463874637
-0.01736556277926715
0.05303454185712298
-0.04657953176590632
-0.008674276475448023
0.04379344420397508
0.003007830951570495
0.07097414066207737
0.04092729269054718
0.05578550009611697
0.07188908853817495
0.08304139240776154
0.04797409358231257
-0.029240909356150604
0.009558883220655264
0.06923008918621254
0.010198853407046286
0.03580202663528928
0.08459637022063426
0.032284113275814645
-0.024214481115334155
0.07208893698982187
0.02827888272310126
-0.008947702734389438
0.06161844103649559
0.010920402167964933
0.034896953381836966
0.0010745318182437042
0.006934187135578391
-0.0065427328844866765
-0.03014554213781298
-0.026379286140554518
-5.586608771438828E-4
-0.00976985530728005
-0.03562768924203786
0.04385392255935725
0.022867873475988572
0.039727976941134925
0.008319610261772997
0.07498297685813357
0.09338432831001653
0.04766814870194775
-0.00489395411848748
0.04254513324051443
-0.003262889474224224
0.06592391640816389
0.05756664430852834
0.07537679422026909
0.0735406206399088
0.06834550362406154
-0.01288697837130733
0.01962976050955652
0.03584804062726316
-6.563990493347973E-4
0.0486879797661624
-0.03324630111729898
0.020600809319171336
0.0014853734054351042
0.03870959099270487
-0.05731465305163354
0.006111080358093759
-0.012728587511252096
0.023084170124293688
0.07615586138738094
0.018921567376987733
0.06458771020951527
-0.01604121718416107
1.773805550260043E-4
0.017908808472865693
-0.039337231372379246
0.08039787601630191
0.01539884964700004
0.035522647149253996
0.03498138631231788
0.055776085654737705
0.03192169607903831
0.03687407634869537
0.05277990881843854
-0.011357483383456886
-0.00920411782284614
0.012756083817815672
0.030209438333004716
0.037325560953986744
