-0.0348090543887607
0.0030673384305926216
-0.01441930059052447
-0.014893666418873717
-0.011201763429897727
-0.03132517934169847
0.007449464533665768
0.0480699192045174
0.021674628901223132
-0.04944307301349006
-0.045411389298390066
0.011359914709389867
-0.0427079191820649
-0.01820576675824919
0.05109996375563056
0.03063776357200569
-0.049935120729732954
0.05032439116672195
0.015723588897205258
0.04056267813403917
0.025872945775063626
-0.018381167711172562
0.04300740614603596
-0.03640906131967197
-0.0364447933388027
-0.005831554985647112
-0.04577736815461815
-0.023457531384556918
-0.03455069700889961
0.04822618392880305
0.02886693796845778
0.04069313645601195
-0.038497140031333275
-0.03669527171034873
-0.014688590328119222
-0.017402791026322362
-0.00976795785619281
-0.009160935513146054
0.04381890066310297
0.023025296381181958
-0.03622107592174989
0.03134920596479855
-0.004509915455980751
-0.003686901139839703
-0.033071060225334035
-0.01812215004390465
0.024522175203933492
-0.031817784461717395
-0.0289876103310387
-0.03460997929025821
-0.005963169967589902
-0.005254069599932833
0.03611695791794526
-0.029045180211155715
-0.03883608077218909
-4.7487624134218213E-4
-0.017367066664217227
-0.025359729765193174
0.03649824307816945
-0.042353876256477366
0.035255045934475336
0.037292752144441534
-0.02972079587022491
-0.036445225198465936
0.011007151186594066
0.03847761788642765
0.02052842119564366
-0.020709164972936654
0.02107787353926111
-0.04890332770140896
-7.223160718147936E-4
-0.01963655820483445
-0.03515164939740179
0.023172439575447238
-0.008233869129330832
0.0362769967845219
0.04860988233515774
-0.04230541484372861
0.018816261815009783
-0.036724562757647655
0.01706863550941824
0.009264558370595177
0.020005288117309457
0.040048500893389384
0.038648410915430205
-0.00804423902974487
-0.032175758629060164
-0.02198410207512591
0.04466361319765588
0.04186129702635093
-0.005354152075346936
-0.0030728768549440383
0.04965425752042835
-0.015061148058541387
0.02575426056366098
-0.04479636332785642
0.02268476004958978
-0.021508306936264595
-0.017308564460764005
-0.04317909933260827
0.020770884998212686
0.033327325221927794
0.03566112445585503
-0.03173996527436379
0.023028656145784525
0.032155157101792634
0.04067675474250629
0.04517367901874108
-0.016608718751786756
0.033683050737046985
0.04040935316994589
-0.02119056113578194
0.028576391047332395
0.01101331184940597
-0.031382490734610295
-0.007858965114476268
0.028815990284898684
0.015302794684588445
-0.04260354232002474
-0.036720294378326385
-0.030999482102550713
-0.009186211736540729
-0.0443691594660899
0.017815586932274363
-0.021113831169057507
-4.918441374160746E-4
0.027389301393042267
0.005709617944658228
0.04320944582738877
-0.010485629791569626
0.02657956459531044
5.707183737129789E-4
0.01603855312418121
-0.02691682507340404
-0.0049083321455621505
-0.0030087079265018577
-0.02183491752498223
0.030869562559896965
0.040676578130453854
0.0016534275106704498
-0.019995328727512973
0.014027271730337845
-0.04337021591302713
0.023012683340792945
-0.023303122168445493
0.02007850232048926
-0.028406284543930273
-0.03241368965851258
-0.010141666673579247
0.006315656876335233
0.028842252300163553
-0.03269702809537563
-0.02292479228715698
0.03793303012021656
0.053970619848399334
0.03933959310141273
-0.026347545080173795
-0.02056513933474045
-0.009106736942336142
-0.044026968982709386
0.046523376039584646
0.015316667409180633
-0.04040841480205668
0.0474771163661153
0.024834020304937483
-0.0040561439027230065
0.038798846925887226
-0.04529885849465544
0.029406637293601382
0.008551118637978581
0.003882358524043505
-0.03726607941467279
-0.018872291610460393
-0.03229637192315618
-0.04439644720451762
0.03235593859095082
-0.01237945495225857
0.020184279766791983
0.028350442239352833
0.04831286647954182
0.01558773623047816
-0.035818222170077026
0.03619749161742194
-0.02362481712462628
-0.0012716987236438063
0.0592301319584308
0.02154627121945786
-0.027957638767719072
-0.03384978841557568
0.0024968774352563355
-0.016152495560260514
0.009089649596233032
-0.014614037653528898
-0.020502645274230152
-0.027266993952023935
-0.04371208720455004
-0.006521956785065194
-0.03897428905087605
0.03570874463637849
-0.023334442377172582
-0.03410262051726044
-0.045828509935209885
-0.02126743019038261
-0.010470651103712125
0.010881424878942976
0.0401680730885242
0.024775684029828323
-0.01785670069181701
-0.021664889792933805
0.05374756097129161
0.020378953179831454
0.041133742748714036
0.03379571600908382
-0.03712224478943063
-0.036744540362124385
0.02091807441184137
0.03651359114955308
0.01992773258435494
-0.0254621958074129
0.009328144521173426
-0.01588423576738941
-0.017308397844013435
0.03720881850236645
0.04650368301549303
0.040860900644807956
0.021344890519748853
-0.024061557734239847
0.020167832122703247
-0.040099866908016715
0.041984037151146646
-0.04917635472461703
0.01190340085644087
0.04100592500009306
-0.035264563796562086
0.003583200492917318
0.004452595011613724
0.034727415404329574
-0.0348651466601185
0.03625729936293067
0.0024015063446681476
0.01757916875152783
-0.016826768554083684
-0.005722288480601364
0.035903171494017956
0.02919032843768871
-0.003452894027824311
-0.008825879287556408
-0.002698373397609784
-0.03517639308598982
-0.015773401047790285
-0.04802922937198243
-0.04137830414086765
-0.026769988786595186
-0.027171494184139746
0.03498002649034437
-0.031339801471414644
-0.0025020444064165026
-0.03046937948933976
-0.024748698567766177
-0.023741104562629168
0.0364941320913631
0.026034328700455085
-0.021620303288530884
0.030061846366935388
0.046100203442366844
-0.04225853952333098
-0.029635483730585804
-0.040937976521651154
0.05066641679718899
-0.04433094769773244
0.0238135287402707
-0.01496046323765464
-0.03578740874411469
0.018328139927570573
0.050081593305995674
0.02416439060159072
0.0022304300051530826
0.03744024066565144
-0.030905088691812226
0.04158763367575739
-0.00815927390732762
0.039870989660644354
0.0027870381859426015
0.046611383636669904
0.02404301672777058
-0.048341574933945516
-0.02796218013047908
-0.025984686697172844
-0.03996201529606964
0.053034221833728266
-0.029537421805685412
-0.030761791258953664
0.01464677966838778
0.03492613242563976
-0.028179933523899366
0.04053012483993853
0.033806663674846395
-0.043963796266427345
-0.036401509779809306
-0.016865248285327983
0.03095074848771479
-0.027414620101770253
0.002720701074349845
0.020515574104110677
0.03464540736690436
-0.04606325749089843
0.012070453414946716
0.04262454636377261
0.004631085913034429
0.006442438447194272
0.01837111101119587
-0.009100429700193195
0.0015421981205571635
-0.029781135423450743
0.00200109222579574
0.029936710350430884
-0.0014037383515609772
0.026174906799891155
0.0258500608506205
0.055498141184497925
-0.01998368658470226
-6.039988049413111E-4
-0.03658759777983007
0.011601329814081145
0.00999387456862535
-0.005344498708235905
-0.047834965212344635
-0.025740953607911597
-0.0351435216514029
0.045205022613091894
0.053648341758174706
-0.03434583737630694
0.01768496162226228
0.006820334821422824
0.04146255180467879
0.018721726117238515
-0.024859060776014078
-0.023030671980767574
0.010174796480561578
-0.010172556683287162
-0.01846902634864467
0.021658766351363427
-0.00671529714965954
0.04481408123632301
0.00777748307577869
-0.04007025153270567
7.255928197776067E-4
0.05620630347483498
-0.014817098065569918
0.03551425981128252
0.031650848109057446
0.005691583042603407
0.01057014469830282
0.011975318226478125
0.026683143618384645
0.0031474990094948006
0.0230022713482688
4.746409494341096E-4
-0.018098323209833133
0.029466865258677227
0.04576712177817019
-0.033152749688149616
0.04238090437668386
0.034271179642549984
0.03344873196763644
-0.03550647140655532
0.011382366636091691
-0.033991095468335106
0.02755271308890068
-0.021959118195996514
3.310864036643804E-4
0.02004449344034361
0.052204914758348035
-0.0037610221762491235
0.0156856546830143
0.05844368815179606
0.023157010259971685
-0.0039992033566419935
-0.027343601325016027
0.00349019900313388
-0.03554767978599766
0.0038402822427491766
0.018652643828179338
-1.205801510958519E-4
0.003083368868873275
0.0347872453563072
-0.038484337184876795
0.04127248495526164
0.005054225518958637
-0.0025771531271557187
-0.02334047921993543
-0.01670595311551009
0.04564232351025407
-0.0035950948993329706
-0.011494187482250697
0.0447600728289679
0.04613139268095674
-0.019874793014503078
-0.02600381934175459
-0.040398520137179116
0.020057607446991144
-0.036315621116489505
-0.029909113264387388
-0.014808070342292956
-0.004355903257523127
0.04270208984182943
-0.02138233038845484
0.03474285679448559
0.051157135883620246
0.008743263737411865
0.02618615090876563
0.019138615389887852
0.05367675101021559
0.036989619349872487
-0.03807241504781989
0.03575761093246868
-0.012815195180219525
0.02581118065096932
-0.018832819799850273
-0.030377119191470354
0.002119284463429289
-0.03948800008721914
0.003002115055385803
0.040307970672850246
-0.008560348521437163
0.046770765153490344
-0.03730805345532825
-0.028210432142573825
-0.003958786211757539
0.018136062785709825
-0.0442365065932547
-0.003211065528366423
-0.01738204827383363
0.04778803784125341
0.022984446590879823
-0.015496610047528657
-0.02677902656861824
0.01896530668262014
-0.04247814710216492
0.031071104819807762
-0.037167790988743205
-0.016037688564826406
0.017236151778033563
-0.00576535615517226
-0.028832154423463045
-0.044029130134211385
0.008993909335590872
0.040078911237008956
0.04206492388598781
0.03077808990397277
-0.03316631944430235
-0.02675410353027825
-0.03987970024351964
-0.00356502167083899
0.0050829983239221435
-0.04226368198692024
0.014040649029383644
-0.03261600915014296
-0.010000285933649596
0.04096839022515898
0.02451902022927918
-0.031825018904504364
0.017689812195398155
-0.01864270864350499
-3.6113244407560773E-4
0.010212632983539631
-0.03639899773119422
0.012480235780767058
0.028415569621768173
0.019163406495571314
-0.04204779833101433
0.03763214031675277
-0.03814223144187713
-0.030204892786804206
-0.043391800302193965
0.034223641059457674
-0.03969061027354042
-0.006020654145268463
0.024859179997690564
3.6755462777018547E-4
0.014958271769187853
-0.01582212198301478
-0.0188270875287959
-0.04512414463193095
-0.0012896537040263812
0.03395774886412115
0.017549817484761993
0.03400712458947606
-0.0023758204957721987
-0.04739907835917531
0.0038968742249499183
-0.008068399915470965
-0.03760721504956117
0.014011007680179774
-1.389161609830895E-4
0.004467176986875037
0.0029608419079958335
0.05564508061010011
-0.011121035842865636
-0.03688348151923148
0.04836397862143138
-0.010478234456851431
0.031145021373650692
0.03586747860861345
0.048479403491043745
-0.01401751868917109
0.027808610686545533
0.019750174875373536
0.01687945570012123
-0.020144260795420664
-0.02737658389461051
3.923579121099331E-4
0.02509049172474241
0.0030591165601869287
0.04611187177637685
-0.037713185632986035
-0.014963385626392317
0.032850717221283264
0.0012169662425466723
0.02006611087001223
0.0014477719497648367
-0.01127997651360002
0.054182730191055475
-0.014748373327955361
0.01810585742656635
0.0369860255894579
-0.027248934373234262
0.0020429321356470005
-0.011272784075059146
-0.04294071008654897
0.01968871359149712
-0.022736760307180158
-0.013619144560536877
0.03444590953412323
0.03511097679874113
-0.01576807623999359
-0.045045715472348785
0.0025328391955639533
0.03245705105026127
8.183806660885978E-4
0.014905479101756615
0.03432926941101474
-0.03605490516042882
-0.018910525748280376
-0.04745139840312259
-0.02035721719176375
-0.05168191655725121
-0.03967852749831086
-0.023749148659227733
0.03282995886086814
0.006906604897724293
0.056926638960783406
0.03547378736126295
0.04636362543468779
0.014672491274295771
0.02312182037171657
0.0488171615980342
0.03482923927888305
-0.02010227806529842
-0.047926633441838264
0.043156514701917684
0.044423672436427815
0.001240347758481755
0.04093278954636685
3.4597482088132395E-5
-0.01424102401429123
-0.028843893238247157
-0.0335390367035291
0.009408362263383926
0.028330492985298175
0.01504497221955164
-0.001346043550919563
0.018279571881760392
-0.04394896750773802
0.03812353947998935
-0.02530969902651986
0.017512912866320573
0.04222751476713653
-0.01788498849289599
-0.008168285835070553
0.0021752472604136923
0.02192925876239086
-0.03399842112394031
-0.03869061975968184
0.004302980734928098
0.0350703600148674
0.037914704002057494
-0.004117762026948665
-0.01685132796801245
0.03814581227252856
-0.02976685822454481
0.018012865622430336
0.0030179597623763432
-0.032487851192411044
0.024987822206008394
-0.007308002718915723
0.03429919066000841
-0.002649178345606344
-0.026116115853918487
0.03771557195986734
0.052857938662648755
-0.0034711154502621226
0.021582988861416796
-0.006734229576866265
-0.018769983797858058
-0.01809491723928782
-0.036018698074860696
-0.009074417606633722
0.051021550094029464
0.005322586758454601
0.006917546818730506
0.04794715176211033
-0.03203391597010653
0.027150740380821988
0.019684066132315402
0.020263530116971233
0.013049184063560773
-0.02606930600180943
0.01899481034156355
-0.04323026637383329
0.019976274188866702
0.01029207291757224
0.011424571131851989
-7.930507382803545E-4
-0.03132052066284214
-0.0030295344156706797
-0.01645674495758113
0.01824735811240327
-0.03428878024008973
0.017304256093237574
0.03239131460199009
0.05468289460437516
-0.03510351632694364
0.014114690540726657
0.05228621077426216
0.04073686846199382
0.05013407377641049
0.04320404745243012
0.0030500950668958175
-0.03118688623006249
-0.02952340838353741
-0.027383582932035376
0.05042781147578209
-0.03499661100486749
0.04047109536793031
0.038243424320382004
0.04116313539655564
-0.008050855844084414
-0.001591716438165859
0.013811042570354043
-3.160923778416169E-4
0.03343595800927473
0.04927858004048656
0.02908297607494609
0.01607196160633619
-0.021921257533811862
-0.0321200029614394
-0.015942685366518168
-0.03216447659480457
0.019132190366900018
0.04776360041724593
0.03126431670243241
0.02670149495769249
0.05135383561005025
0.005959785101637503
0.04451984987646997
0.03870093495788968
0.005083097770019158
0.04974107930925763
0.04554354045147088
0.03805318338672366
-0.020920517566439898
0.03640552073925425
0.04341505913523754
-0.0025104465079447804
0.007935282261371895
0.021513336264456062
-0.04754746911439499
0.022735593792779292
-0.020066064343380725
-0.026039228703480452
0.0022414072077400217
-0.0329463473482475
0.01566663475851687
0.047852824739919836
0.04791791880905142
7.93568747881343E-4
0.025879517256205034
0.004851603230712785
0.0029082974478364587
-0.02246939458163723
-0.04774529378714672
-0.0102999800924053
-0.023381077145325873
-0.011900509649067572
0.01652553295449685
0.0014342336862980967
0.040626583404842695
-0.00995552325133466
-0.035319609101778685
-0.041164389694363465
-0.01592874801885411
-0.02995524348647788
-0.017496973700821344
-0.01685735024252442
-0.037883013292947486
-0.04197290147879613
-0.02832147096783555
0.01840705172622507
0.036433285544272054
0.04673842775736445
-0.023903861104734046
-0.043261161071605596
-0.03926091334468965
-0.009381747643446169
0.018074792394381766
-0.0418228728002558
0.04018778395523156
-0.012103915805718759
0.01484202945645248
0.00932371235877609
-0.019627195113328062
-0.04432732703293356
0.038766172680673165
0.035407229466867
0.018437819785239142
-0.014963150324029445
0.030655411899707004
0.04754597190436744
-0.014195322591631962
0.0023543057406185557
0.04938847956934237
-0.020241663686299288
-0.0048618961599869925
0.04332715365813132
-0.02972864972618864
-0.006361902760637644
-0.023800474037912103
0.004341774384784252
-0.019595196707556946
-0.013424677882883916
-0.009760971879272565
-0.008844683665746684
-0.04789461103852721
-0.04928048272972757
0.004066987248835801
-0.03087502061195001
0.015932051942747768
0.027271718591887942
0.005599534079221594
-0.016668518433884415
0.028488215082835642
-0.03321074043845626
0.028221534884086838
0.028185377445511483
0.04317852520594778
0.005696057629061456
0.024368955140525124
0.02703853490682222
-0.03698376135724874
0.002606447551376597
0.03630368298180109
0.036484820865615185
0.012323511169634238
0.016136731514620344
-0.0036204407923468057
-0.04728700967023719
0.010822240090026074
-0.028665732026489102
-0.0015656252159703852
0.04590369416409119
0.01615109108421995
0.025685534618776883
-0.03822176982951527
0.04023376843326853
0.03920311477708622
0.00548702466496912
0.04293565154106368
0.0013770980420192555
0.01926005195931112
-0.008036587564351813
0.02394901398103502
0.012388596672215474
0.0324354358784849
0.052020732376613046
-0.0465290855699122
1.4694229718366483E-4
0.03791228933353783
0.018862996979900768
-0.007268821077719419
0.010173884079620665
-0.004127966166641242
-0.006419687998048038
-0.04566422698408901
0.007002468196019794
0.031277453558854765
-0.0205953813555323
-0.04086334310406034
-0.0010511781949343344
0.01879812604662683
-0.04774038033158184
0.010303604146706277
0.015812618525987292
-0.04410493331591026
-0.023923588231933742
-0.03863940833151151
0.04209978209743969
-0.028774500264026687
0.04802314234615966
-0.04282935623995845
-0.003963197243347488
-0.004645138987057127
0.01631120980867422
-0.048814132229214775
-0.01961385396389332
-0.03791768466232421
0.0058703564754565216
-0.031716812383257104
-0.031384890593967096
-0.043126723997978206
0.00517569221484298
-0.01248912580916997
-0.020023211921038148
-0.0421779488116858
0.035647837686037284
-0.01557882487480672
-5.39516864373684E-4
0.019969329046168865
0.017331353188552674
0.002717169277969322
0.041064034299168085
-0.0479115342350118
0.03487528526989845
-0.016312480495029542
0.003814827303610818
-0.03822410548247946
-0.030357058180802223
0.02184651558501029
-0.01622586669095589
0.04235785164541011
0.01881913637312227
-0.02524496931180383
-0.0016247910411892465
-0.006622904028045896
0.0199241282465169
0.026328460614185485
-0.045541550972902425
0.03242882372956999
0.046860626118346564
0.019867637743991882
-0.0488298473099119
-0.013475868811990078
-0.043401432099560246
0.003410172689020301
0.015073082265237882
-0.005237384037209738
-0.017101472324671785
0.036433083563900896
0.008314435093057364
-0.0250718424356313
-0.03639693510058607
0.014826599910698653
0.0016231292584952706
0.037795049682873005
0.03403245087980866
0.033650295142370064
-0.003996523798327215
-0.028162004121878286
-0.021448380543296213
-0.031372749555010876
-0.012059200014498525
-0.03015370508132897
0.03376391658880612
-0.030287740623830797
0.041907819231890325
3.765741080638822E-4
0.04992806666315749
-0.004387765080341986
-0.03413380677289492
-0.03605902440732352
-0.02678178365001654
-0.04849729459104924
0.044824418596929774
-0.027206834458089302
-0.00169134353457327
-0.05029168609889898
0.03760882943270808
-0.047531329262151194
0.008849909534283197
0.005762594510407329
-0.002960004713542389
0.04608948805785929
0.026487399364476368
-0.004711960678926589
-0.020120846382647044
0.012478454266167918
-0.029356900018313425
-0.017335905450996104
0.04684284684424638
0.026860193611086748
0.004541940243753237
0.029494085224451544
0.03884220177250775
0.013111223847423822
-0.028815467792768296
-0.002767296658396357
0.023504395089786
0.022839953053777867
-0.03257759653782696
-0.019328421413626763
0.04367066060438513
-0.04494017649726683
-0.0032573633983930426
-0.0012332639240725956
0.010340735788780286
-0.035422982812354446
-0.012458039906847247
-0.024434541825367324
-0.047904491001571535
0.006412622112360145
0.00346712111844993
0.020818787103306296
2.333094172164961E-4
0.024742969773290522
-0.021144173586124797
0.02969586454945311
-0.005225386731452192
-5.909230425076903E-4
-0.027481441144718708
-0.02931047653916402
-0.02533309668842888
0.02154519830661729
-0.010067126671556353
-0.04856212112728764
0.027239532370640238
-0.01086708448365871
-0.011497316824773281
0.045817471928856275
0.012311339817349616
-0.0028704158022443507
-0.024206169696894573
-0.04232404022909773
-0.037706007083226876
-0.04569299293590471
0.04493692520987058
-0.019181097912339812
-0.021319941852925652
-0.028274582305685365
0.03690770047251124
-0.003791182639593072
0.011584520215264916
-0.015869196079506105
-0.0010285889634928911
9.581204200346382E-4
0.02419865659333473
-0.03334778003057454
0.0015450101635999128
-0.017599300815206574
-0.04680674201294718
0.004366147429230117
0.009491938890410972
-0.03017714212369147
-0.013710459376451288
-0.020884102054172227
-0.04890966148850431
-0.03680100034700442
0.0347329408651402
0.03938232378076435
-0.04165721983861476
0.01610778504267499
-0.03779781762479994
0.005966503601025281
0.03770198382600231
-0.04640100453340133
0.03217606644299206
-0.022099445284920038
0.018100223978269745
-0.038117222709592814
-0.004714596204276625
-0.0409628754894881
-0.042726095361217
-0.03671409370490749
-0.006964693442176109
0.04743909473833948
0.02192364350469575
-0.0435224668788768
-0.004662590783903947
0.038159084422789646
0.02631498506393539
0.01629372872713779
0.04368882483178291
0.034511579446250835
0.04623267643825638
0.03701378282500182
0.019111639713503787
-0.04614236929996218
0.042986686358723075
0.0398368508302043
0.013368618527445458
-0.019393313265895024
0.024585061675581988
0.027679722799674816
-0.010058188669259125
-0.03623393487881054
-0.023049959394174993
0.012194806572641317
0.006003278498730272
0.04268466889402877
0.048199724921669095
-0.012857921430236188
-0.041512531735552624
0.04883478740117034
0.03840847225415143
-0.04237565717531991
0.020207013474236597
-0.029124559375856743
-0.03298111417482163
5.698014953177882E-4
0.02377044522563344
-0.02520160232592902
0.019383782205581943
0.042585737186333836
-0.045932161681189534
-0.04851424880819971
0.03511990912469496
-0.013672261140722428
0.012548493588053707
-0.05077224765422312
0.030803815921884133
0.014186221479805059
0.04364092106779439
-0.040274394870713555
0.019736784239366294
-0.0389579681610754
0.03279793347574641
-0.03158991578177658
0.037837020069830446
0.004001937550184403
-0.006868273187097722
0.01705826270914482
-0.0025050470994659717
-0.013245647155300699
0.023408992121155884
-0.03568236013601939
0.03708555183658357
-0.005275833666089885
-0.006592971643526791
-0.033533763698606577
0.004161933205933918
2.0215166543866594E-4
-0.0018207267451600658
-5.868696402439116E-4
-0.003923417207274088
-0.009027370359042036
0.019778935645921508
0.03661343691583789
0.0027798986964213757
-0.013707346384695255
0.013794630912948696
-0.014127819407265417
0.036802059530891953
0.009652026626583014
0.04957114958041232
0.021800849469398174
0.03101605678251848
-0.021549293485565807
0.045035868651827134
0.019494745321755855
0.015186136355479598
-0.04990594371584579
0.033718302376545495
0.01979438613244649
-0.018635453593322384
-0.02429805959180465
-0.0026368420901608162
-0.002058989380175769
0.011643436960817205
-0.024340637358087773
-0.03606668343239647
0.03018190068913219
0.0055814112279252625
0.03616754301155493
-0.014530605082351983
-0.0051955184830913305
0.010351059550064557
-0.012656745133991287
-0.0194524030361667
0.004886983731898734
0.026091653037901636
5.909796345358211E-4
-0.017468686234585775
0.04319134880865929
0.011377819662509983
-0.040979632264269074
-0.01780847864734392
-0.0012534456568980355
-0.022313331364430044
0.039825874828034694
0.046419339857872215
-0.04825446365611556
-0.00201354699970032
0.011390162896766661
-0.03129203987255361
0.021048987581090858
0.012601929913022381
0.005053116828750201
-0.010309950290552853
-0.0024562474035182183
-0.030811519678375723
0.0410322212503469
-0.00978920728222206
-0.03791914053339253
-0.040428619927949785
-0.01811028681213517
-0.005046124126607354
0.023837190311826986
-0.010518404306971485
0.01787976070403384
-0.02021356160614669
-0.0173567463900492
0.011578540178104595
-0.011345229272269625
0.04439921113767799
-0.009554436876515427
-0.04282550791073462
0.02472443965893095
0.03556751029031694
-0.016381461461805778
-0.03812310921935952
-0.012161673737394034
-0.03915333604237019
-0.008765807949635145
0.03491867841263403
0.027542488489046897
-0.03952549781683362
-0.01531869945352378
-0.03485558495400362
-0.0018191532386326718
0.031432894255626086
0.04026403170653221
0.002394409579399827
-0.0416271944256864
0.008475534595408793
-0.038289979379735356
0.03897210592378414
-0.03659285600983963
0.009184600069283927
-0.008925526816075922
-0.0017975034643741288
0.009751815820693675
-0.016188954252236643
0.012508100662934037
-0.04037754417713736
0.0381727531928539
-0.032312208915774236
0.004126952110127165
-0.016118552368938086
-0.028054872970443446
-0.048826062596906854
0.031348257759911936
-0.04505927223362258
-0.014617124848856779
0.005194490242546724
0.037279428497888394
0.019516184164909443
-0.04061034605878999
-0.022680243993203876
-0.011158673297857491
-0.03533423221502847
-0.031772624143282975
0.040383185263077985
-0.027322025527224125
-0.031208582283609978
0.0505928701836219
-0.02127811298513615
-0.006343291612929896
-0.029813662057141397
0.044573631606658164
0.008691821622967423
0.04171379100989055
0.04807958973581133
-0.03784396483620183
0.026960936170711724
-0.011612242083075194
0.02995136538114565
0.028758396199842613
-0.042998332588775674
0.01046524961816101
0.01677251831914175
0.0044532452838618
-0.02065576527058602
-0.022829632037077108
0.007227512152981539
-0.04292972923888877
-0.045743644365698055
-0.05546692563248799
0.013758641191098351
0.019152989179543417
0.04911970759240602
0.009346114600193169
0.038952016728705206
-0.010373157491544873
0.005890080984244138
0.027744189890600426
0.008552803991524912
0.014211669275296924
0.04225652222995922
-0.03484099972574474
-0.022477555865976332
0.040872107126806424
-0.030459571672747248
0.020259019737848577
-0.027666209596614408
0.013500111669475016
-0.02963840222986197
-0.041437861083658566
-0.03273995397044103
-0.04265167721247258
-0.03611883443423773
-0.03920593321595115
0.03878651254712911
0.007451082953884707
0.03681141301029016
0.006650980670359195
0.009728492184019364
0.01871818090416441
-0.03775608425269871
0.024006967992336196
-0.01229262507061513
-0.008712064216636855
-0.002219803136833894
-0.015155627944237983
0.008438831786969683
-0.025469556026892725
0.047080478579563
0.03966954476295047
-0.021213195589809556
0.007293295700470092
0.04962694030484063
0.021320741614596433
-0.029015034740720758
-0.011179782021375666
-3.1436879460205097E-4
0.024428453961950983
-0.017857982596081998
-0.04907487730017192
0.004373936070878812
-0.04326742237600095
-0.01226929037690093
0.003126141277751917
-0.050091194964928504
-0.045314015716464436
-0.025980225687232867
-0.027466423715016796
-0.042354028990393575
0.03281384117793344
0.0124133841115174
-0.023359233520525925
-0.033358854697082656
-0.007966584828561055
-0.022292378779971426
-0.040291111486226716
-0.009314321017020143
-0.0182686016199852
0.010348969861064016
0.012357844876453002
-0.003935587088657355
-0.008779000645499406
-0.014462824015302933
0.01831953077111856
-0.017088171030905795
0.039404319578138225
0.03164852106778538
-0.03409903735138563
0.018875643382787174
-0.005961458117640222
-0.024294176373992983
-0.006439763771089318
-0.02995808612577301
-0.04761766021120293
-0.04578936758254024
0.008652340434302297
-0.03480679863384131
0.028026576328317412
0.004926527081939165
-0.012932287627175864
0.017122189744267373
-0.033766934911583314
-0.04284749723819013
-0.019585037433351375
0.011771621263048829
-0.0467273172653535
-0.0037180719412863326
0.010868191512452595
-0.01622948935986097
-0.016810565689760536
-0.03926568504619549
-0.04775409460985414
7.195255405998668E-4
-0.03856266411599539
-0.01826453194642078
-0.007395649134576988
0.017579814779166262
-0.016460167296866998
0.03750753528107315
-0.050907692609138425
0.03932115166117701
-0.009890218001147423
0.021096881657001527
0.03800906015505321
-0.007173756793795683
-0.008777095250902476
0.035189304427188185
0.005447477407636815
-0.016792686155304604
0.019223474094030357
-0.040849078932261744
-0.006360665649177803
-0.00935490622020097
-0.003041833576127613
-0.028065757806846683
-0.0012833969084892858
-0.03487677212263931
-0.049042890871714366
0.03137373906830712
0.02570109101117102
-0.0013689861064643317
-0.011967781610398952
-0.018252998956465774
0.034395901604737746
-0.04718265750108668
0.014906950419189977
0.015748983287425775
-0.02965967998522585
-0.048848189679197566
0.003242571439867656
-0.03661118892106178
-0.03833457169084369
-0.028410593408032998
-0.012940632786428666
0.048999081198739136
0.01944827638638756
0.03615088782244752
0.02723690964189098
0.007416851813330441
0.04488072715127062
0.011634630171232055
-0.039993481486046985
0.0040579061785956504
-0.04541273371057983
-0.038890184839485774
0.006282950560928309
0.008229525659229282
0.021482128500393216
-0.03056450209719992
0.008324139229866396
-0.006011641319399285
0.0010490481315337022
0.02071117418108392
0.0377992452983283
-0.04513865137676284
0.0026469946632933844
-0.009650710624794322
0.050916141521980096
0.050228234424199984
0.045012893401578886
-0.0022877496339687
-0.005182121144260745
0.01431500214676747
-0.04463745635385577
-0.019904301015382327
-0.028281545983533295
-0.017346599935498086
0.006842046206790966
0.03209748237807229
0.03214226223061736
-0.02686660708369746
-0.027459699328882325
-0.024493281804500854
-0.04347900832362583
0.015590919680753598
-0.03936424146279345
0.039440535488014204
-0.03884926907567267
0.007290836747053704
-0.028116640368273046
0.004278985261376054
-0.0010299440381557768
-0.010776500638988929
-0.035170029066487404
-0.024819577731901934
0.02774717780011049
-0.01947670509051453
-0.024502887147044426
-0.035520659934964935
0.019458605233553278
0.029354325337449215
0.04673565812637353
0.019519353695749263
0.04401766973731793
-0.04229965421840238
-0.03242155048075675
0.042011627408545034
-0.029718570779059025
-0.037815090085529725
-0.006040464263905631
-0.028896379063292378
0.04242239316374894
-0.04713828599753053
0.030544453968548654
0.012921430175004571
0.020173435155432233
-0.03945735078835827
0.02694947335336074
-0.015503160927218691
0.014955893521789658
-0.012806370542575305
0.02372098048182978
0.04378587762457983
0.009387804118117774
-5.342589871475911E-4
0.046401282902724876
-0.027542200707897844
-0.03408501617699069
-0.03474833769042365
0.03874785061255053
0.04554260736038634
0.0038094321631414506
0.02157978347538861
-0.023167278401811302
0.04047109133759659
-0.01254536417712743
-0.02241930149485868
0.031982225036355255
0.03536456428306795
-0.04042363159420519
-0.03206392103010099
-0.012123123750189027
-0.04434930871587819
0.02950479789416365
-0.014705757710310203
0.04336117875929613
-0.03931748401576087
0.01311251502893408
0.013815497877257795
0.016931476346502237
-0.04153028554242758
0.03861029758459967
-0.04063324805964396
-0.03961589127404973
-0.02888125686580176
-0.0443722652762854
0.004218593797867107
-0.04967764506202652
-0.029158081392126806
-0.014653028947597116
-0.035860746049775336
0.043477130899465415
0.002343983645798038
0.03136005840575249
-0.004444860085164512
0.031632365054209875
0.023166157977905163
-0.014590771823769961
0.018182380074248616
-0.048126034222955846
-0.044648408643494356
-0.02266619350534806
0.03889347890310109
-0.004185325238432827
-0.04103687021393001
-0.0050165130996767246
-0.03441759992623396
-0.04970778849363843
-0.012965481747609793
0.035057556557471274
-0.014058662065722625
0.0010870656198156013
-0.0035228165569950918
-0.03351804251802523
-0.036425754539385166
-0.040496836304368705
0.00750655900034553
0.016663536138470637
0.026153069748070384
-0.022583205237603727
0.04494684470423685
0.0254999856005725
0.008766511165153174
-0.04717754392844303
-0.04421899097904049
-0.01355135389214458
-0.007390033375967688
-0.03210992511556506
0.046270586401047774
-0.030129731927982385
0.027266999273511724
8.838976935609475E-4
-0.041093571323253586
-0.018609892451012754
-0.05274254610603811
-0.032161305212278925
0.03989510966532523
0.009422114643286092
0.009991495553717731
-0.03968339777794327
0.033552245049027526
0.011539774585647375
-0.012508780770265052
0.02394701675943274
2.023299432403489E-4
-0.01659894745485414
0.03406042624052224
-0.007774957913119557
-0.04422090864431705
-0.01874856830045873
-0.010171321093914611
0.04435542667513554
-0.005189818482371807
-0.02231351484462541
-0.020467491967699994
2.203754764466218E-4
0.02984950779514532
0.019425696496267606
-0.010400099155496868
-0.001749346025046487
0.023952739463048548
-0.04544397065883508
-0.04906543573984896
0.03901648353394
0.02645591826362118
-0.0022225593858245336
-0.04773250917641977
0.008346812272577503
0.02832833755771065
0.028621634053740675
0.013874764337905288
-2.711707630207707E-4
-0.02781211361545335
0.025176277345386827
0.015173363612359247
0.013318602220057787
-0.026951443128345434
0.02072384946795422
-0.017369632984674494
-0.04586248081006038
-0.011678126341236673
0.04049828298306966
0.02040085977218637
0.04605176105678893
-0.01966484338346582
0.045928860324712426
0.00349209693359029
-0.028861867572036178
0.033998207799975096
-0.015224939565808494
0.006108725827395991
6.02051563718606E-4
0.037284075183713156
0.02505578090435088
0.004114588080724432
0.03601893822229787
0.040013911914005655
0.023881582049375717
0.014887033835866316
-0.031814539306772416
-0.006506524197978158
-0.007538129459176628
-0.0160142359034909
0.033683680615934
0.02570534801479046
-0.03790555276427877
-0.04213197458273379
0.00545697937653035
-0.034907774422556465
-0.012498127979153348
0.0207482387095801
0.02336608399243329
0.04098964784754407
-0.01579993882137517
-0.04653844065882236
0.04297564472495217
-0.026254235022744068
0.028010289496365092
-0.027641892796553685
0.020559847991161492
-0.025032787447645966
-0.0027151970430919544
0.013204326208041484
-0.04593628411515789
-0.005248694214938378
-0.002574163639567327
0.017346307874362882
-0.03747939034897134
0.018028484078422696
-0.04843864104015883
0.032289957962279944
0.04143925326819656
0.005514439196002853
0.010851322759012894
-0.040909350909879065
-0.004714711790671464
-0.029899901143579984
-0.007316859394036584
0.03850812537766697
-0.005258279500562327
0.046309560869874096
0.02581881392396923
-0.0111187380489641
0.03352782806234422
0.04421083387944088
0.04140474604764167
-0.01609694951168319
-0.038407092156616765
0.038606388386254256
0.024727488277746665
-0.014658030479889828
9.501184937609126E-4
-0.010708214580366434
0.02646085462034949
-0.007673758735802063
0.012422995551687252
0.02683978907815849
-0.017531835376865975
-0.01429399407620939
-0.025337077855886708
0.044614987827493485
0.009077821168245124
-0.014539842028605027
-0.025262009412098867
0.025656009701343917
-0.013942405699136908
-0.03125166113991916
0.0028398615497704283
-0.008338302165261529
-0.036115820280944996
-0.03542133991491374
0.01198052634972302
0.004148961214404847
-0.015593170279465133
0.027773415734684885
-0.014505549447650182
-0.025470610356382588
0.027226543960461348
0.025162758896820056
0.03475923589723981
0.037250484849067726
-0.023225132218147117
0.021777782819420836
0.032428434703110944
0.0028234539523272328
0.007441216606758208
0.006477842795428504
-0.015995403455151113
-0.011476434399849323
-0.028912107139693864
0.04102869028767287
0.025736587437667276
0.034754832802730784
0.024098206143043217
0.02155798967157637
0.023221298568020868
0.02550340660650212
-0.038435493296783994
0.014796027489186413
-0.03505801556535364
-0.048381740539974134
0.03343668771015829
0.02676362902770533
0.02507726193366644
-0.026215378194476315
0.02589109987646439
-0.04265126855452969
-0.026532779436033563
0.03631862691442326
0.03312136035651716
0.005333738166975322
-0.047329442980863945
-0.03748964684202813
0.02547529782653381
0.033961500373207366
-0.017975387095881395
0.01214077665591838
-0.02283165221619642
-0.006925751817090589
-0.04798882933760742
0.004292566347845791
-0.04673474158978581
-0.04944489153086417
0.01316595868415515
0.02673776255852559
0.02385995521343826
-0.046933992980852886
0.01170399886952727
0.033006068965424684
-0.004321023260837885
-0.02007569871156303
-0.03516256546443973
-0.014550213510737436
0.007854213292217707
-0.008026759129174965
-0.035137407969025904
-0.0168412020200181
-0.04717835723251411
0.0061296261375434185
0.04437859584522098
-0.04460047069186534
0.027603555557856794
-0.01800057801574068
-0.04820658118448754
-0.00808350752353979
-0.010631432806424763
-0.03445149590458274
-0.021835918464205642
-0.004180201977700314
0.039968591827756215
-0.007508313146961678
0.012474268500606945
0.024164481017292305
-0.04170808025551619
-0.049318374034699665
0.04688396960404043
-0.0041698317974282586
-0.04968889623110539
-0.007476466400235139
0.03488395599979422
-0.008904782382666598
0.0470067006811209
-0.04541831886110177
-0.016891747270513055
0.022348433955510706
0.03272363331707156
-0.041975942637152666
-0.016636834986346345
0.028621950240549827
-0.03692181217163297
0.027257434252603092
-0.03444336514787903
0.014869388827747724
-0.012721657523001325
-0.01607863277602063
0.018184875099795973
-0.03331942127386925
-0.016118450386608273
0.0017858101548405803
0.04633003793128961
0.04815270647861634
0.05004169346626314
-0.008524913954288369
0.033876542379431926
0.011364037545517756
0.018299626885705172
-0.011906893187332387
0.034710158811825854
-0.009147060990377494
0.005584831758547084
0.0010485932546620074
-0.020960478952952825
-0.0320827925693048
0.018127371447405317
0.009964641704954574
-0.04501721324977787
0.03607824886952956
-0.019807293127425785
3.559862448284558E-5
0.019197688879258244
-0.031056128679996464
0.02346474906840968
-0.020280570315139107
0.045779198775114265
0.0013133210600893594
-0.04232065647904193
-0.022458663491842987
0.021724153285524465
4.671968726191481E-4
0.04919215977122104
0.03024069272830656
-0.03642236196551399
0.03179583647157017
0.02691894935425039
-0.0038277907256210647
-0.04959046214090307
-0.043044693314869625
-0.03787849139701954
0.005359959002396031
0.014702720043156654
0.010867941550535247
0.026226482989705695
-0.023660488483689075
-0.03203923223799234
-0.038575656374814256
-0.017279333053458797
-0.04330970269109003
0.033050919149491466
0.0061986528942085
-0.021382160611608192
-0.044562078767457124
0.005342681579112323
-0.0397623406342169
-0.02355053122673166
0.011704066624721069
-0.04915873709506615
-0.013627279314192194
0.0308863612197944
-0.04294237389040045
-0.027514233478314488
0.005575338937425113
0.008996982337584128
0.04293332284022695
-0.03931036504279655
-0.024587899269404676
3.4750878437962284E-4
0.04066174095668046
-0.015105293760317185
0.02049024103580346
0.03475366132440425
0.03494094529789972
-0.02026643948394966
-0.019097729403570955
-0.0366315041664362
0.044864958502445824
0.026392199618636442
0.0399582044825063
-0.03637984374311959
-0.03174642407004583
-0.011162069764207586
0.0260243793218538
-0.03628405507690254
0.04575652070213248
-0.0013582843694452174
-0.003713646599915536
-0.031448210037362166
-0.03234798549277511
-0.03204102412955532
0.027873294899380053
-0.048910791013796466
-0.03136190787331688
0.01757698441772142
-0.03869736415731219
-0.030622484554966783
-0.04230940031356166
0.018124325167403005
-0.03269874800221123
-0.04155089308591033
-0.013012965150744736
-0.03319810412000507
-0.022654793776721822
0.024270343717001753
0.025306591587001277
-0.04624138719625115
-0.029348036263345825
0.013076368428846708
-0.005681336447317122
-0.021482153466088092
0.01961404755304166
0.03440983435453781
0.010091246205226391
0.04385115426077864
0.013603607484714302
-0.050294986633127196
-0.005538595707765086
0.024004971149103705
-0.014455988575126751
0.006404678412379484
0.045723956181188824
-0.009467012610969834
0.005924348894998005
-0.041122283829025205
0.04201495842384486
0.022514185572401636
-0.028608944289401837
0.001140255684379861
-0.04818589324308073
0.004037398387851394
-0.002186614142973597
0.04651060124468379
-0.004796272898570644
0.012793408758578543
0.01699105580840268
0.03960636503611119
-0.0065473650517962655
-0.017111261041929563
0.04140301278153024
-0.04452750468565836
0.036522194092209574
-0.025291638193107552
-0.04732262600407097
0.031678022971459815
-0.010679030554475482
0.004925258010470339
-0.033600105920677026
0.041388992118692645
0.016309309614735774
-0.03046581146343163
-0.03898268658008573
0.030492874969316502
0.031794092630306685
-0.001760360947506743
-0.0511619487439726
0.01940219575408654
-0.043413465228132046
0.026272609425973585
-0.009373152022089845
-0.002570891363204571
0.04048711866707139
0.03910490238068336
0.009590373539151575
-0.03098924695115736
-0.01799472866169328
0.009944540600540919
-0.04685951892132476
-9.043235208993365E-4
0.0038936244353719555
-0.047987171897980546
1.1770581254604473E-4
0.024941595604742094
-0.029773010915577765
0.027697954223859077
-0.04878725839118445
0.020736252177193038
-0.039907152679296065
-0.0374812159759927
0.037219249107472326
0.04196377439497781
-0.03690663057271503
-0.04597994457839085
-0.021872933831310403
0.013752115494847875
0.01246331707838865
0.014005546992928419
0.04395872410558214
0.030618323944549185
0.04311855505429468
-0.011923136491696351
0.043418595902442875
0.023724161832388065
-0.03305225449503747
-0.017922862583114044
-0.0066545320728141205
0.043515269696251066
0.027484520216863675
0.03289682301366754
-0.04049502670706391
0.04245143397184023
-0.039260198105532856
0.028943841036974945
0.003761232651632655
0.012151647527175265
0.015971503082400963
9.568478837772597E-4
0.029178093012240214
0.04469669824619929
-0.0076308722398763336
-0.0496636250355165
0.001534973993790636
0.012470796400182015
-0.03341058624531188
-0.014571376198569942
-0.011454880409869795
-0.002146059901050787
-0.025599559197266128
0.043910491728268546
0.014592977510234988
0.01771865570385381
-0.01158129258053784
-0.02326802746369591
-0.014815331371634047
0.004610294960308519
0.030120756376499143
0.04242745333722282
-0.014052300589472908
0.04378886221608568
-0.010854183742712518
-0.02011781164535831
0.03705073673414828
-0.015551293778835528
-0.04306393829539244
0.0391479358343791
-0.03513202409472607
-0.03797387289165054
-0.003777339665405661
-0.03079737491020126
-0.047936645572923306
0.035689894803560156
0.04031008540092022
0.0028743978491821516
0.013410961510859057
0.045764513928225406
-0.04479912996560573
-0.001383731484205272
0.006466654883241794
0.046947402160883195
-0.0479318038193218
-0.03813129741316106
-0.03621704168717404
-0.031865038414757976
-0.01122689023420631
-0.025260397232694617
-0.01815046774961853
0.030947214094316756
0.017022784616038136
0.011110845297995345
0.0171221172780844
0.012657672378751409
-0.03139057170620965
-0.05228728067445509
-0.010675118515439463
-0.04441330527660553
-0.01629116379530386
0.0321539579323918
-0.013074116597048883
0.042564137927507455
0.03722987440471394
-0.023614913060539
-0.043502706772501384
0.027943689088190112
-0.02672741633785675
-0.013006379430784283
0.032918357666477535
-0.03432146453241698
0.02454780190139
0.0332690068935928
0.007631362669755576
0.020720083718354983
-0.013327977488967606
0.016524417813053426
0.018422368407296972
-0.016070596408215163
0.00514212554344218
0.012416259999411521
0.017647305534006733
0.004109119282351593
-0.010454912777340751
0.03178149573636952
-0.05126006635540547
0.041431151594517435
-0.04907748600736729
-0.0012816532616185064
0.04532082702684676
0.02188694998991913
0.048375331946690685
0.029663888686860075
0.03698926834989115
-0.011997232338474344
0.01407719262314249
-0.045008762675165945
-0.048896001115154276
0.013619587393732556
-0.023125612120814473
-0.0171405941356002
0.003674019630017061
-0.04191189966402101
0.017981779452055157
0.03826682680741673
-0.04855912020748584
-0.022749369544527703
0.010132326754677774
-0.04807804366734357
0.010054567142407768
-0.027067924004922507
-0.031916986723788586
0.029086093737774057
0.01680162200796125
-0.025628727299177208
-0.044926877126100946
-0.030968660590348057
-0.02189050734509122
0.04010974347999815
0.038781782029930344
-0.005025130203207818
-0.015534073466261388
-0.028289327433414224
0.04362069041822152
0.0446576103880496
0.030290635564065336
0.01405885375584851
-0.024773032984232637
0.013081105901576328
-0.029474554639500307
0.013321798278614471
-0.048801760440923776
-0.020144239201386988
0.04509078382475801
0.008643509500209819
0.033791199213650265
-0.007236883436429793
0.03966123281442179
0.015134668949842752
-0.025482489959485058
-0.02099348237122309
-0.026926076416029225
0.03521333030483536
-0.025835738317399073
0.04571850402171736
0.011640704141939769
-0.04818007140968266
0.012478473890049848
0.042042814671161256
0.032026798100572434
-0.028070145852204836
0.04171291692416141
0.02421705119487463
0.009911222293134259
-0.020791557509466055
-0.005290674230975533
-0.035681173433996974
-0.04438257647402441
0.03025819086137295
-0.03337740652322872
0.019567546802683515
0.03326191191270184
-0.03689577931882032
0.03974294520520371
-0.0036688077399129465
-0.02122951637370527
-0.0042290138288829885
-0.024296487998879582
-0.030799682982641963
-0.0286971647427172
-0.002620320900379418
-0.035672630634734484
0.03624627021954717
-0.017353481042603765
0.022183095768875925
-0.047567115240545674
-0.014548419549025063
0.00982335686473737
-0.00968489724899168
-0.0305926935233281
0.03357159230092655
0.0030981624379163623
-0.036966185159457446
-0.04854811877985171
-0.02370000919014118
0.03378509778823317
-0.03678711429022014
0.005069268030719907
0.037760582226600406
0.0033338543097149024
-0.025138400175002424
-0.024072634168089673
0.02820749152439154
0.04320489717387374
-0.044793379943265904
-0.0035440524852526144
0.0365074500449425
-0.03321959502590885
-0.03326956123956687
-0.009053634054495364
3.650264005011877E-4
-0.026251352770541102
-0.03153998374968481
-0.011043850770704433
0.002851198756509631
-0.013297463133638483
-0.039761102833519316
0.0032151453610619767
-0.00574823689468613
0.008600387563614463
0.040186767617175906
0.0385467345906526
-0.020796703266594756
0.021706873378175364
0.00623153356012035
0.005009685235206098
0.026312782811082933
-0.019514908929550257
-0.028208822229262055
0.021100696655028842
-0.016279199370674402
0.03587131780367048
-2.4084296896801857E-4
0.028153250190716666
0.02399064430175803
6.558775208792682E-4
-0.03375834284395556
-0.035228659330688035
-0.03665382470709547
2.77913899852223E-4
-0.006624334002171917
-0.028913900201273303
-0.025593881779612634
-0.015427137469843723
0.016004623827742485
0.04231609775754855
0.03133621239931614
0.004946247131540243
-0.036984105353223856
0.014590570660703376
0.012111722676808339
0.028081464556573277
0.001381603337485806
0.01432782672780546
0.03741910234345769
0.020801305916452597
-0.0077929694805120835
-0.02880268155086211
0.04170188142636276
0.032472052967756244
0.005901186825329264
-0.050886335227525156
-0.048719423034253646
-0.019582955461890008
-0.04365624421985543
-0.018950735395932228
6.356651269723199E-4
-0.04053994700916048
0.040714146578640344
-0.02830043690033734
-0.021490441130513814
-0.039594711880172315
-0.016281030661064178
-0.046782752490950416
-0.021503471728125976
0.03880320183690052
0.031988683579105684
0.040354527149621816
-2.369154449842766E-4
0.0227076513508478
0.02087312687792901
-0.03476175704558811
0.04526282757327574
-0.04492275310964206
0.005825210542696096
-0.002490931162753592
-0.0025829373719941304
-0.04309813599482751
-0.014732420207639787
-0.005481097972745822
0.04038766432656538
-0.005762804574732798
-0.03621306087770197
-0.019913046381282315
-0.023284149913866264
0.0391868068087529
0.006259368594645407
0.04375052014277577
0.028704716008425966
-0.033783250525265124
-0.02554525819634508
-0.023306118807887802
-0.028093888212564793
-0.019900082855084877
-0.005900697961456442
-0.03525678198509593
0.04129077887082242
0.024360777797182768
-0.048806649469471726
0.047910957186998525
-0.008180843727949989
0.014814886101069413
0.031940995527061894
-0.03101200627899431
-0.02312574332187499
0.03886913760478784
0.03472305538114287
-0.05257798786472074
0.035000436382069997
0.04791282031367671
0.007102836691952691
0.02961384092167209
0.03526163897565524
-0.03407222208588689
-0.012615957998232775
0.015325491712732996
-0.038456201949605376
0.021117319159458785
-0.027049339398537375
0.046753033234789625
0.008749185407477067
-0.015479098188041586
-0.042968343258706874
0.023252650943528585
-0.04427842105089095
-0.03340250222545227
0.009029277237638696
-0.023727244479626187
0.008140015019696077
-0.0141105971583287
0.0333046758197199
0.042323872607012966
5.299702048701553E-4
0.005102215243062376
-0.03149909880584437
0.04748600127755951
0.010648725918877468
-0.014136266058063788
0.0447793067896891
0.04112244490060524
0.04672119624682886
0.00940212535491693
0.03614841529237246
0.005315312258163121
0.026714394432181564
-0.037862775973769046
-0.029995736157755165
-0.026340960225309306
0.017934757727406592
0.027169742252937366
0.015887052675460114
0.015988677833106913
4.440919971665841E-4
-0.002703631967593039
0.0047572091631992615
0.018695039393518496
0.04279632507953171
-0.02127466389801992
-0.030148610989535887
-0.010913320473834047
0.047978728858949896
-0.05094620903924453
-0.03880493942490004
0.00592570945199674
-0.039517519749833814
0.03994966959959652
0.049535805638634516
0.004935624267609935
0.005019460704846055
-0.011708642192752906
0.024939766539991002
-0.03675037903106151
-0.04932260213544189
-0.03958422873558118
-0.04070226919975351
0.04442500441578206
0.02882968385378011
-0.04569359997542959
-0.029406451143049413
-0.020570547395386184
-0.00845402567025674
0.02553881209798642
0.015512648278258656
-0.024670807252328147
-0.004744389263611045
-0.048523757687154015
0.033886201008227604
0.04393318420924214
0.03931363476144555
0.02330522140457166
0.02863821110334672
0.046783961203157594
-0.025409167179864085
-0.030350931847881294
-0.023331901457679348
0.03452960614156743
-0.0011634666695198926
-0.01402187755574274
0.04512279556475675
-0.03810032417944383
-0.022787595449425456
-0.011476082521271426
-0.007554657569396176
0.04687062175147968
0.0030696829015248502
0.02233923564400467
0.03608883139951442
-0.030410729270601466
-0.0025705402824964564
0.027429795432289152
-0.04996962028147858
-0.012855172708939898
0.03765424010801604
-0.02998505536406555
-0.003071220681357578
-0.022622015112974608
0.013115834376659662
0.03127949227219602
-0.03879140947150603
-0.01507483515775095
-0.023231456236301434
-0.0254722280722327
0.01765815656758768
-0.033997005482720985
0.003916800812705602
0.006297280634505869
0.027589783086318306
-0.021897227551871196
0.01741913404935693
-0.03135129713538926
0.017892238448598295
-0.009084095967464682
0.005009807406656818
-0.044710032687169735
-0.004683508704104074
-0.003740509031519211
0.021212468817792294
-0.030930475086577168
-0.026116639419277585
-0.039462230891927685
-0.0011375895429807587
-0.036504608964124635
0.03965355214323055
0.03538043310868519
0.007574110072672872
0.04266776668633925
-0.02939681254268429
-0.04782204477761099
0.018976781273366994
0.040547865557861426
0.023557205005022397
-0.011964908332684928
-0.04702596746140972
0.02150940882652579
-0.04889816293657375
0.003208938067678892
0.023983166386022017
0.021122557746482373
0.0466581097504722
0.005918070165778109
-0.00315556299045632
0.016005019916347046
-0.028538558735380214
-0.02049544965700645
-0.04405958327070923
-0.009510268915950583
0.04737146456646945
-0.0295357072122118
-0.04821389298567822
0.0487133141624084
-0.0463394371448523
0.021705385092862694
-0.0022753790417285903
-0.036870932626195924
0.026720702716849606
0.018336569344375258
-0.030058241091457404
0.011987651703037753
0.004546337751697117
-0.004583564892303076
-0.026499939387518167
0.03168913845096468
0.026246792066781502
0.04530822552277374
0.010807708004416102
0.039568075691256095
-0.044030040936470616
0.034350272721879724
0.0014368297219703738
0.004303742550147363
-0.041636769273571454
-0.008396112688012897
0.029671434277827355
0.03846078841280783
0.035817670688786066
0.027340899605159962
-0.04935494393046891
-0.04321594998650193
-0.013514358863743272
-0.027810351006050088
-0.04158550827349897
0.00548284246705445
-0.041965149672024755
-0.02198702622698572
-0.028786706135977953
-0.02907855491238591
-0.021355972005616255
-0.00598068510444198
0.05149374762028033
0.029520791354349735
0.014722170915510705
-0.03843848677763707
0.002204395219845384
0.04519429652017084
0.012112778118278563
-0.00207615773739323
0.033051823716778596
-0.014282000102291366
0.01483022401356392
-0.032524715817782296
0.008658272192373534
0.0250057508299102
0.006892098861668873
0.029835766138084807
-0.03147464999531318
0.0321896490920099
-0.03042671962622925
-0.041476634954983556
0.04387174478631008
0.03937422731028459
-0.03525127580857241
-0.030064716173688055
0.03040847940598334
-0.02970443699736363
0.040743954759949075
0.0057949159815791915
0.04515700174752743
0.04242763092786773
-0.025454658688386044
-6.210017087512269E-4
0.00296094883486645
0.04347306539319763
-0.014577302065504774
0.004650069415121918
-0.013514823494136411
-0.025761297845884056
-0.036314854534680856
-0.02691009069464823
-0.03183755043883001
0.02236084133693305
0.04301860824464826
-0.01998685952402131
-0.028346407437205484
0.0016611955047422813
0.004909747820496465
-0.028401501596513053
0.014878389585510287
0.007667261555130478
-0.0021408635344043383
-0.03257482902767212
0.028268889936706888
0.017751102480538614
0.05037406932493966
0.032473332050790525
0.005853182780082373
-0.010225301928344989
-0.00383274113006107
-0.0358506952360534
-0.03941050105157969
0.034596887885332696
-0.019097252298621678
0.015701407075711656
-0.004771290864943705
0.03610187813748321
0.01731900634515819
0.022900152741805836
-0.00902947954583874
-0.03525342696287054
0.022073469734463433
0.03710704773549916
-0.02021060800344806
-0.04141503364366939
-0.009383961261339465
-0.023940470262293626
-0.047385363722183424
0.00813137549805639
0.017075554546413258
-0.005925939595310828
0.016350932137891388
0.038103499542706185
0.05680144830308755
-0.029244071559735237
-0.037189635136895924
-0.03289224296115392
-0.047635766967839915
0.008549254500252977
-0.04267739303903558
0.004485588237855646
0.010420666704608877
-2.0294162617204027E-4
-0.023688635036539327
0.014719299825590488
0.03523645376667846
0.032579163392940216
0.03546116751617259
-0.008718461444734678
-0.013292498544461679
0.0403851140097494
0.0024527499132890812
0.02677732622949601
0.03156954692240495
-0.021301832707271703
0.019956289936823007
0.03023006811756398
-0.031751730015529896
-0.028374458675217838
0.043524792237320684
-0.016796987287707024
0.049868110711247464
-0.03536922434388512
-0.017649154161189406
0.02786221458302315
-0.02173373364655134
0.02272084970465513
-0.043206589125824486
0.02057001851494016
0.027495020582783924
0.03717120111315129
-0.02940913161758927
0.01693319745942554
-0.04016957322126515
0.0073965988068733345
-0.04435130210491336
-0.006643456245020073
-0.039837324649356326
-0.04932890722055589
0.004216983330429318
-0.016201105385862096
0.05029502517267081
0.0166612763400991
0.007654511370591973
-0.018758786802937487
0.016524951164112338
0.016630207950330086
0.017026424162078647
-0.02403966614211033
-0.015427328349153545
-0.00487926347068585
-0.012367845671380667
-0.007831735087749472
8.135275430214133E-4
9.769438852023878E-4
-0.011754660805640825
-0.04802809969658689
0.02790746378820663
0.0220815420343608
0.02710796242106806
-0.013222418683955814
-1.2677773691638225E-4
0.03090912652181983
0.03930203118955703
-7.582846496896537E-5
-0.006649028201334283
-0.026654759210575543
0.02785735845361511
-0.007231898736944482
0.01478362931057044
0.016334000724962768
0.031944262322221084
-0.005777223520464475
-0.047065773967059216
-0.03872636364625461
-0.025322629959128363
0.02104130928755201
-0.031788328253416986
0.024748676462944194
0.012630024085489359
-0.017764833382154243
0.045502435073691457
-0.04172683189090988
-0.03240497613140331
0.01797215606365278
0.008517629026587363
-0.03455771596771673
-0.003144367758237572
0.03996005310504129
-0.02029579343028613
0.04208385033856932
0.00843619879806155
0.04859842415829747
0.013162465324605141
0.04578093561459622
0.01628157648272563
0.038799798677674455
0.014036232987631594
0.023072328078922403
0.04089789924651516
0.027549425758320464
0.04361196212022833
-0.04563992966033092
-0.022327546552867263
0.04130659456095404
-0.020622035328188265
0.00468044375000285
-0.012449254938758418
0.015311656010389713
-0.01076455235053589
0.013690864614691692
0.02388266938897502
0.03154583518390993
0.03769731740218602
-0.03221572501131956
0.02830952852361416
0.015354928930283226
0.00864514190803088
-0.04950276172747356
-0.0015082593278064142
0.04843273329124947
0.015738037917603157
0.008437857728500598
-0.003849403029297545
-0.037087685971094686
0.05096937577596874
0.04525603282266991
-0.029673436032389817
-0.018544452581643407
-0.009064430793196129
-0.019268980928893727
-0.04654027342567139
0.018800930642505768
-0.018514131429328465
-0.036922848678980616
-0.03835995414330816
-0.03490603328025556
0.027987727551647048
-0.0255055483957434
0.00148378047966683
0.028111683329752616
0.011932551748147481
-0.029502110103204568
-0.033262307397118045
0.03609656569377031
-0.04923321109845657
0.04821997546132905
0.020301557036958632
-0.021970873720807034
-0.04053706114526579
-0.04052298967146984
0.027212499597153043
0.0367107547235212
-0.01135169946802324
-0.011812118942054297
-0.0042231141010231925
-0.0019454304651624012
-0.0046803771873747445
-0.008246093698018979
-0.026333749790895433
0.02828514511668991
0.005480180408121481
-0.01320800254027987
-0.04294727105254698
0.03800534861314361
-0.02754359440213083
0.01596521856741314
0.007469666019301652
-9.17122621183037E-5
-0.018557913954404332
-0.022732185715471323
-0.031016535293524227
0.04194848534402294
-0.008079904130796995
0.014492121863313412
0.01611792245972982
-0.019859604446981014
0.04148590843132552
0.02940991783061747
0.004952397635100596
-0.03489008691047041
-0.03741436763745956
0.021170790945801873
0.019799280395186317
-0.030690284893014154
0.03416360071215177
0.010852858062200743
0.01703608340429598
-0.013982720724645606
0.023110115738249285
-0.028468365123724422
0.008960626089187771
0.04102898116447582
0.0037755554510614177
0.008621963638561844
0.005123682620059321
0.051283386344136546
-0.01674241553237404
-0.04899420765174609
-0.020054776865378973
-0.005849750481640939
-0.040819328274271045
-0.03378289706778815
-0.00740095509341754
-0.050131697409850996
-0.004791129878369576
-0.010034398122248656
-0.016286795404708104
0.013832061831752028
-0.007545518808479048
-0.005269755024782026
0.016677759783854003
-0.015496828229761731
0.018125387750892216
0.035597590383583906
0.001177094924553603
0.04871965253537294
0.0021002801106402395
-0.008465813914273616
-0.043273928906618915
-0.007518315711069533
-0.004039828413911801
0.04257223095574696
0.018502594477908457
-0.03312752339847472
-0.020358357203413866
-0.024156178847275805
-0.028790065306835606
0.026344724582732168
0.009733792961343992
-0.017462136578463027
0.025900598090683496
-0.04301627868948609
0.03584861332761991
-0.037553619341332105
0.0044574303054634315
0.037565247923003704
0.023946727495621715
0.04544650761807804
-0.009538987016664904
0.0070542037799367205
0.031690971778028584
0.04286206709227576
0.035571789408923644
-0.012311836710956795
-0.008595162753647363
0.010252233958684803
-0.03937263768552233
0.04293113767760484
0.010680060956278511
0.0372850879692627
-0.02184173576935205
0.04665678759559839
0.007114935722088055
-0.022986084975966548
0.03741024521544988
0.013635871066425926
0.013931214218552625
-0.011691274341629318
-0.037295349109222976
0.034982249996948905
0.0355131846876284
0.02605820078689788
0.051314179575644533
0.015450526946894045
0.019153871429499453
0.04941171352438145
0.028084705957916633
-0.0032561155954787453
-0.041497508829149085
0.007342126944530241
0.03019543156279843
0.014758985050531005
0.024439914466327834
0.03985015716599926
-0.028179955277680236
-0.009135202174509745
0.04423578883394563
0.006363700535850465
0.042126853293835094
0.005720694167054674
0.02532991297407647
-0.02028609211031014
0.008679246638140866
0.04500721690118147
0.04700378521058523
0.003181346534613598
0.014247934130662224
0.021530785713532306
-0.018614367655804178
-0.01984585929799682
0.012529157503611157
-0.01040911445342055
-0.038420735441252844
0.020027492158772885
-0.01942710975157443
0.0031094639811707343
0.0408338348903031
-0.031737644031968555
0.04160050078334502
-0.03069706357283747
0.024785144335732118
-0.024700091880800266
-0.03884367881210226
-0.01554315170424996
-0.022964868285351582
0.0025397522124560403
0.045134849643775704
0.040576671531620534
0.022331621097096698
-0.024481788404210083
0.022805306337364276
0.03937479172949076
-0.023483336970982465
-0.04915234734005058
-0.0246836010413589
0.028735023975822473
-0.0267105084721633
-0.014127318833553783
-3.4199018682136396E-6
-0.024067497887716227
0.0313145771972457
-0.04187634334215925
0.02233906846168632
0.001169973704369467
0.04088787497677095
0.046624084498927416
0.017605985300545125
-0.026754095552427495
-0.030584503123486147
0.049653046367688906
-0.020210011763871816
0.03610499735869894
0.022421308381799662
-0.0011879398822386374
-0.03965143030651114
-0.028669947507578206
-0.0478852116098066
0.04471581381909847
-0.035829866983228736
-0.03551736130528403
-0.0488064990503334
-0.03544644803550271
-0.04558255558683878
0.04641407638186655
-0.01955156658722871
-0.010034503394411047
-0.013454377380738089
0.052229345804064874
0.03313984169215586
-0.01284610972073389
-0.013158214735997846
0.03457227469154098
-0.04044833084174059
0.040170011350565776
0.024953422474064724
-0.03582338681891772
0.03868717748627643
-0.01619263390713587
0.048523346036333674
-0.03597836588453803
-0.014673282419007588
-0.016659304408041566
-0.044314354682370126
-0.02611036098431388
-0.0028918534864525404
-0.02847038065256192
0.032188620468666565
-0.019935653232685955
0.015091885592410745
0.007348686392459225
-0.03426044754256755
-0.004943948193600196
-0.012327432032361451
0.043169239345073954
0.040455579014549825
-0.029259172462559345
-0.001978522501620231
0.016814158234747474
-0.033972247042871585
-0.013179895744647499
-0.02293794314888429
0.021064054807170763
-0.041113016637813644
-0.017868160472175498
0.03567059035321674
0.03901131071579948
-0.006585680066497199
-0.0029479572530147157
-0.044995551891645516
-0.007943046305910582
0.04504405215052194
0.020268314697042922
0.0012771901820649925
-0.029402558288097805
-0.0017640436654995633
0.00772616509827106
0.03380498179936241
-0.03292386362534593
0.011036044645248426
0.04733695422166318
0.034251102574831244
0.008115692556835405
-0.02044976075497821
-0.025315918049674088
0.029141009246973864
7.957522922681579E-4
-0.03627692489570859
-0.023615179771330215
0.006457093048524627
0.010407054614944752
0.004018016506377031
0.047481384093735375
0.040280439785039375
-0.023381370803221346
0.02292851056628192
-0.04681201493887417
0.04531665489462611
-0.041448891154538606
0.025885739078304763
0.03358101913422764
-0.002799120756505138
-0.0028267227753374603
0.020981361988290027
0.024009286950357627
-8.588525526482907E-4
-0.04950405491609918
0.03092767860986971
0.0348682208236342
-9.048689136073904E-4
0.014391448572419025
0.045751117317633684
0.02462893977059108
0.0382781638371671
-0.03891828663016443
-0.03380697520704772
0.008898543414570111
0.03149365468335373
0.04764343313632051
0.03926321315758896
0.043277880928949866
0.0264383563216468
-0.03291920946250224
-0.023249928901827765
-0.017135429468340894
0.03155827149008824
0.017312166338369173
-0.04290884086122191
-0.015668740111585058
0.0321604525874737
0.011119349308820064
0.010655022709064328
0.024012625914642063
-0.048574181881504426
0.028746125241852022
-0.010054586756064835
-0.015513743856236056
0.022506852265433336
0.014107296934523613
-0.04368796548163641
-0.00723044883972112
0.04888083769819121
0.03951840237208
0.02472396912659162
0.005504744683317042
-0.015467011984224904
0.004773243623958924
-0.03734833724693938
0.045895092829697996
-0.009936923132013846
-0.00865234824436346
0.029455409113742576
0.025264056643116393
0.04629970605145899
0.0012126771658579573
0.011096440415945187
0.008557294303584286
0.015354445611288865
0.026068448466070128
-0.0031448603106764596
-0.013123842247086237
0.003517613224822431
-0.034626595407084605
-0.02962442911172369
-0.0029659594861835797
0.0318695145598134
-0.0377677124662328
-0.0429155573986472
-0.01469013956252195
0.027886881223978435
-0.03809116197688763
-0.012603249997424048
-0.040651227045302434
0.04726597387307607
0.023407121415710188
0.02742741853078035
-0.024888321497805607
-0.023551980699193384
-0.018349556539117157
-0.01921984691855745
-0.02022943218625162
-0.0017472591787207844
-0.040674225623593276
-0.001652030282032905
-0.03908360077407258
-0.03659631776353734
0.02393879914992931
0.037944937696533655
0.04124057567659666
-0.03064424875217102
-0.0207648831085002
-0.033563388489680525
-0.010969274559249492
0.032836610204887956
0.022671188937129494
-0.03884208190316881
-0.01762934408645473
-0.023402735331666594
0.0029205954417473334
0.04133615351467665
-0.05047507858852086
-0.04434399104679641
-0.008498218738932991
-0.009480160230420948
-0.02627308568866819
0.023552680088244286
-0.011575958648864421
0.0018067952182701248
-0.018510972569036846
-0.02347593865623198
0.00896219776014282
-0.01862499727073374
-0.036228650140531955
0.047423290424298756
0.0055477096603276
-0.02412823572457255
-0.01981133956175145
-0.014417947659811777
0.03739139724022068
0.04694001567981869
0.01879842599236061
0.034550430901058214
0.040973982979239855
-0.022258295860785905
0.024488981767030647
-6.215468517238495E-4
0.010659946624194994
-0.015225409295648556
0.045163388142391084
-0.03362046847714772
-0.019882938311156746
0.01586266419191572
0.036463987708609875
0.030146936120574147
-0.007990743730995904
-0.05042642188819934
-0.0343937694138382
0.028300710388018232
-0.002826645603412826
-0.048057058150629134
0.02178994760611428
0.049072136220785184
-0.0186041052613036
0.015583305692580235
-0.035092576649086514
-0.038394551900008816
0.01814523798995041
-0.003765075995143509
-0.008984215924597893
0.023046695537143877
0.04937759178821934
-0.03235527759098466
-0.040388135682390296
-0.0019110083091039831
-0.021208647839421318
0.037529823719259954
0.038769454204479255
-0.045749236012766904
0.010128560464530312
0.029629794405392804
0.048548790231401275
-0.037359657649740745
-0.020929606602021294
-0.027648071698896846
0.038882021356526957
-0.04139359861615875
-0.025969888635943166
-0.03199948136630259
0.0342905167926042
0.03976147854883702
-0.013795791446618738
-0.02788756446628778
-0.027588554302246122
0.05381002761463128
0.02465237391077931
-0.02894645088028682
0.038528205998737824
-0.045111746982469225
-0.03726780485511633
-0.016104853095565332
0.015387413878625642
0.026473560441743392
0.015580786265926412
-0.016887647775543736
0.04506874077797035
0.011887074844668794
0.017369668040883343
-0.014650840918523872
0.027494938212602522
0.008062101213513834
0.002378953596091586
0.03056543573662228
0.039610424982219464
-0.027148528186411062
-0.012400095654242521
0.021308075184182908
0.04141156960176578
-0.002642765046673625
0.029788332599071213
-0.013062280107209102
0.03946352906225467
-0.01453803770207843
0.028513899051151936
-0.012505491918176717
0.03637604374045341
0.014492211783783107
0.04272338572857877
-0.04576257122478336
0.025219489265343568
0.0024223771617042917
0.045772922893234515
-0.04140123558067386
0.03876179859873234
0.04313152392586837
0.005418325459906006
-0.04576392887421966
0.016923527592350895
0.016091219275666535
-0.004040642067375916
-0.04669387967465184
-0.010835310902596162
0.03476249145950031
0.03862689732487571
-0.03920656154986288
-0.040011025618267304
0.040267081199309065
-0.02796922094428613
-0.002447935222218404
-0.025296948584163346
0.005667045593112155
0.004084805522740158
0.030880060283698354
0.018997860662198694
-0.010918022332613528
0.009718793760935329
0.03315044025319459
0.006354621538250987
-0.0018576450965737579
0.009136874654168852
-0.011994163847551139
-0.020350473882704254
0.04647195860386283
-0.005177606888148374
-0.037150382306861046
-0.013828915201215911
-0.003377234293382233
-0.005811656223701111
-0.01511311313150384
0.018157462095475647
0.0071994016217047235
-0.026288284602312674
-0.04728628282620834
0.014435851057457408
0.021247513923717234
0.03974887602046568
0.04993210707825063
-0.012365219041841284
-0.03905774905386407
-0.018109252738223648
0.015145186912283512
0.013175605569357724
0.047697679882649745
0.005655266761760186
-0.023493214489851855
0.03246222425224736
0.040197099960028064
0.04043366912103443
0.05018891133829046
-0.029778208843581497
0.011715856354564704
-0.024012474183809876
0.03878512029731582
0.018152914170936008
0.025176452394952795
-0.014513227218070447
0.020614416244562714
0.030812824177697734
-0.005779201941064892
-0.020809949728239303
0.0022792502247812384
0.041980534797796655
0.017557255492487545
0.04396280196678293
-0.015164225672630864
-0.010485881713075596
0.021972046265954046
0.021256277961437708
0.014075862916524021
-0.006390938311105132
0.029797171729130198
-0.028608213102407538
0.024833063892138896
-0.01945082339799528
0.006347233263767729
0.032269657254005
-0.046511677104272904
0.029073272979637316
-0.007043487287135081
-0.016053176814362684
0.009552385722791245
0.027807268870826445
0.0010151526353528073
0.008342499681907268
-0.03383486755703148
-0.014123189279522913
0.0215587948388741
-0.036591230622289986
0.0073103510240183885
0.010256506899103015
-0.043745080689342866
0.02005532084704114
-0.03874211717993785
0.012860746717486783
0.027492789237413006
-0.021459610545241724
-0.022755787126619628
0.035824447621388755
-0.049630270957054363
0.037949960175473516
0.028902375935102975
0.03065687222545072
-0.005280823188591725
-0.04604924005710123
0.013405690219287916
5.965463001263335E-4
0.03487556530942664
0.026501660530137576
-0.041626370419263946
0.0377296937481879
-0.013898101097893911
0.014642584004719796
-0.04081086314229427
0.029778832487214392
0.04567566843126331
0.040047161195637095
0.003726550323785979
-0.0316254410549148
0.050638147072908306
0.025225892824753834
-0.031282862665272596
-0.00870876321726026
-0.0227491380082792
0.008409735600483435
-0.013012958064764359
-0.0031554180379518475
-0.0023380347446051676
0.0012205427289948133
0.044992704649185734
-0.03869574925315166
-0.00839586157007043
-0.04209222601510429
0.015645455907167052
0.04769107985781368
-0.038362914335002316
-0.02274787167783043
0.015168544606023137
0.04924455808552093
0.009290132125970749
0.047544575395187
3.1540780378387276E-4
-0.01299081539720113
-0.009903156353962566
-0.0034526505977653804
-0.0019331136357835367
-0.040458853319026745
-0.012169197687785993
-0.03146305011344267
-0.039940990119291385
0.008602941835530929
-0.045930438402753036
-0.00690184714707336
0.04361975157659062
0.04160668907711924
0.0025569329989619527
-0.0442389472099909
0.02190181098872491
0.026700581137335047
0.03204234514429595
-0.020101997168652613
-0.0231519702280077
-0.044088011582715234
0.0394121209081309
-0.0376082701406409
0.05085069250043753
0.014990992966266556
-0.011938621212114782
0.011994659081745468
0.05186154696437271
0.05214680677326281
0.04044395734197865
-0.017396504812543973
-0.028086300326064958
0.04962831885519466
-0.018916955162072164
0.0010829254485480938
-0.020569118169846218
0.033868811112811606
-0.012971825217542888
-0.03573135375889604
0.04710346071301033
-0.04210226212108858
0.036213281378542614
0.035198111468258964
0.013701652966604546
0.02879285837274992
0.03669948516347659
0.016207666112023778
0.01689769320097852
-0.03837848807080251
-0.041026052723128835
0.0445668538747708
0.0420177267707693
-0.02293892531606241
0.041499968262221916
0.052404519567401324
0.002785420151621183
0.00106980574494019
0.053405252036701725
0.00399233893839292
0.013308744307448956
0.0025049523596707224
-0.018871063469008253
-0.019893757505928828
-0.04629919087638449
0.013092660518753343
0.043583279672665294
0.03538018689313118
0.03323967160304035
0.008897233973681785
-0.017062747512525216
-0.004573002566220361
0.021639774286459343
0.050417310229249196
0.0067895668133297424
0.0018102506804947328
-0.005943780681235556
-0.043962953080709535
-0.025641905328551186
0.015108554242653189
0.025926079228180913
-0.04813392924114575
0.02751473932353622
0.020993916910518183
0.027192297328188245
0.015196771267359034
0.033348526230359006
0.03487371034301196
0.024378465673779152
-0.04266745656998184
-0.0028741718034315817
-9.619104742051648E-4
0.03485093705129027
-0.0022348437414426883
-0.016824300722118695
-1.4126698400867258E-4
0.028812446356193455
-0.030499356241599856
-0.02034922317141372
-0.011960908675375541
0.004485154296985613
0.03538420744796665
0.002475685772432848
-0.0014222397424111292
-0.02276285157846885
2.3355734844983264E-4
-0.030297590573625525
-0.013524705454629795
0.02127039137238369
-0.005252270511795533
0.04135413837061241
0.01967909620573174
-0.041063580526508534
-0.013693189462399958
-0.007769353074762239
0.04970388159208204
0.018662579077043745
0.028463490107483495
-0.00799706231669591
0.043319267463214094
-0.007937585392905296
0.018020321451703385
0.03420872743991133
0.04180591207837653
0.03070216932154958
0.006690540514984067
-0.04857827871385409
-0.01693744220275023
0.0182359690045067
0.030607897213009386
-0.03570747189664267
0.027064865372203765
0.04186108323494722
0.028312999458111027
-0.016232800292350066
-0.046068799703882266
0.024629053197233082
0.015417206949722559
0.004498987294500921
0.01239375999477845
0.009797115186183243
0.011974528299981172
0.036012699126518735
-0.03452009914586682
0.03346270222307594
-0.035590432414238
-0.010893620535666275
-0.005394292409504115
0.04278532734200432
0.03217306466965039
0.02436044133343839
-0.011906357690173525
-0.026475056006616683
-0.04741171755082225
-0.04932133976700971
-0.047169579870819774
0.016811425184728477
-0.04953356295735165
0.044019768005183584
-0.03191632327321314
-0.03410705117906847
-0.025597784133073252
0.01589449069550198
-0.009687772126360551
-0.028676926169798955
-0.05245450121337419
0.014839943386697646
0.004985678200660702
0.0551409171377772
-5.000908498633004E-4
-0.04334293303606397
-0.027811428916628564
-0.021685538105956068
-0.008479190407003033
0.028054860722853105
-0.003925400015328176
0.033989980724959186
3.455199470941367E-4
0.005955203229744952
-0.04702584743945643
0.02822076641220058
0.017673117050984413
-0.001100916472069642
0.04121928542873496
0.02638827142727066
0.015339522783768619
-0.04553773124376286
-0.025825168873416054
-0.007771886154086579
0.02990430481378423
-0.01190485618257458
0.010088155147766696
0.018338616508990012
0.001674904834939187
-0.020068670344276448
0.036178014695029084
-0.028406332292570526
-0.020213867202225434
-0.04501944973950336
-8.994808243154029E-4
0.03905538780148805
0.028751184913925937
-0.014497842469902811
0.011829572457943012
0.04654384576791837
0.04335694105120085
0.002556872637579478
-0.011745922775891798
-0.03914254981789306
-0.01645594451139223
0.03714377927102334
0.04077429108755832
0.0051019703801841775
-0.03005802808872266
0.04383820476264191
-0.00218760629152305
-0.019268693389555232
0.037511802377657194
0.03820111136333672
0.004622762473856256
0.01890283517807569
0.04722979776064879
0.024441642966882313
0.04534085961812486
-0.022729510696526734
-0.028313514118545213
-0.006922410717670582
-0.014436844768124556
0.0455455106011441
-0.022325386312195477
-0.04588923317224345
0.022727972979495806
-0.044833092595752744
-0.049423364390317755
0.048659239303510744
-0.047312168923890396
0.03954376625397258
0.008506219847648365
0.047694206221065266
-0.03667646928712373
0.03229385368980659
-0.017370947356476187
0.03509784238558897
-0.018306673584317985
-0.015312870679682474
0.040505612873413914
-0.04312446376032274
0.04846130601504104
0.021365823367148803
0.03105950236853686
-0.03800469589376368
-0.009360754130936682
-0.03417131207606936
0.006238203299752784
-0.009721327455027346
-0.043912956536786674
-0.010282786577165432
0.04844401763240695
-0.03294727782486709
0.014238572565995812
-0.03345380186692471
0.03871751928231772
-0.042625978945409926
0.018612121629790646
-0.03468668748013923
-0.04533977753221279
0.04182429146966509
0.04495248165520149
0.009633862726343685
0.05019763207038021
-0.04411593128345412
0.004141899694496827
0.053571752716156266
-0.017985652643162212
-0.02965329503967294
-3.416244284005694E-4
0.029432028808365873
0.008815858269402774
0.040973488338510826
-0.023373813710525604
0.015547785248418124
0.049921067736303296
-0.00535417432399648
0.01047475277499579
0.007449265780917361
-0.04688202998446252
-0.0137100530298857
-0.003811065136550371
-0.021097555337687677
0.008965291014624854
0.018676647956405272
-0.04437795600546638
0.04115373292336665
0.039028572438686675
0.011394479353884794
-0.027397024244834547
0.04096427144399167
0.031518014401741026
0.04950981925298043
-0.010236131271385472
-0.0016504566333091527
0.05295437489203441
0.027780752031693962
0.05057405940738684
-0.015596365763737163
0.021252789435003618
0.0062744111754559255
0.04188352988659045
-0.009671709027543555
0.034442359497739196
-0.01927202744250667
-0.020040331106746974
0.02638916470541698
0.01395298581113216
0.020877343752230337
0.019065919416760543
0.034537687200331145
0.03648247258630587
0.01963057943198911
-1.0087160594160103E-4
0.003143189632577184
-0.016595222305422926
0.03267107026286384
0.033354301751024
0.03293958965018943
-0.02587290456570509
0.05139800756149257
-0.03679379674613657
0.02082049987464625
0.04483788321341543
-0.017216272627403433
-0.03308870930007542
-0.0037244121810471203
0.03856598921820653
-8.103774782792514E-4
-0.033436104243257984
-0.009056513608248115
0.018486520029243884
0.03514539738303359
0.018424092960738846
0.009210321234260972
0.03247571345274347
0.007144488446885141
0.021866432680875132
0.004743067745063878
0.03092732975008129
0.034259068607115126
-0.012769330339658104
0.024392895699229138
0.022897510268750015
0.037625536859406894
0.044508532852341055
-0.015823985474996752
0.049914823234323204
-0.001956368018974816
0.018039605613729897
0.019700424441988856
-0.0034563435122230255
-0.013657927151625714
-0.004006822377404645
-0.031009110454983713
0.027522682435536017
-0.023441582700763304
0.031542447123182694
-4.8725444623798125E-4
-0.03468451628632306
0.022164750276843483
-0.010313100510670624
0.014681010482130481
0.013198614476512336
-0.02872534106215908
-0.026167129277524976
0.008376864938528043
-0.016681227209059308
0.033930423017467556
0.004670239042563255
-0.03251851815322899
-0.0075591517095890915
0.015771078672212918
-0.02088156467871604
-0.03964010374946344
-0.03082280727988227
-0.002615158107459548
0.030059242444724785
0.05548595221894191
0.044269553309994276
0.036436052163285305
-0.006730832441290871
0.04793421570608506
-0.01183609633163869
-0.045694865892662674
0.039083894372362746
0.034792229350964106
0.042489032962374
-0.010275141531124563
-0.04263789138757717
-0.03375216410705741
0.03601625485516536
0.002373016549462356
0.023434904100667536
-0.017165949861070482
-0.04775022228761767
-0.04561865193163807
-0.007478952997037811
-0.030485917713404472
-0.004359010825457717
-0.020524779889539296
-0.0397438931645136
0.006142564658260957
0.01090235909581797
0.050461868010298706
0.0554388414914322
-0.024475666225416724
0.0019545840152511125
0.046285107268215823
-0.037226883517403296
0.012906060195086423
0.015228968960761263
0.003633544082013129
0.01066338124939007
-0.019914805454489502
-0.01657655583654308
0.051916345260949175
-0.02610991854565191
-0.01014992254803405
-0.03420635989833847
0.013852506532947706
-0.01451265310248432
0.0349540982260293
-0.04344913631074809
-0.04785148323034268
-0.031148673207129697
-0.023816635830710715
0.024110204717976414
0.005964500729850173
-0.0027597222217390902
0.033408845294932786
0.00774406633376574
0.03466690349208014
-0.020144188454160602
0.02780670161649324
-0.027430854755707845
-0.045306613853059764
-0.02130474869808591
0.008695907847157056
0.04544976354473474
-0.028998960265941526
0.03537844730942039
-0.037111054212114226
0.006327284242357628
-0.03248635234385906
-0.03906592454746331
-0.04762900476297005
0.03979382195209677
0.004323927826618833
-0.022470120050149037
-0.03794702774021492
0.026119645394455417
-0.04636711941646049
-0.04790437440633829
-0.02548718622622974
0.043956092868173105
-0.007958738945782777
0.045797236939015364
0.022395188551512974
0.02700857489062989
0.04110924953664726
0.006388931798280936
0.04140700596675054
0.025860283209529707
0.039314137730604236
0.049060084980050794
0.01866164184841868
0.04514185243273235
-0.022588052565806684
0.01397356521568449
0.03145665998772281
-0.034674977975832556
0.022158219727328458
0.021763547431245856
-0.02185193714176301
0.011286778449644607
0.032302212146071714
-0.018922546090848286
-0.020693312052010093
0.03310493754926644
-0.012009685019454798
-0.03761499861403238
-0.032798202928653764
-0.038449667882099144
-0.012190248116463255
0.0426278897426266
-0.011994392779132937
-0.03485738228668287
0.010195226639732663
-0.03375427794570553
0.04178546751818372
-0.008838347572079039
0.008982644633818884
0.0019403921241108128
0.002927570452561981
-0.004242542931965568
0.02155451604643884
0.04608587327000274
-0.04861349867350236
-0.01988983203303298
-0.03988125328504011
-0.047424187264976825
0.02300644508296418
0.017550152530725914
-0.020491454937644316
-0.002907141381016218
-0.010439951581916698
0.02750854903167934
-0.013983700202886069
0.00614793778570725
-0.007572503051885582
-0.0027780993764974656
0.03225713909063751
-0.042155172552881606
0.019062636616738748
-0.038515591256647226
-0.02713563739746174
-0.013200972172478892
-0.04873908029597066
0.037698748328612565
-0.04680355539363369
0.03332068548925229
0.005039614238089407
0.006854822432268566
-0.045035737240683875
0.02686125555491822
-0.022690274712294924
-0.029641758159081103
0.008874760347894877
0.013910697667916545
-0.027717691618334407
0.04421442845749622
-0.03844932930002799
0.044634331056138385
0.04173083371408261
0.049026633731266145
-0.04405748819950265
0.021928666264997163
0.032779801694663525
-0.022584119978787315
-0.025296141399763442
-0.014406942989258884
-0.0489939710597047
0.03282777817289192
-0.020929326009580147
0.029389971103391057
-0.041665932998675374
0.010932150920163461
-0.022336915584718293
-0.023410336372017258
-0.03529372242588025
0.015673306194350995
0.02922360339000158
0.04892226429042858
0.015458786387085333
-0.024387601360196357
0.0019509040017611457
-3.8450245537578786E-4
-0.015369306383526899
0.028729029895167645
0.00459756592124208
-0.0028249222289260345
-0.044744749892381655
-0.0166916205855332
-0.002401846207308337
0.005205381356277194
-0.02475705572191516
0.006438193316335586
0.010388000622487674
-0.025540776424821336
0.050282367657422056
-0.013733657174507526
-0.003812435610804158
0.018145902172325756
-0.03263476879842609
0.02477076498966372
-0.038605929199726934
0.00884042520872239
0.008890676877697953
-0.03370995142387054
0.03491915235741078
-0.0013892497898035574
0.032742358785767374
0.026833376744346105
0.03429175247509057
-0.04134450433196026
0.013130334823093724
-0.006071880969594694
-0.04571054529784889
-0.03816440116487404
0.04012255995415928
4.38219802453158E-4
-0.031234375618203167
-0.012552319317296272
-0.03665185122979
0.015368841655093026
0.008720131085168866
-0.019899943413493947
0.04465174179149647
-0.01734207410385785
-0.008038467876061172
0.010500152189287675
0.013358065912320463
-0.028606054848900775
0.02434502697978081
0.005667485434856931
-0.04861315242120865
-0.008253633018989244
-9.154115413094131E-4
-0.04115831952082801
0.04602507642006954
-0.04350734250775061
0.015319191897241506
-0.0022774970070720897
-0.03415672340685501
0.01853835061332436
0.014287473328317696
0.021551987379297633
0.011540734863146383
-0.04398713259193899
0.041988751203199115
0.04822939061031039
0.016207551912566082
0.03377738356506526
0.03666944681846611
-0.019081677251574242
0.03778599088566152
0.035022020943006285
-0.05022714789135336
0.015068069053590614
0.01153976786349676
-0.022421206557100587
0.013392471085257016
0.03583382747800992
-0.03347685466338347
-0.03705792684558278
-0.04556885695223614
0.03668708055112722
-0.01334188810372948
-0.046172202582729596
0.023368225878700334
-0.04379339727093599
0.0028976689311628885
0.004779777969487669
0.037091000109702295
-0.030953350240234608
0.018720414459654933
0.04089687662281434
0.04598879298539485
-0.00667415577768516
-0.046274706494325614
-0.011752496253131501
-0.029815271522190875
-0.02405511714402277
0.03140418628291539
-0.02842432572498728
0.05002701789707359
0.011081949968667888
0.010536868512907308
-0.04626846291164895
0.008102446649970833
-0.0446907740709608
0.03100630868596057
-0.011258790842117974
0.039992342830738284
0.013218684158021719
-5.438202895564923E-4
0.0468106216668354
-0.021275439702557398
-0.008787316572971637
0.027396679775305917
0.034412901090606296
0.029672349930382782
6.002318665999631E-4
-0.001134066385117159
-0.023110841428229778
-0.010758476666083079
-0.030760070348238307
0.03489196761635491
0.0431102951303887
0.038558094952917704
-0.049103902960096465
-0.0024292376811525327
7.968408551617097E-4
0.014392271109093725
-0.026360675164339712
-0.04359176390298028
-0.03308493668807572
0.024310739025125924
0.03437488959574986
0.04664561230923533
-0.03652137925011854
0.03803559476896005
-0.02383772794639535
0.007327683876396394
0.025617150010082725
0.007769012480266121
-0.007805404400175021
0.03784607142933162
0.026999007380347145
-0.020435602743958226
-0.020624473705379384
0.02261565203317646
-0.029143871222816437
-0.04901228947193376
-0.04948188637671204
-0.014263286049692141
-0.040325486527329486
-0.01222528749599154
-0.04671849248283596
0.033108086329770824
0.006399097919865228
-0.030161643773778436
0.0315128365360558
0.019603329155103457
-0.02992797286070094
0.019873183619715917
0.017917256444252662
-0.04426126299088045
0.011944033511255248
0.03668470637594669
-5.678664324033327E-4
0.007427597502310259
0.021279809803053364
0.03537791053268365
0.03270934623351623
0.0013295546079446457
-0.04609785926600735
-0.020999086209174428
-0.035605993941686266
-0.03129710176166768
0.030804934927801994
-0.04771948597176363
-0.010959947720134465
-0.0359299140635536
-0.026683909247956043
-0.039913216476564525
-0.013565084264987278
0.029572863413725923
-0.042566546330068664
-0.048558138829483975
0.042316635498722915
0.010371809304739072
-0.005968823236243629
0.04432256174073575
-0.003685392365386616
-0.047644669814271255
0.05013918241564397
0.04711493721889718
0.009819235210732349
0.049079907156522336
-0.001145243764847666
0.0362569657796606
0.013325483025113142
0.038363211042199225
-0.04161916034747964
0.02059142521553208
0.03154712020869811
0.03099178849528213
-0.04598783282450711
-0.009822579834486178
0.03584506252233806
-0.017440757261785348
0.012232162581971401
-0.047743657430891234
-0.02448294601042428
-0.0371365735020084
-0.013056994951968565
-0.00791006059725694
-0.007704086203558759
0.008821080541870602
0.018321029888235876
0.009782254244736355
0.0062034634112754505
-0.027202885514241566
0.030059791584041214
-0.034311004219885206
0.0251673291488417
0.03841084233358942
-0.018366746776468146
0.010716901064489396
-0.0464726724915809
-0.02253918376141593
-0.003573415117228936
-0.020472000065886765
0.040722406280799574
-0.01692407176941886
0.024267696924371286
-0.04258618372310721
0.03343249222355608
0.02120345755426555
0.014681846481361676
-0.03570299629070738
0.03579564219219539
0.04625076247751618
0.006474615647551384
-0.030791194535346865
-0.03415683187338545
0.04395646232551804
-0.007804472741837484
-0.0055832251714171425
-0.034045672081594015
0.042726125406586046
-0.024628031792001424
0.020163446555214664
-0.021777332768590445
-0.016910938059871282
-0.009218821881482726
0.0461775730595557
0.02500377782020729
0.009524327866770075
-0.02165073870494848
-0.006449613250928668
0.005756053811153621
-0.04538831702113065
-0.023138755771096284
3.8548599839237965E-4
0.021361037061985805
0.02232249024772822
0.0372934428671832
-0.005766420709938729
-0.017197904202208607
-0.023897108299264665
0.047098535926842114
0.023187559036170174
0.04792864532004525
-0.0058022012637723485
-0.008710125574134333
0.018005959679173345
-0.011154763616232216
-0.033602712275033586
0.019810418027535723
6.522417836398525E-4
-0.0446052088066283
0.039125148755407145
0.033898720823697305
0.03338559401185616
-0.003766935018634016
-0.049823940176222076
-0.04547602527524282
0.05029870318564083
-0.0051083678978762525
0.016546309375611093
-0.008180460783183185
0.03510946766900947
-0.010419957614281187
-0.0381445459009094
0.027411673158820857
-0.01130893053906673
0.02884987309460005
0.042173994993158256
-0.016272186719128067
0.028823136439795064
-0.044253341186914444
-0.03704617985503695
0.024301856808782014
0.026256766636863105
-0.04291721194458696
-0.04516764851177244
-0.015496064785683257
-0.0314552000552379
0.03855412976793388
-0.012725329803515914
0.01098358838736497
0.03888629079670192
0.020396743198446587
-0.023173824112756185
-0.03838887752344397
-0.03153028140259209
-0.025274168233556174
0.039397941244890836
0.04242091200410523
0.03594139044598905
-0.03897441767382221
0.0292443125218112
0.008968858881612883
-0.031525903753025386
-0.01680821346849887
0.0354258646887164
0.02299340831820578
0.00972067326161133
0.03253560712855654
0.015655805175754912
0.02407766603799998
-0.0015193131405445836
0.03663381988877857
0.03631435395427274
0.05041369491461785
0.05229847161497236
0.044492586534354464
-0.0033496049163621233
-0.040994223719799314
-0.015495732776108398
0.039140544608566565
0.008944113074914184
-0.02953746813271157
0.05111581138089231
0.025874370357453158
0.017821539578407836
0.022950820924298634
0.015128555853317604
-0.0319090643126612
-0.023824259765016634
-0.01765912105605615
0.040971894649331105
-0.009173886494660551
0.01911232804704579
-0.003514071576785236
-0.013247319643055625
0.005387485193979521
0.03780624592121488
0.005849991277065113
0.039746510609668724
0.0028175300398323427
0.029615183278574597
0.03209734404557247
0.004310777218009473
0.022150774651620388
-0.025609239551059836
0.03879463769092565
-0.03446849465857297
-0.04915320258901239
-0.02203282472408277
-0.011401254036093371
0.01535025685248327
-0.0029800558394064477
0.017337442815221187
-0.01923037825863258
0.03298933347501007
0.022583093153211088
-0.002206468064253327
0.010260743086358947
-0.04297457743370138
0.00987768038263178
0.030728394191578516
0.035057470050609905
-0.011068875253540883
-0.002053035918317363
0.031994170042531855
0.050908031820456875
0.022876879686530686
0.04303781955483809
-0.01714876418372888
0.002688062840374763
0.03259149905198409
0.0301692714334063
0.002537688906465969
0.03439749862721732
0.015206019965456933
0.020571766924405464
0.04566030826377674
-0.04813214322207984
-0.003290826911707968
-0.012924015576466599
-0.012075435385975424
0.010579516276500374
-0.05024898435142497
-0.039555887514175866
-0.04504456908591688
0.007492823220539741
0.03104467470271972
0.019771644223542526
0.016464675308742942
0.036124578695804536
0.0343372733309958
0.03590932700583012
-0.022008515246633196
0.005474871073578839
0.027363238980073576
-0.0067542835542799395
3.1333278092067783E-4
-0.018669515088203248
-0.04350099182478639
-0.021815416134435415
0.04389133405685468
0.018377892061845466
-0.024834011419744933
-0.03816680607878577
-0.023961270246942487
-0.040934206872007196
0.01816886262496813
-0.02794011011329711
0.014101778296840633
0.0022506922261283646
-0.008357862133791345
-0.02137828389212357
0.010853851680021688
0.026328127242794628
-0.009859349711941696
0.04596216930680114
0.013409029306350432
-0.04543134348782181
0.02439284150765877
0.022091352747315534
-0.0049742777614194015
0.02345192726337868
0.01237042342827998
-0.04772392960421224
0.013179973226341438
-0.0017859028599232158
-0.04129457958682207
0.025152169053914254
-0.04602112986552685
-0.0054987175508192975
-0.050780646060889875
-0.010578202778942452
-0.030103689163987243
-0.01759859221653225
-0.01770060648371418
0.01333048992427842
-0.02151859641667067
-0.03983731714764156
-0.00597977777891231
0.031222210371015975
0.03745645000021197
-0.044217251227958984
-0.03181604735989866
0.03719666449414379
0.013502599190792022
0.014100871658052882
-0.037183720679355534
-0.020932266480861283
-0.019194325493400815
0.03284652438176903
-0.04628522777399795
0.01694389304156569
-0.024321186680592313
0.023809542819004045
-0.018410933920198862
0.016249836516677673
-0.035829291430840814
2.09082119245129E-4
-0.027411636280126904
0.03556422741692249
0.048752041185006624
-0.011434844963125568
0.025250807445172125
0.013334565143637378
-0.0030495409215985482
0.020084392420990218
0.02517305744230585
0.010823125522570112
-0.04272048094680548
0.030918772560903255
0.030052967160283783
0.040656011258832746
0.02333369717480003
0.0017928834701622515
-0.03681859290206752
0.015449825643362648
-0.005940149433179315
-0.03288963668820075
8.708458113528672E-4
0.012256332955440548
-0.053573563239829675
-0.049144812052060456
-0.02246033361903283
-0.004538447891243872
-0.03168228554557095
-1.2862189991683803E-4
0.03219169151379303
-0.004173481449766952
0.0028288124768475744
-0.006923139916961236
-0.006023812094303903
-0.019749403623643514
0.031628279547878675
0.00950526672479299
0.009883455050940066
-0.01758578682639327
0.026003604897880634
-0.046916392047351464
-0.020806090257923147
-0.04234674336578269
0.009357620746446218
0.020828137289006825
0.00819845163197908
0.022131820207301034
-0.013167525353152788
-0.03880718551140496
-0.045037260252533316
-0.051663955062752606
-0.013075967631645905
-0.018112924442098194
-0.045743177663061976
-0.022741322118668857
-0.05060009905026787
-0.027097178069747076
-0.03449433367421391
4.095965783465922E-4
-0.008506137194101553
-0.04687952538212574
0.011859870409923076
0.0034811771514951175
0.01367655458996743
0.03354998851549436
0.04768625596771485
-0.04019127999704409
-0.033869026818452025
0.026673565167632352
-0.012319937514374176
-0.031580026762904584
0.01903576947785719
-0.013686682152679137
-0.027849629999513185
-0.03744658040768033
0.04229726164954425
0.03343433872600081
-0.016340912835390686
0.03596704764251919
-0.044063230712141715
-0.04088890578149428
-0.057565493725262984
0.03281070718346141
-5.747476454456094E-4
0.04451012882136106
0.007935209728782422
0.01874659014183133
-0.015919859918350206
-0.011846445527462012
0.02446683301714416
0.011554088641175261
0.005235447079816402
0.03802745677985754
-0.0018076838350587286
-0.019827768545365304
0.025359598574051498
-0.02591971033071884
0.01502675879346245
0.03556843870593115
-0.00555854889426167
-0.020487993286856628
0.007675295263198712
0.047617226338976006
-0.027102451865694002
-0.02909163817628075
-8.247858665584121E-4
0.01180767188554627
-0.02498832900597018
-0.040674694603034425
7.081839897614232E-4
-0.02436752119004701
-0.009246297788910238
-0.03656345797667366
-0.029587967602299075
-0.041974351960456936
0.0072324921687003186
0.0010757983328390619
-0.029069169322860373
0.0445327338694635
-0.021816282704469083
-0.05040809543174461
0.018814080530712908
0.041127306185685
0.0030024711074168593
0.016115898395655782
-0.04171165519248996
0.007404637181055711
-0.047109976626315074
-0.009575462082375946
0.003462991737352995
0.03572858098921913
0.016090312821888407
0.02716559841737584
0.04212749256220262
-0.013025915937929617
0.009987723398858986
0.01658138242807489
-0.010422012188699968
-0.007782749876748099
-0.04285160148879801
-0.01101872527764096
-0.03432722125485464
0.02810585208730942
-0.016916016705527583
0.04417530812912762
0.00930343139329614
0.020096523483369422
-0.037912629424187765
-0.020768200812504366
-0.04444498471502704
0.02039304799803395
0.043868144914183345
-0.043229014329232644
-0.035972984014972606
-0.0354668779528485
-0.038162383062037356
-0.031082450489393287
-0.01738213081816935
0.04857115130264785
-0.007710440884559209
-0.002041669011828158
-0.048323778701974685
-0.035617380544107125
-0.02647253490267152
0.015379005033597319
0.004936933319311442
0.002427105634054815
-0.010522766898074028
-0.0368010572253568
0.024337698153081566
-0.03713295384014595
-0.041772152935246436
0.04943624783590734
-0.011965691795075374
0.014384362617445348
-0.020329327541959014
-0.03469907597141959
-0.04550188553049423
0.002451375120763286
0.0013882063463769953
0.009128896495649751
-0.010728604042415804
0.025233470018786966
0.040833396488700414
-0.04171290034948287
0.019322959527323408
-0.008031321177298163
0.031435257067426205
-0.010821631662664673
0.03378545693989581
-0.029404592428147483
-0.017656944167091237
-0.010889241921057486
-0.017733741620338337
-0.033507354610492104
-0.04170183457393504
0.030125642851076773
0.004853654797026121
0.03420281300839112
0.010306580004797858
0.017626682766053024
0.04030457198370952
0.04889998904514016
0.008052696053158516
-0.036479891726922974
0.008994368603513768
-0.02094034776195355
-0.04701463642295017
-0.034279470057984575
-0.007154843106599641
-0.03164695834385366
0.031165196137902057
0.02157797375614634
-0.029731984532196394
0.04371122017909039
-0.04131536331488268
0.014038284685875283
-0.023195043172512222
0.00414413014773007
-0.01108748395071426
-0.028740718034399367
0.031275996802821684
0.02795532211802963
0.017199904139165334
-0.036411944655671304
0.020524204529887534
-0.04922033153334839
0.029679381996605688
0.020659257128219328
0.028537799520807317
-0.012271370287135326
0.03238167672522935
-0.047404930041319425
-0.02702412316905545
7.65326209713573E-4
0.03079407793786836
0.0012339660314424233
0.02081356513801032
0.01389592077644955
0.009109677890179487
0.04292160285050657
0.003728498280665474
-0.028708079791043773
-0.0065000061608956345
-0.02774515953956078
0.005910186482128857
0.02783733795877171
-0.030986550472064816
0.04648667546569083
-0.010984830383494322
-0.04954077923554293
-0.0487195218514165
0.04021719274617417
-0.04805664986903608
0.03444102939135891
-0.020177482486303546
0.039546349285506176
0.020533261619944346
0.036336640734018814
0.004633261440456185
0.040163930018435566
-0.017382943253625976
-0.010165347901299972
0.014930452159245005
0.04864412334068621
-0.04485770339885791
-0.012686083502447041
-0.022191767336080963
0.03604140542086712
0.017467279888438297
-0.015551981256141439
0.04043521983004933
0.03847525749596619
0.046536353203056054
0.047183049567338105
0.030075737633608973
-0.018909715239217455
-0.01196727284899067
0.02719479710398157
0.049010205383155626
-0.02970776866310824
0.04256882606394019
-0.01828528524446922
0.027551031904162207
0.019719912240303897
-0.025015330583935923
-0.006838820953128926
-0.005010934584744245
0.022246179927747457
0.038211598050936456
0.022221546364786723
0.009618304432874269
-0.024881074139202194
-0.026829645949617214
0.013145154371974891
0.04464716530910249
0.014837048091124322
-0.004164739015240193
0.019958051894412274
-0.032430057240525195
0.007749594894188131
0.02842300725464969
-0.04869677455676536
-0.011032723053132052
-0.042116981186282376
-0.016069488534650223
-0.046711551974870015
-0.014439700707039827
0.008833037671580389
-0.0041066771188272705
0.009497601986018053
-0.014294957489580132
-0.009735111586087333
-3.653541388792402E-4
0.043260846866468416
0.017244200228623746
-0.03131516933476153
0.002855127697972208
0.015615810032713742
-0.0012953947820629492
0.04908721643844044
-0.02771390994396737
-0.04843736952242376
0.0016540241308640796
0.046839697583571115
0.021745044165123167
0.02499505571184594
-0.03143501796737346
0.02956954998997965
-0.03504753909449243
0.0014617864737018285
0.04638719635410414
0.008023858641824866
-0.01535746993969144
0.02432978873061995
0.04366729706018686
0.011180259978195434
0.02092704710660513
0.013790023212561685
0.017190229548589144
0.036067541248706946
0.0037779512267289124
0.010284602673001067
0.029110707060422347
0.0447660362572534
0.016039106210794744
-0.04262727710699294
0.02592881985758044
0.008616916526116299
-0.03954881332004695
-0.004606377954331897
-0.04627293724569571
0.037652878118351045
0.025759081291086835
-0.024544391126800527
0.0013324950422800748
0.00476351853713682
-0.0036402931271386097
-0.04446500055820666
-0.03995891501861435
-0.007580672925085666
0.010813954959356527
7.778428971806708E-4
-0.023775445258935327
-0.008346346284488574
0.008993726122012687
0.03038998043578583
0.05011466050965285
-0.0300467472291484
-0.025685106971893457
8.813287263184978E-5
0.04555424911550401
-0.009273964671919342
0.03868054630410693
0.026504803437300817
-0.03422150033495315
-0.013998370359335835
