0.034067493237422454
0.01053833542481678
-0.03669414454291161
-0.020365551997832975
-0.02320295150349838
-0.03077074733327382
0.03354837315998283
0.013789097885594882
-0.02437115370634895
-0.04082254057680616
0.055991802812868134
-0.03490249423358033
-0.005008298016688675
0.005757156626453714
0.041679206859758657
-0.0351852862848546
0.004670444110531351
-0.004206176468987695
0.04349856155698216
-0.0314027386731995
0.023337133577675397
-0.013286017380710526
-0.04312939291709415
-0.040779598016452936
0.053888816807760066
-0.00901124994610316
0.04553132027060322
-0.007460941484371176
-0.02757299190773964
0.0483359999899469
0.028090225382151755
-0.02977505731566738
0.04523985951220749
-0.026771471588694657
-0.006286094717576622
0.039830243068547246
0.04246294096391093
-0.005710468582267265
0.0475055136611361
0.0376653756463567
0.020662861034963294
0.026278076070224244
0.012203091133215771
0.03608294123578562
0.03715168411634435
-0.001678786851583287
0.006635891110759327
0.03116133401096325
-0.02535976184394453
-0.01450677303570749
0.016973537451826046
0.003657613747940099
0.05329148243993625
-0.004544708842140284
-0.033445882257088805
0.025057778307046318
0.031147113963001783
-0.023246593152163913
-0.04164125648468658
0.007318848380240438
0.005600429689598897
-0.019177897473749886
-0.011896463314746196
0.022333417167493836
0.03285041577910761
-0.027514503088290204
-0.0013306294154406552
-0.0391510300189693
-0.01718621063682412
-0.031491224640947064
-0.00947674117459968
-0.012274918611545081
-0.037200169464724646
0.05463333645262444
0.04839234572055445
-0.04332703442946972
-0.05181171141595614
0.05136920929016041
0.03957907839578974
-0.006792702566395099
0.044898772292072335
0.009744287117060461
0.036754536787257125
0.00673437320405167
-0.019897497409868344
-0.006754577286297971
-0.030224317921943855
-0.03645088048071634
-0.017532227490053624
0.04496196764475619
0.011559060956252061
0.04908339745655397
0.021330946691894608
-0.034211464098703334
0.004092427888032739
0.05315247411939063
0.06635883597259698
0.019948482842460844
0.035414516038596154
0.01788102252095994
0.021220324897043157
0.0400540425991608
0.0506728407791652
-0.00632159645409429
0.019880640581297945
0.029172454200879876
-0.008854377924057046
0.03290840822808855
0.05026401971260225
-0.006481084092303612
0.008522062108551172
0.04245368565407017
-0.007099972536381556
-0.026429373541074247
-0.0016045219572681322
-0.03108680614664114
-0.00687266019590679
-0.009113134038525605
0.052249505796901255
0.036389933091585544
0.03200786026961212
0.0814761481367073
0.11473621858006222
0.026368459409235854
0.054000322633799815
0.005805531132640896
0.018855982592700216
0.08815699005681275
0.017980975150554
-0.03974239465946493
0.007664809246144718
-0.03584258779208493
0.047799551113002166
0.03520359066624401
-0.023079216041686473
0.008546965903426408
0.03240456151552559
0.020118875074572776
0.02569140674815737
0.0451466778425047
-0.030572466364977093
-0.04034682489996364
7.124268274625788E-4
0.028953522622303943
-0.019642339662007128
-0.01590590830643549
0.031522671058710816
0.06930399314975802
0.04262499097472405
0.05226050957334783
0.099606921391119
0.05703803189940659
0.06622790344678323
0.0018351008075950393
0.010400833610042497
0.024455491513527175
0.012406301376574435
0.028527833755937097
0.02108188556599642
-0.007059429999761326
0.04777075730977009
-0.0036356677259717315
-0.02014169041082754
0.052005343272976116
0.046237611739098766
0.047763032269193345
-0.015162025592392554
0.004743511879352145
0.031599796462691426
0.019738529598204244
0.0019403862483482327
0.021285517729625197
-0.012018498932780265
-0.003451775018815651
0.008247790034504186
0.02043237475529234
0.06942825657016652
0.140637884922236
0.07927720788412566
0.11487133943106898
0.07892448811475646
0.11887173424840634
0.038558285354881136
0.047275211098499956
0.08289357876485094
0.033918567157747784
0.026690090009193354
-0.01624528536802971
0.0321396516989978
0.03819838031364095
-0.04938147476226509
-0.02110502105988591
0.05106208715182715
0.010098190636139166
-0.01601778808753421
0.013960287832693487
0.02249323349371278
0.04409687924894974
-0.04479455383592372
0.006418163060294923
0.002848599163666041
-0.017983467518074357
-0.00561623294092214
0.005693659074246818
0.06794625359731604
0.057360540115470295
0.0509521626748662
0.018012926519908476
0.023081139003508847
0.1024447931648987
0.131682534309623
0.12301245291254151
0.05317765355151537
-0.030749163413508834
-0.03177684909405105
-0.003010141970214524
-0.021033668649474466
0.008481508641480404
0.002070066779854056
-0.005247568302294147
0.04243183377603851
0.012430985533147122
0.06631950231219294
-0.011696864726113502
0.01755557595729048
0.007718369596533402
-0.04082203505791408
-0.05284754141443694
0.020578935243002153
0.024902382408704894
-0.0024796628510930035
-0.04577203088198749
-0.02557947309859673
0.016141460916528905
0.003215705318661759
0.01272407909201093
0.03585401666584404
0.05368709828031116
0.07771785380189562
0.0426234910172347
0.024763140384784044
-0.06276763084860122
-0.011564820546337892
-0.07829035302247021
-0.019855835976373797
-0.011403845868961175
0.021265965574938348
0.01986789624159416
0.05075204369218522
0.0781074291947345
0.052800714674036346
0.021524901984156724
0.054507827921190154
0.019229135453170634
-0.025644854437435523
-0.003528470925679208
0.02549442034846752
-0.005576173840745429
0.025061464210100276
-0.004570014386320206
0.018736665415402826
-0.061384115542370964
-0.033815170808978216
-0.08859930358894573
0.007659253765388164
-0.007694918987078272
0.04679475158502251
0.029870965474966156
0.009986132191499558
-0.021418453746070817
-0.12526232915775368
-0.09869043805985477
-0.08465601388549342
-0.04369564043556706
-0.03614220485336362
-0.06318048581798846
0.038824208011548504
0.05350469267740297
-0.010404471949724796
0.04563825123162395
0.050348974088736606
0.043072285565328064
0.02637722220529423
0.0023995800431961404
0.007037268773872503
-0.06663834376288591
-0.008823470382547431
-0.06302834861880942
-0.053626982905213234
-0.025681252525719164
-0.10602552724862142
-0.06931147614840724
-0.016473669346290583
-0.02590163630683152
0.03977507963813414
0.06422188839190074
0.039787049978020086
-0.06993395834825446
-0.1751624169950335
-0.11029628657491927
-0.09645579245220967
-0.14748238019973384
-0.03323773380079723
-0.024255449327368762
-0.028669803030626138
0.08534390907921177
-8.760178803252728E-4
0.0332301670396973
0.007061052777360866
-0.019373442259876306
0.0022350309594361753
-0.0011302129482814913
0.0203484927591961
-0.06002637336431255
-0.09365945912706486
-0.0643213598764873
-0.05874945902807646
-0.06256909234631389
-0.07063136519337039
-0.06703360407375149
-0.012797596546719027
0.0031777682362353135
0.08309944555581152
0.18398191268162595
0.06593980542780853
-0.04184682042574879
-0.12592715833627469
-0.14047215218140235
-0.13057075888266187
-0.14955567765099734
-0.16605864905831902
-0.07678707982437956
-0.026870279878433344
0.0777783858549035
0.030399729794990768
0.011480309370540906
-0.02640658730794387
-0.02295234347595412
-0.01833233888480723
-0.005318325589785051
-0.030550193975905592
-0.06817244859995858
-0.0847100881211749
-0.1294173578835593
-0.10466295254967033
-0.16085670810776545
-0.10787040385891135
-0.10895110408330841
0.03588936884858998
0.08021942536932285
0.1963730600950092
0.22351541317059836
0.03538979376455495
-0.03540400327316765
-0.0851693079667329
0.007100353882395895
-0.030645956111071706
-0.1331048146548222
-0.1798109724717133
-0.15289823942783967
-0.10732552103683761
0.06189620543928634
-0.02348583937475648
0.008432191918111486
-0.01568273575988933
-0.04364563196611446
-0.011610558691333683
0.04933520406658556
-0.07696632980565951
-0.033072839105264436
-0.12950233247386894
-0.08527440939541153
-0.08192327560986501
-0.06176173305897613
-0.1046611888396935
-0.05181280919805267
0.06082282549891717
0.22236283196091372
0.23700393134901387
0.16533824045195203
0.09386357261391445
0.05986889833615466
0.04628528836446174
0.030675054407762237
0.021138471594932803
-0.12407031373877017
-0.21476905877625901
-0.1896102594248887
-0.04338714271628384
0.007625662106636684
0.015045339340575834
0.05261548134724595
0.014101282813311479
0.01969329529563092
0.02202034488356104
-0.038606712604197256
-0.01714609995255144
-0.05396998310384711
-0.10523970269011534
-0.07965366722740402
-0.05478234685961633
-0.028929124091492182
-0.04147121607014348
0.09182757964132332
0.16695280908514928
0.298891591061998
0.2730137137923887
0.21763395269012614
0.07287026678094828
0.010488457838069854
0.09859220242507752
0.06332566602884945
0.007230005904772709
-0.10771731135418276
-0.11415610509113948
-0.14910009066185145
-0.11006206523427091
0.05110684511122904
0.02861312039671056
0.05387133488904143
-0.010152003635060601
0.01675039371710853
-0.04007245805378233
-0.01499816800600697
-0.023800132451051982
-0.029483499681207243
-0.09854264731032908
-0.07801678764544323
-0.09823260621621914
-0.0642638215328123
-0.014936275021823698
0.2045162537038401
0.3019295367858369
0.36982065610903403
0.31861726564955223
0.11965986456457423
0.14579047191974642
0.08972083006453364
0.0453198916522821
0.044447106424199176
-0.05997129946102401
-0.06829403135721988
-0.12325664300781948
-0.13525145776100264
-0.051981548495211354
0.03473286658421971
0.04194164751212528
-0.012543937901947976
-0.03320520393578562
-0.017786831726302924
0.07150915284866119
0.02741121022238477
0.008182833754620297
-0.05567868295188801
-0.05119984173514087
-0.13345399857459206
-0.03216800535895924
-0.05128741800592587
0.03822116030753113
0.22060333249454694
0.4198037638083342
0.36463695939532154
0.26515760964570495
0.09523314087889209
0.10092190966296385
0.07032789898245521
-0.010172461621456018
-0.02705299593732446
-0.07013196910009069
-0.08371799035094592
-0.03593756766378794
-0.06478565830231352
-6.448530152848319E-4
0.015585793190142843
0.03859828272598478
0.026842753682419448
0.034649644477404505
0.06394677298536236
-0.009473779263241161
0.09859592453927493
0.04998895124529733
0.006823012912539687
-0.03314326777668822
-0.027862805402379825
-0.08061599581594905
-0.015284606475232282
0.029546724155281954
0.17785914938785374
0.2567476900140289
0.2615682184336065
0.14690825799032706
0.05652669143257649
0.07051437239303536
-0.009039528126050756
-0.007332995263643969
-0.051567466827902
-0.006138608287879362
0.0025858671145761866
-0.03650333223576085
0.01226848377795626
0.022262313354209372
0.02254076090536752
0.0206342976213548
0.005139630001123497
0.02309741374217366
-0.018848931545444803
0.03898727911892014
0.09712780648579007
0.007091152008503323
0.021142345893568233
0.032085802568506676
0.009405433477064658
-0.06678447271430028
-0.09464870641623313
0.05544703425439771
0.18225410352921426
0.23657796823277896
0.19799813782021855
0.08282987316620931
0.15310687702770567
0.034618403588543574
-0.012640949381633492
-0.0046392739802025235
-0.025526639652381
0.035628420780335616
0.020176374510357607
0.011159760175945053
0.006340595407526816
0.06048366249111774
-0.009815010543466505
-0.041512833598231456
0.026075075800558966
0.03421787140915032
0.0016619887202881537
0.03863879042025262
0.09431684085005845
0.05720782921792609
0.09938904225387313
0.06257881576883922
0.05021846856099939
0.008877947316271704
0.015513686396844212
-0.02394886648709992
0.08547300565727113
0.12400008287104933
0.1392369710414482
0.05774649447881903
0.07550031297070955
0.054938107808319404
0.05380673464507182
-0.02306302529491201
0.0032847785792526674
-0.017048421079440677
0.011132897408460097
0.05547903257055678
0.042803269527738795
0.011457258051580507
0.06430048142779081
-0.019067404776060042
-0.032682641425227775
-0.007964888623331659
-0.026382325864756653
0.019452919404945306
0.07746433111173545
0.07005014385892465
0.012329586201366552
0.07920397526979046
0.08638541308199996
0.0802767354435074
0.051100817717263484
0.019411977563051845
0.0076564278446339075
-0.0019384176846280565
0.03367535678194595
3.7063963844356595E-4
0.008570159589472449
-0.011493514195583893
-0.008344211306914208
0.02950319519236951
0.005141373835971533
0.06409388557940977
0.11242215354669745
0.07415194698325166
0.07429066383324665
0.03617941552382825
0.040937558429017334
-0.0059905333700996976
0.052473533872567237
-0.0028501610885850563
-0.022201011540736563
0.0779576433046923
0.09929698254996186
0.09761811162597865
0.08607707672201347
0.040879181750519245
0.04898990889907505
0.07122722213501727
0.04945807940796736
-0.009366721138959658
-0.025215366933115577
-0.01571526019814165
0.026139534385907486
-0.041705473279085414
-0.012524155212486433
-0.03319620771055332
-0.013765012305795467
-0.017349222171251944
0.08772670554885074
0.046144105473297094
0.1318605915578732
0.060711536328621404
0.0157620697968618
-0.021746814243411496
0.0015378364669562867
-0.033870527126171356
0.0023364058247138638
0.060911242331647734
0.07866344541981002
1.7160777232669348E-4
0.03535411396674507
0.05553093880466326
0.01275953639742071
0.06323808851368531
-0.009154516118555398
0.01847164721129121
-0.013053056726536939
-0.10524748643747231
-0.11317641440122737
-0.01602432380624604
-0.005538569779421926
-0.1111908182527252
-0.012107854686037986
-0.07699310773313305
0.01928727526604807
0.08513348797224443
0.09182904493045001
0.046352585181562704
0.10914268800023239
0.006316691477284915
0.04029186393378139
0.04296616370235103
0.04681776418112646
-0.04086525988180982
0.007123478829211949
0.04380511480446405
0.057967520960729255
0.026089890800186404
0.04688642832866589
0.055873385006083326
0.07563031215825076
-0.03486113366165694
0.026615721737623492
0.010038410611671423
-0.05392223492598225
-0.12124249687916169
-0.10571941780172667
-0.02663578032080206
-0.06822228996909016
-0.025591559919009074
-0.018529380723053483
-0.0332344354496309
-0.006534438884993083
0.04142066830193199
0.11455416590668674
0.0708245601146455
0.09855278866627899
0.01708596735941035
0.04889982415509895
0.007223006527794771
0.027695205755851285
0.002881302250909019
0.03260261530110415
-0.0028788565303150466
0.04702621096004892
0.025988974159352172
0.04041775569855688
-0.033657785031627335
-0.03649009390912085
0.018385783443835558
0.028535808333834116
-0.05443044792807323
0.017694690724833217
0.02220850851282555
-0.023686458473760014
-0.020375625805205293
0.0060864790235063
0.04600791184615809
0.055615687550841904
-9.971509622410894E-4
0.04902916638648101
0.051319461945485055
0.07122729776800096
0.057703717880593704
0.061680240279829296
0.0440087307526738
-0.008945698726455637
0.029325795529895206
-0.0067377113148461894
3.314645759664669E-4
0.04686492236940597
0.020114184350548823
0.00972041951058384
0.03273427306212921
0.019171936392901608
0.04599533606643587
-0.04997787412350675
-2.2374112417487954E-4
0.02684926570927993
-0.0053407734305922815
-0.010489478753115322
-0.01599323239971567
0.028586086611972882
0.04465421960214292
-0.00836776650533528
0.04518201833104955
-0.032666392691492366
0.010582378018372078
0.009613615463193528
0.016145638018358794
0.06487728980052608
-0.003545321998572053
0.025762361967619482
0.06483072714265631
0.02719105379813211
0.014587214962942179
-0.0049172075423770415
-0.0370617418219424
-0.049224683339113756
0.008858143220051682
-0.0060449697548854275
0.014245252708596702
0.01747300235338051
-0.020354175520100118
-0.026557986401965192
0.0028409871192621003
-0.04563424894621168
0.006094109649534902
-0.08588782056287927
-0.07059904872090964
-0.05781291601258132
-0.01184628990808828
-2.227178143745726E-4
-0.07801565524169239
-0.012836641264287983
-0.03703091101273907
-0.011537487316906233
-0.035779709833368485
-0.02283875282293681
0.012409043849082188
0.020293087184014492
-0.02838353641566188
-0.018022480907561797
-0.04052977248911847
-0.0073620361031756796
0.01128666549775999
-0.014464889725520635
0.016945878901632738
-0.03752996178997758
0.029022645831122244
-0.0166951154031821
0.027559601802433237
-0.025261413156876845
0.028234681188898894
0.002722688063002356
0.017644545435944983
0.0021517898553665977
0.01492230925998866
0.020940572380199897
-0.06695159451945874
0.0226512858283911
-0.05588763980638473
0.005206677627700735
-0.032757831105937836
-0.03012269461520912
0.01538290603314327
0.03423027054555386
0.04676696085990589
0.03283550435411865
-0.017136545607321575
-0.011347224792354211
0.012934752186129352
-0.03130009860628824
-0.017582206702617224
-0.0026467511099451243
-0.02218848821355314
-0.04026061564096971
-0.006496877004886013
-9.786827408476003E-4
-0.017074264830693135
0.039104508263750046
0.028955029500198026
0.039668084070901014
-0.004692255812656352
-0.0046807236175414185
-0.02354736457954267
-0.025816648902539454
0.015324969417424958
0.03730410788274609
0.0035080363043182216
-0.0023843783890242823
-0.015281507580535552
-0.037342672481687135
0.06301911123351596
-0.006350027241495291
0.02278598911687036
-0.020462747291131907
-0.03317862283831241
-0.0071216730118059705
-0.049397165203890356
0.007424486888176348
0.01227476030202818
-0.052852918167891706
-0.0032482244435763914
-0.007264507700387483
-0.02814262630646145
0.02426031374448677
-0.01509734169386863
0.025356646756244307
-0.03803440766136704
-0.011051002091213418
0.003418981352355898
-0.00460689200428699
0.02656323624538208
-0.019558721699549187
0.020835713688204957
-0.04670315943640445
0.03146344058023253
-0.011514865548522869
0.00839071209042819
-0.027864242904350498
-0.02677164996983162
-0.047427938603854164
0.0032458245075174044
0.01623913603622759
0.013202407851052606
-0.002334405694268802
0.03221231114114228
0.02645150307602914
-0.047618466928546876
-0.005407415278475122
-0.05562730396246697
-0.02775106587269666
7.346338570083615E-5
0.005079120439006243
-0.02414910266826684
-0.04974184817949402
0.016444267627705036
0.021690493142773867
0.01773540032484885
0.00608564945919763
0.033978798017621194
0.010612220633893174
-0.025652298226595923
-0.012458267772509904
0.07179893946475599
-0.001985371311407498
-0.010405313603029325
0.001140609480075087
-0.006093539288778102
-0.03647871832571382
0.016047904920254794
-0.043356592101685174
0.010502065236554961
0.03753969422094668
0.012126071591044396
-0.009999544612814071
-0.023169290630915863
0.01970842332933258
-0.05711918908102912
0.02404799687472295
0.023750177561801405
0.03788204701438897
-0.041015091575045015
-0.00774091275314417
-0.03229837176643969
0.04627500269719087
-0.03643039132296415
-0.039926893606944173
0.021320670689312454
-0.034481548922705794
0.04005267706226384
0.0037096710616287935
0.021841505693212613
-0.0480181689298233
-0.024043055985355926
0.0318601291769885
0.018299646674956847
-0.02339274568383174
-0.05021158207937326
0.014311362257388138
0.04199465795565991
-0.04039526921960048
-0.00787276435320785
-0.038614290832928465
-0.048443827830746224
-0.002030508770708963
0.040175400786727725
0.04062414127830304
-0.01342426016367436
0.015538839703882621
-0.044719075471061284
-0.04420525036949407
-0.020777622593266768
0.013915532617198086
0.04687865769935753
0.01321683279202828
0.07371268323251405
-0.010988108098848011
-0.04816094816479201
0.0070013125118084055
-0.01713277008496368
-0.019052876767018022
-0.0018890030749647685
0.004720113500946135
8.979433498869225E-5
0.0265954767385858
-0.04105306066366315
-0.03780731492506659
0.02010114562049213
-0.023963415298071843
-0.032526326283348624
-0.037477065581916186
-0.05931411423807173
-0.0564344616923041
0.03647187868729259
-0.015241936170679758
0.030228088709757895
0.019124779587964217
0.03567130884903191
-0.03376125281861535
-0.024089030581563795
-0.0056391260179135495
-0.029558839306686693
-0.012690473164100987
0.0063202103097324495
-0.0666352684047381
-6.63099503410985E-5
-0.020967290306397088
0.030266892077062985
0.05844583760127545
-0.007889597727776492
-0.01714758718428658
-0.03929411503321689
-0.04769162459909369
8.332077873780866E-4
-0.07006170197807596
-0.028875094300282313
-0.06686796163520814
-0.08144851370797195
0.019702542651930246
-0.036993682955013346
-0.021705021764145516
0.018457430109497158
-0.0070047976699365334
0.010991489525855148
0.047180736643133846
0.030850447039000188
0.05456146353906084
-0.015091408284754514
0.014384729849161917
-0.06703613939391286
-0.003318794035026677
0.007806303088599051
-0.08935267349397105
-0.02769255191678513
-0.06893437005753943
-0.03256617380324933
-0.020979800063244364
-0.023501041252900378
-0.06709509375268345
-0.09266010212145807
-0.06794235513799896
-0.04700788282509032
-0.08527125916508037
-0.0686225498656026
-0.06117388360454183
-0.054822970771604
-0.022812976778011924
-0.0397149388907101
-0.06346473641125099
0.010485173103640222
-0.047157765938983846
-0.02821139774024236
-0.018817394255694182
-0.0012626905149290605
-0.01986068870370014
-0.04828696353298987
-0.009197658057001944
-0.049089402152034355
-0.005186854124421635
-0.028298285820748274
-0.04656843952342842
-0.036578860617907404
-0.09407725672330489
-0.08453816329491064
-0.12366877591543655
-0.08296375197255781
-0.07758512320376701
-0.09851699984878237
-0.18592105452950777
-0.10966263888188345
-0.10681867396872555
-0.060065926007352
-0.07182543785795202
-0.057285168280486624
-0.015461779521381284
-0.08778304939901492
0.002834485511330801
-0.04628181041002567
0.03576437368731214
0.013772640224369704
-0.008650223162641427
-0.03661252798536268
-0.006886442568014828
-0.005743191481373296
-0.03346656337157564
0.048269183840434694
-0.062322906331787734
-0.03885859610646528
-0.005249966131850193
-0.05296707030108413
-0.11780665401303009
-0.033966572424009724
0.0346476999417113
-0.030033477087679818
-0.03991647883852095
-0.017891763844211664
-0.0272652623246386
-0.014236138601828607
0.015892292340827556
0.04934313142419902
0.058114917841820116
-0.08184148898805685
-0.092996365855647
-0.017467653356024737
-0.005576928517920137
-0.013598065416368906
7.397941507650316E-4
-0.019163492075937774
0.04396729928239352
6.593846410845206E-4
0.06901821533627032
0.05792045895702774
0.06289570097241073
0.0031965932400341893
-0.011462916130062372
-0.08555262000692214
-0.06860101478002412
-0.06693269977542461
-0.05066116723265024
0.051167598710177814
0.14799028264037822
0.16621821233712863
0.10444549159155762
0.1515360122598679
0.0754840639393741
0.12769244610677508
0.044460157622934586
0.09683151758261294
0.03278655412159515
-0.024152520148721723
-0.06719392949420329
-0.05585589779912634
-0.025895868584314814
-0.020780955398604584
-0.015830311834745116
0.051197197506454205
0.057569228170312146
0.04393800602421989
0.06654591991153959
-0.005285590168524677
0.053641312734401383
0.006479599697390048
-0.019946930622694016
-0.061579767120320386
-0.06760789423397766
-0.010837769995600167
0.028991138777961452
0.1109454400485931
0.20391508935067315
0.24463670531805726
0.2183654931363158
0.2199132814497749
0.11070404661863788
0.11419941748441556
0.17943786925109378
0.08365982283572326
0.10162480802108809
0.0407708755147319
-0.06892272859332012
-0.056258380115078103
-0.011995852826334924
-0.031970872786069006
0.02430897644020906
0.032359510981512664
0.03365474729419793
-0.002773191464577179
-0.02005131732103488
0.026884567455317348
-0.04549924805267598
-0.04650903886666214
0.00613223638530597
0.0561758555286089
6.323850107990153E-4
-0.0392259519581424
8.084001606782846E-4
0.09813726131638319
0.20013008089036313
0.23309650215506333
0.21074795298701682
0.1777790389726447
0.10804746110249273
0.17477233049493912
0.2146429015276237
0.1581277650806238
0.15075011039345085
0.04093773527292233
-0.05349951137870851
0.009366756765590935
-0.0476467550750483
0.006334456232193188
-0.020672148451440768
0.05619127674213428
-0.014701633004351202
0.05548499102922418
0.052534362285533875
0.025563088777083534
0.005846665547939635
-0.04998741665564949
0.022015694620996926
0.012572758242072383
-0.07941748860316312
-0.05743885384292585
-0.0628929532215242
0.025968059785488398
0.08677063544533294
0.16752014483417382
0.2175071474776132
0.11752428983946195
0.0699009658999411
0.11098534998070998
0.12060094824223892
0.15988977365238566
0.08202815314517622
0.017876420076574244
-0.00949655091618243
-0.03753115855407657
0.025143472345226528
0.03359473209411799
-0.024105915176867
-0.02841225370242874
0.05181505845878713
0.018691910382699153
0.03792505745133062
0.03344897067798807
-0.013504129153385114
0.023009436358691154
-0.02209260587375998
-0.008694171139514352
-0.05349079252947418
-0.07018447902935492
-0.007259940166119578
-0.009592798232530623
0.15194977833932172
0.1065139742236655
0.17132899425870185
0.158197155209173
0.037586186346246164
0.11182942743075049
0.10144225896333056
0.12261793841525265
0.08050943237772505
0.004737823112475324
-0.0030008764535094956
-0.04056325710186825
-0.051864626395854097
-0.056651248440700595
-0.015476186909261556
-0.020411978884283838
-0.03743846463929169
0.0022012989814608765
0.045604896633023084
-0.04566364480313853
-0.023527356364315057
-0.02495483982967486
-0.04349717103810368
-0.007168971450031943
-0.11069132273846599
-0.060842202868190115
-0.023564655492561152
0.057491704709821616
0.11776481977694754
0.11886515984989825
0.08911166608065964
0.059351001963849764
0.053829445771899354
0.08879296035961762
0.11144173096027547
0.07444242184812465
0.007158599728545359
0.026815050233965163
-0.017487105161194384
-0.010240659396544411
0.0049181923118559396
0.02280175154727182
0.011323386652250324
-0.03358705707189636
-0.010310719224294223
-0.02271131683980065
-0.0034172237777188585
0.01623448189470144
0.050083509509623134
0.03797411077023414
0.09001886487065462
-0.04300584180395399
-0.07759297366784527
-0.040865144374110936
-0.01238927828416534
0.02654651975606491
0.05013902602580719
0.13165026305250935
0.11939368502551709
0.02172577472062728
0.11054227598617017
0.04174347676923961
0.014265368681144763
-0.023441069512438007
-0.04097212649753805
-0.026866699528821213
-0.03797564883527661
0.0011974626928014254
1.426936731939469E-4
0.02995784525582182
-0.052394356002225195
-0.02322267841367726
-0.009203170123537014
0.020227123623454555
0.03611243602018415
-0.01250107467020498
0.054486832369742534
0.07228075625844985
0.09893131416168759
0.04814417862601256
0.0575443875920018
3.1588831493880584E-4
0.0044553455280676
0.04615348454883585
0.08248363683467823
0.08493782167863491
0.08434023331401362
0.08601370090966826
0.006036175817580319
0.02332127753682089
0.0023258576405798684
-0.007987357114469984
-9.03505223851408E-4
-0.055966188842934285
-0.05662235493826414
0.0592478621377394
0.05994168756690857
0.04569240133015712
-0.05936902031270106
0.02609716904279708
0.005919262823363114
0.013213854350069896
-0.014972877161964973
3.9058904550790853E-4
0.08489333332957988
0.08163666793689182
0.19690135385596122
0.17817680641134598
0.07581427231657246
0.07477699954423357
0.12072835468917444
0.22010207035761084
0.19081780278976812
0.1476033123037818
0.08638001701243186
0.0033796555625690626
-0.07440465159082107
-0.033164162859162905
0.022170299599216264
-0.08212319814289519
-0.06490490029462033
-0.07659583765046443
0.034612475450925675
0.06267327316155957
0.03032296299032351
-0.01170846335776176
-0.03243774512718681
0.022204131352128145
0.03746227086174926
0.01915049221616952
0.013006115109743916
-0.026610241158269297
-8.562963513849415E-4
0.10384215889759482
0.11854647331661973
0.21021251944864497
0.15490892204839887
0.19347944609993023
0.20329208741125493
0.2085927783665054
0.1775065704746622
0.12064049527097777
0.04525599867962127
0.04369841208878283
-0.0201315092630583
-0.03866421357228593
-0.03855329440490635
-0.09956227033775211
-0.05930976734123717
-0.08809314291796871
0.016367793248488804
-0.022574681319650507
0.007316017724759244
0.01319819035574086
-0.06660475046032377
0.010749373949701923
-0.03643844511702813
0.022858676722948
-0.04537064113015745
0.025033876167257246
-0.004394171367938915
0.04448840669787067
0.05751743989389279
0.16487741424010285
0.10884989303583101
0.054331722949278356
0.09524064709362629
0.20558535954825236
0.17241156508003702
0.12402780896801535
0.06758785586592371
-0.003538911387512756
0.021554746328458496
0.018650951939830032
-0.014843648226169778
-0.10598978801574124
-0.06480381477747028
-0.0850369198129784
-0.03146769792929361
0.021915005632626498
0.0412460154084659
-0.03088520487704572
0.005457492710837316
-0.06107330575889777
-0.05956120143024275
0.009943411350270649
-0.06516999046662673
0.0157979132451335
-0.05182758097292998
-0.024001426334357458
0.026687675405601678
0.037088173290978375
0.03425087267119823
0.04111207812498832
0.005878835584684791
0.055236326642166905
0.10370020849307572
0.03530084203708372
0.001024173193886576
-0.020046644758250062
-0.020646123104628777
-0.034038270607239116
-0.08700199846840476
-0.06832953743864974
-0.03627261820254645
-0.03711539081815605
-0.006513393082670297
0.040462960777881515
0.008062751323651486
-0.03627540582415353
0.02719613218478098
-0.038634990781155946
-0.05409695471739462
-0.048641550789598746
0.007203874786673239
0.035940506894539
0.01676709908209327
-0.051991712988182434
0.03791113127655617
0.011173138071384021
0.03421821233695345
0.030744098777377084
0.007015643697604742
-0.009531882486491861
-0.04512156073060041
-0.010461829105926378
0.03897778421805632
-0.04888624207069689
-0.02756034438692088
-0.010449902397410305
-0.058745271262100975
-0.06664586020745908
-0.00877052242324639
-0.014578256855205756
0.028511832819056948
0.05859743837339755
-0.005806702212294798
-0.03765024454155621
0.001112972238244298
-0.025227588560893216
-0.049078845037311025
-0.02834065001561123
-0.007611630814103364
-0.0508833904925775
-0.04030045218935782
-0.04486051749804209
0.015928806739427075
-0.008741282801069972
-0.02934082961666328
-0.053719665486398276
-0.05907084846665392
-0.0187774882677659
-0.07219575187557488
-0.07342781922548863
-0.071456434912059
-0.021808028205602906
-0.025744922022382134
-0.06058136353731907
-0.06521480006538138
-0.06248544775456141
0.00905221274922997
0.026139572562915766
0.016770973060751225
-0.03198483038501328
-0.042427442305793914
0.034669743082948845
-0.018085810008860503
-0.026191208846947193
-0.016348699046425406
-0.012777238881556128
-0.00860215676771821
0.0063591028437304225
-0.046511379941495345
0.005515214022994763
0.003621944448917761
-0.053045759059544
-0.06312015148589886
-0.07618469986538362
-0.07960201766343115
-0.07067392416598013
-0.07889479396965124
-0.09458039750817178
-0.08114699727764849
-0.07232428406438159
0.01181563192900771
-0.03317738159547817
-0.06948673696377436
0.015412405533906095
-0.003844056867068052
-0.001272827889019529
0.02540819110370306
0.03249754435541889
0.04379777363273305
-0.003572379388372165
-0.03514475545260659
-0.03856187387398494
0.0015715106143956354
0.00371849207582191
-0.002318450452435006
-0.042517908978225084
-0.011382646014600276
-0.01210172666323886
-0.006884394215594218
-0.09304947861516943
-0.11719480300048116
-0.16109918904802684
-0.08834994117268066
-0.1545715370555085
-0.0479759142904277
-0.10009944947978357
-0.08053879706482991
-0.030147489720493158
-0.04080820763216313
-0.06839484337801736
0.013214256334165567
0.0289314061675448
-0.036829360510384435
0.034673883962095864
0.0438136723344996
0.03919249278173279
0.018166061245638996
-0.03581435808577719
-0.02441062383484876
0.02885961641468173
-0.051249899282106215
-0.024118609614292803
-0.01934616484869736
-0.01750970909222093
-0.04708042152625732
0.02322808805496888
0.033866965415652234
-0.029697077709300978
-0.06089055914985387
-0.08673714241730658
-0.018690675602107076
-0.0361992441032378
-0.07843733432639151
-0.019809733838450153
-0.012714997769736582
-0.05449410805520948
0.02618068322858647
-0.0032892606426849036
-0.011753899408889443
-0.03553627551526847
-0.047911907294529356
-0.042852444245979344
-0.010085997616232783
0.029161775729440086
0.006083961266272859
-0.01079223792520274
-0.0445893376930088
0.004184192225697018
-0.016677067348087354
-0.027823074758747988
-0.04015522379989174
0.040736794203376635
0.04251165197338653
-0.029738129309946532
0.056391409821377726
0.03793658042628656
0.002624427296271018
0.00915015645425946
-0.005396088842610473
-0.027533635396445173
-0.005019034326278394
-0.03945323286028459
0.03725176947635364
0.014098448096582531
0.04925432161003997
-0.04635426446425435
0.0053973582593343245
0.0330317012678011
0.03454100029922233
0.012994741100635995
0.018678113858961534
-0.033308805914410704
-0.004522559445253384
-0.009062442245111576
0.03472547002998472
-0.013104458792922503
0.012381888302345833
0.018467736637466835
0.019062459465557634
-0.006963295428565053
0.012358435133793946
-0.04634373321529232
0.024737118699423605
0.004919990097862762
0.010862335894957543
-0.04513924908754361
-0.04083057193112531
-0.035898752696996036
-0.023213428071792254
0.031246304277962902
0.03168392619020731
0.019157315800124638
0.03402925214321611
-0.02675785465201402
-0.03308228910564136
-0.0461104986930386
0.006650525856393203
-0.034613860423495915
0.04689805450896414
0.02623518696927912
0.001877014544517736
-0.03432258109678251
-0.025169997717810765
-0.039883350597980705
0.05019270286391133
0.035920834269163295
-0.03333343150035232
0.006050673989811588
0.008913366880278852
-0.010847976336705437
0.00840699392413467
0.0441419495804177
-0.02687645892738229
0.020171727226194147
0.059404229521697854
-0.041080757614181264
0.03236723187891478
-0.009982538109351331
-0.044904285010010515
0.04593120456665427
-0.06769974893959808
0.003811517815979733
-0.05478150087715838
0.01677850401767781
0.06620374602788273
8.027493495794978E-4
0.0020170397176261117
0.03964446241451499
0.03970718730607674
0.01142102491415995
-0.00903808107548737
-7.917927071969112E-4
0.006155804108388857
-0.007587636773247934
-0.048082452434590583
0.0013636428655149498
-0.03788477981811006
-0.03844553272454058
0.03601538486860692
-0.002288818955665098
-0.025640773055777836
0.04066828355900505
0.025254052480563446
0.05448739231538429
0.008801343958060247
0.06309207312952748
-0.018199837774909612
0.006006186631065408
-0.02416634246227903
0.028173423590952602
0.021476081795021928
0.0198970661916044
-0.018382238195805
0.016532530838299975
0.04627280581670817
0.0015172609734249397
0.03123034816938051
0.03766109551183176
0.05888118165816911
-0.03018815366572918
-0.0052335600887767715
-0.01280086855945733
0.05176709392943853
-0.020901599562239612
0.04506541469925174
0.003065959508427069
-0.013460019068405138
-0.05046332450235903
-0.029968805545375107
0.05100488754449737
0.017959201014217534
4.4056961060776555E-4
0.008582019264593559
0.05288440661504025
0.0460389646514035
0.04567385040592951
0.02579669821289857
0.029161744754632287
-0.011034320929969336
0.006510221951093167
0.014781088672617886
0.0097806416425685
-0.0305057893066965
0.038954940316613555
-0.01209580110558238
0.023423083805523548
0.01760986939184391
-0.03739989050757489
0.02850618522606695
0.025445792057774013
-0.03978513160514063
-0.02426203773981968
0.007910946018081958
0.02103731795262549
0.06081720229788647
0.015951153806570327
-0.0019474831253482804
0.03888891849717799
-0.018656213284677814
0.0041215457520094876
0.10209148097131737
0.05175071376646531
-0.0025296214573136628
0.007250664904069278
0.09673541576847837
0.015738848753935213
0.044422134140036706
-0.01012776294498818
0.0314168592065209
-0.02460580622808703
0.017831195269245252
-0.021648151225229156
0.0010885428778041697
-0.017082435089664037
-0.03837713543891251
-0.009868694095029865
0.022042952058979763
0.0094329878203259
-0.03830830415784014
-0.023683944016594627
0.052644209465148334
0.023461606154722703
0.01881002505405111
-0.05110792935366786
-0.08581499016163935
-2.8063518249098136E-4
-0.0075282307255213395
-0.06206585098032885
-0.11517894267272609
-0.12729659199538298
-0.06202682948992455
-0.0032876313964083363
-0.01032822294359896
0.0044909496458589385
0.06261991706682837
0.015261560303154129
-0.006883651090742286
0.06022945730833289
0.023958838195583147
0.03148791734277219
-0.02428283736920749
0.0500341604249636
0.027700157888220323
0.034383169883395286
0.04544275410215823
6.366598724264507E-4
-0.02260018847368501
-0.019086175369564293
-0.04515546876907172
-0.022399951834597823
0.050314894877564416
-0.04033295828074427
0.008938364398530912
-0.005090852001738298
-0.062457489505057376
-0.0886534440885187
-0.0400914218751546
-0.09420768285234705
-0.050521705144883876
-0.06899063805984852
0.010268192539474268
-0.012901081418412669
-0.05147225721006548
-0.0018568423413172724
0.022362945181658538
0.10499026880056972
0.08278602055400953
0.027531455100483153
0.005255710971528442
-0.01250405421474461
-0.013836485591700524
0.015197046696622616
-0.01831773607170431
0.03399189324957532
0.009781003809240275
-0.03428534220484863
0.043498449054002256
0.03450612868641449
0.05433685716871164
0.054273034169747346
0.02585525073635731
-0.022403029717494426
-0.04664262202368999
-0.043107038426766706
-0.038241596628762795
-0.04741509389895371
-0.07821402901390942
-0.15377583352430796
-0.101533814018796
-0.09987221437406092
-0.008050675845968141
0.018037061026444437
-0.009106997647328162
0.012219632197444414
0.14275600172097117
0.0943398679929321
0.0823988900509421
-0.0448886108653311
0.04383344106170923
0.04509557911418108
5.185613279695083E-4
-4.315828539438291E-4
-0.009258284057132742
0.02208644587731197
0.048152959701979386
0.06399988818826804
0.08564671352332298
0.011841652050153792
0.024076298017295886
0.01768665288785093
0.04452147119130434
-0.012285318822385122
-0.08236171643881073
-0.06311786422078416
-0.1807586278373998
-0.16183395303387288
-0.06143237489395064
-0.014101703163790487
0.011833318433066111
-0.05182866341598626
-0.056823799728652
0.08596217920814087
0.06793825803078012
0.11994412641224003
0.09738547840986689
0.04641672530560209
0.03874386801359221
-0.02158271509864245
-0.017262713131006937
-0.030861094154341524
-0.02986640313653798
-0.005086412376321717
0.01194873772964585
0.026114215403261157
0.011244929441491087
0.03228511795562591
-0.04624683911664043
-0.06303470727370683
0.034191192853013794
0.05654943574736183
0.03315169804435744
0.03512017179280067
-0.07364159067795367
-0.1298066857062813
-0.08123515149635313
-0.11050830595331866
-0.032000918072217895
-0.027178888799010866
-0.0346848405551271
-0.009131533038604298
0.09480770007143845
0.07307523895755276
0.04847430242392356
0.05981015061853325
0.014382776473550579
0.005616997818467522
0.03194640420020462
-0.056132559904809615
-0.048165164964841065
0.01781892828213582
-0.03586574898500522
-0.0842214526757753
-0.0683055566129229
-0.06416779736397034
-0.0630844346811349
0.03210415898939684
0.1672785155142031
0.22817233924542668
0.19473886405707144
0.030991185924149955
-0.14950541048879945
-0.14057847587027597
-0.14695311055856153
-0.1026950184959219
-0.12095284273102426
-0.034023062462320876
-0.0888313081619425
-0.015641894397784736
0.07745477390089807
0.07249587115929348
0.10003225753855276
0.05734067842303992
-5.196104558402559E-4
-0.008092346762069323
-0.003487940759124725
0.02247447941389023
-0.06676742327529732
-0.041564361585610374
-0.038869732761895544
-0.09423098420604774
0.02420846487333737
0.03607844158756493
0.044337970439858966
0.11703748239290086
0.19223366444358087
0.34572343812031286
0.25897348705261686
0.06998033743871755
-0.18746346500198766
-0.17722774218412557
-0.13385191164962357
-0.08723370431592799
-0.09761325247825221
-0.10436237384019106
-0.08724824187904698
-0.11550697076098153
0.006162605147309946
0.0435222636419134
0.0394440742328673
-2.4044942833419299E-4
-0.005579884114084637
0.04373533171248345
-0.045540993222845626
0.024891196231871165
-0.017912159323185378
-0.058053925008131564
-0.03514667238302377
-0.03879674937556892
0.033958916778449345
0.03693963632925055
0.010152489207863004
0.11148656271513156
0.29805567295331387
0.29168053068044175
0.11199953874947795
-0.19635287204752175
-0.29862917748807444
-0.16702941856812087
-0.08276193572692253
-0.0914898630162746
-0.14587674366549241
-0.1421897984016048
-0.15147418436177296
-0.13851714126033624
-0.024124561784578544
-0.059240411918687265
0.022903253887882138
0.03474259881303685
0.02267543046149676
-0.03277593071940522
-0.005264859909227316
-0.014728389453779871
0.016675193659664085
-0.013323524881483832
0.019374961297027735
-0.00681127400355392
0.045554147732208845
0.08238438869073218
0.10369632086280091
0.26173831708984296
0.29824809037971
0.18010712659099767
0.03132832125848558
-0.2627160370572666
-0.2969225398203904
-0.16614098317922724
-0.1033461036018125
-0.0715217654567253
-0.2059685085933604
-0.1785907928779404
-0.1965112151205061
-0.11060045633748611
-0.01326054443267005
-0.03321021847346123
-0.06308024608129521
-0.010416271395006099
0.04396093588479924
0.02746226617162795
-0.017178526935169015
-0.04962846450642318
-0.03265377934093922
0.006839091216517312
0.0781160018209092
0.10308491065259295
0.061890189742138633
0.12182721105599685
0.17890904309251887
0.18537745293668323
0.16588098804941542
0.03127345778730587
-0.21884083159988732
-0.2448402996104852
-0.28204179214965663
-0.11525737876884073
-0.010762395886463267
-0.062036389302260055
-0.07503279888369013
-0.21122880053079177
-0.0777874038866248
-0.06322882599332892
0.09629064989067483
0.08524112220189169
0.056880983130723275
0.02765649910882234
0.018826606221689357
0.027438174912080792
0.020195208534916027
-0.0093956788158812
-0.03052932844551997
0.021603378327528292
0.0937744148826658
0.07708196710950557
0.04768154138078176
0.10788134043720139
0.06579315289065496
0.1082021890373158
0.010058596262543787
-0.1588254895550221
-0.2915845526153776
-0.2701308545273399
-0.2274683501639015
-0.1376568506799984
-0.07456928669571464
-0.06234160246573059
-0.10010885446974178
-0.026306931363690205
0.015525734029956313
0.0322024846694366
0.10993006429600748
0.11274452569037574
0.006585675895886907
0.04089528150013237
0.05735706257310191
0.03760044106049708
0.009272226563967747
-0.02768446769918751
-0.06015006070105335
-0.024385783936814925
0.0026346478714126547
0.09382833309346468
0.01732749052203127
0.03961494614437565
0.04199425659046703
0.04884414896354179
-0.06519485334007695
-0.11377175011830058
-0.18885644704210214
-0.20909473800483058
-0.15917992698304143
-0.12161774387806454
-0.0940831315690602
-0.06362939253917908
0.06128534912111543
0.14605591080035343
0.14598183627640718
0.1668199291861397
0.12228434468210074
0.04577504141611044
0.02585161686254875
-0.007117179437523451
-0.03213002907492109
-0.011320742738613797
0.05777009319917648
0.03158808421071192
-0.007805449061960017
-0.01515441778475314
0.03580855553775978
0.09509795126086713
0.015188534500563925
-0.013995992711529587
0.03723415516786831
-0.04114524948394707
-0.0370529157906015
-0.19172619137680763
-0.23100667384409945
-0.15242530224475856
-0.11412106172965959
-0.04774916971097249
0.014803456151850573
0.11811125912478813
0.14316002627769464
0.15264231856111107
0.1932065489238266
0.1417420672516881
0.07378359197531942
0.032010614063342865
-0.043867309039722475
-0.02571684043007275
0.01362899641636921
-0.010157918865335812
0.07040342537929449
-0.0033812144095449652
0.03615032706811103
0.03629734493326834
0.05668449703256558
0.017373707186952875
-0.011526457966620258
-0.010834790553246841
-0.0720159033710594
-0.046870048384863174
-0.08976278287016451
-0.26026668840314615
-0.2533212102682572
-0.10249056082975906
-0.020995559295862522
0.06451996643964476
0.07650924308997381
0.17752135273906264
0.09552020958563662
0.12517240421961726
0.14430893136893902
0.0983305759934569
0.06390198284240074
0.02245397741516619
-0.06188837461482879
0.029704124223457473
0.007884401135132002
4.2260993649498074E-4
0.027808947857627244
0.041430448505384326
0.027886366961919203
-0.048563326250545776
-0.05277172334402964
0.015430526651800102
0.046259295874127686
-0.019269714489853446
0.01418932412254533
0.011317930496564774
-0.11680460908662824
-0.20004789257320368
-0.12180209785402206
-0.0055563095850049826
0.043238380472441815
0.17281086410616267
0.15234420461677203
0.13846369752675317
0.12296619736270259
0.01828828831700764
0.10833456656200147
0.09845876700002121
0.1251945338084605
-0.03631905605407878
-0.06327367656350412
-0.03048470215645526
-0.049741677000858936
0.005294549506696294
0.00355845706611386
0.014523248893473938
-2.0117995647335623E-4
-0.04743002986875675
-0.039126963183683715
0.02749960362168718
0.037993715358917095
-0.0033824618932893763
-0.03118558538547707
-0.004374190731001373
0.042737782262439246
-0.0013850917824674875
0.013925703698810498
0.037040955289148914
0.14189220439532507
0.11272993838424603
0.03983420846377677
0.07860601306287125
0.07226781929994823
0.021102754977649227
0.1255065811669933
0.010297627392737206
0.017308903657272234
0.027399810529304087
-0.05073898832175345
0.03814994948141844
-0.00919613142574582
3.354641994297056E-4
0.006907650908099379
-0.028675617351970207
-0.045416504993619086
-0.012942116199451148
-0.005064152136281709
0.002753835466639084
-0.025239556034430257
0.009248421991612193
0.03991287404753872
-0.006597141539992873
0.11527017739094961
0.1259413917699108
0.0577936731234576
0.09919008851735385
0.12384861424486457
0.09791851007189135
0.09169513275090906
0.07052298343369404
0.07884663155220048
0.030582163176461914
-0.00582815093675058
0.04857629513947117
0.05143895333559061
-0.044002339867663734
0.02937829131193224
0.005427178789685221
-0.01922690657650763
-0.0015788606693539844
0.03131511393474538
8.334415293565525E-5
6.246242533817832E-4
0.010580099417013012
-0.06062014009218256
-0.04107061311623234
-0.060049540438229396
-0.02255757675666153
-0.016037429597696107
1.946171917638655E-4
0.07749608020569881
0.05161305815388737
0.09984932671261335
0.10505506680309619
0.1127568361213207
0.07737264347404192
0.04556606011597821
0.015460122342506122
0.09507232341769813
0.032064549326082964
0.013804335595189732
-0.013444135972758774
0.033888932181116375
-0.019296864894339436
0.013219526787728416
0.046614541892693595
0.013903433783381526
0.022260499515061295
0.01804626491864972
-0.01121368505257453
-0.018442246645822787
-0.005033439769204599
-0.025378798452500576
-0.07594793953641027
-0.07322253293945115
-0.09596083217660682
-0.037605816652358154
-0.046118042594796314
-0.010403918033413057
0.013567765045274356
0.041006849264934246
0.01539415343673124
0.05428638379182315
0.029221943943209306
0.10693049887490098
0.08885044142791368
0.017070077562866673
0.0643824514480163
0.039749979037329165
0.024839502248766195
0.028224569356607804
0.03290069378811589
0.03635403250559094
-0.03252519230549815
0.021276087150618846
0.0619899962916867
0.00895991302775028
0.030393297834802248
0.014811688114631174
-0.046380036791138834
-0.022759039428795994
-0.04059175778790753
-0.05152630315959249
-0.07316480621548518
-0.03528510710014569
0.11266823618392187
0.0260747276388917
0.05429046492064041
0.024391723075532272
0.049195291837324566
0.011935890933117253
0.10967523567608366
0.034288726764308504
0.0784925000443233
0.07003005106693891
0.018664289413191513
-0.0812100988612091
0.001936012646632867
0.019551600913455387
0.03736124542704642
0.028470994880256537
-0.002616878067449245
-0.027273286344880153
0.030333564176962303
-0.007349697901781991
-0.04650459447459546
-0.007946588453390304
-0.056894045493735446
-0.006805666707110485
-0.008737047401801899
-0.027542166140051193
-0.08014797071051041
-0.0018396915008381891
0.05913827104468795
0.047842494308308094
0.04638739943623936
0.04957190886583695
0.06765660569628647
0.11492907147978769
0.06397026983675314
0.08498491952108207
0.07215246533082896
-0.0012774463468851272
-0.01976110959236424
-0.08242679195305043
-0.04546777167904123
3.650870327064226E-4
-4.388650361817976E-6
-0.025317965977366248
-0.0298007355919296
-0.046476010171137526
-3.347268916786623E-4
0.012463264957111305
0.014192544007830916
0.04346245210980282
0.03901041457350778
-0.0417523145558808
0.00516970987883739
-0.06588661860296156
-0.05410581602215049
-0.0553845624016721
0.002670897554897528
-0.014523655064471733
-0.05461817094099234
-0.014348750393732661
-0.03024084042781823
-0.033534783877276236
0.058440374773962536
-0.022947297070355515
-0.006065721197639199
-0.06938639332317993
-0.06299694474051226
0.01867993739264323
-0.040115145662334366
-0.013166361793522107
0.03375548593662687
-0.022197075401278035
0.02023182154612059
0.05020389176541213
-0.0014820963572146461
-0.013462328216718219
-0.017126350228802135
0.007587086183724121
-0.015041474999689164
0.0076277811456997744
0.008229141008510733
0.012190209995431281
-0.05495514917552054
-0.049206458769849706
0.029731096680619202
0.011250832430773933
-0.04640776598679213
-0.03126054836512541
-0.06205366970603839
-0.04396658166592873
0.01209182520074236
-0.045529313843528145
-0.05308876924119661
-0.03130422424348929
-0.015346961235933302
0.00865521701530855
0.0069721991647890245
0.0014084756046391256
-0.03768332880668064
-0.0018940083404013278
0.01904131409124083
5.2130563104070944E-5
-0.053103143280650904
-0.02565940905958615
0.003832936160497733
0.03670361044775458
-2.799326331300414E-4
0.03737826673105963
-0.05034383484342146
0.04491025221898099
-0.012620041987851202
-0.03435414909799642
-0.030213821881098626
-0.03680043028044947
-0.016121737589628076
-0.01907125316146625
0.046281260236341625
0.021436220301091654
-0.036808889939023794
0.03862286486252954
0.022354533895223176
-0.0363523492999079
0.024493634911958075
0.024312371310504143
0.03533202330211664
0.013219756939478636
-0.0020271920334223076
0.030242013758225897
0.04936909116444034
-0.025585956171113262
0.14112571655682596
0.044362924757145275
0.03210365084163981
-0.04509772390249298
-0.003517335265535625
-0.007482991766444003
-0.022619350077460205
-0.0029755363599857166
-0.04183460126606161
-0.010583091396536074
0.059157468128245204
0.0016807777879036918
0.03714946414872026
0.011035041845165483
0.0292379214073989
-0.007316193699545813
0.0036590833483949267
0.05439894378827233
0.029803816268543993
0.014377329387229224
0.04553837953848914
0.05919969202111537
0.0198372291947716
0.05811800632295747
-0.019767046254285166
0.03670573980256166
0.015387318739955655
0.03798541107958571
0.05631186681871878
-0.0112088018368592
-0.035144505000476126
-0.011384885061916648
-0.05377134445264543
0.006949941655343314
-0.05358739655937402
0.030992012645577112
-0.023877170348849737
-0.015541247045078074
0.005819573907083404
0.023878360695528466
-0.01848687044264797
0.023479159794560993
0.015908714774674888
0.08037668453497307
0.027302054332479835
0.049137917906849016
0.05724273861344725
0.0638538400368962
-0.021270541588227748
-0.010464200170975112
0.06621125039261298
0.07458971517793431
0.026969454764833894
-0.02825341016414944
0.05608661773963341
-0.03780631752845176
-0.028510490073007908
-0.031511755408742265
-0.00699148217810971
0.04267616262400779
0.04034468576730699
0.033445374308778156
0.012225237150013522
0.02379675281481766
-0.060157758694231775
0.02856613064151507
-0.0051462349006694864
0.0018142365961353853
0.08411148619966123
0.05317588068895059
0.05170174391302266
0.0063628769174705795
0.04414190663201895
0.015798900267397907
0.08074902744761096
0.04580397743207573
0.10449155823294852
0.026901606850554455
0.006198169642736699
-0.014877983838503887
0.04682624660601041
-0.03611548425485719
0.03425895743786746
0.0410757641211421
0.038308290934323176
0.011407501337122863
0.007817838637693397
-0.04474142167381656
0.045050329962364175
0.005509222815499701
0.03903761472116528
0.04399618172031546
-0.009754105307693963
0.04043821239023087
0.06759961903785482
0.024943750352854156
0.020351983210804413
-0.0383584950154452
-0.04618564691845562
-0.056587004427395185
-0.046829161090432524
-0.06516577953658734
0.0063659676403223075
0.06499710387065452
0.08766442699976496
0.02536734938669609
0.09490131369712085
0.054559610850930154
0.05666167521228336
0.04674877713818831
-0.012469648528141884
0.04249519150532322
-0.03896827516709039
0.008706661745702048
0.020676813210700886
0.04553916605543599
-0.06084363710314916
0.026784082001887925
0.03854601713063704
-0.01620948546701881
-0.039063978779336025
0.016002355708468783
-0.027678033481352164
-0.05933824416184912
-0.08218201661752145
-0.0365175555434875
-0.012364735407471086
-0.01335727371080145
-0.03290305578608237
-0.0756936151128598
-0.0271671879565248
-0.004830265688811758
0.02233009265518364
0.08378520892115537
0.0660077165032049
0.10313281968222562
0.10445556444716879
-0.01943771163155839
-0.038161085238085334
0.029531645092603313
0.0017935752817527639
2.060283783031094E-4
0.011186258625307085
0.02311770985214288
-0.010737708475136032
-0.00851377058734774
-0.012440940160827153
-0.03959599173310949
-0.015345757655050132
0.0183416915260097
-0.07895961414957708
-0.05353765835367855
-0.06426455580147022
0.0026223467675059956
-0.07322956261048502
-0.03603685547535134
-0.07165099460761591
-0.09634400787637602
0.004852664603907074
-0.021734400931214287
0.054728200898523455
0.05929904014190146
0.08963285163898445
0.13290467868182648
0.15294685312449374
0.09588810860120024
0.01757832751585486
-0.029359106214346828
-0.006487815563151456
-0.004604199405072093
0.00982905040733946
0.03514248717165367
-0.007964618329303518
-0.002673588759154939
-0.09229744753024452
-0.09642835012810701
0.005231444241330951
-0.06870442907489534
-0.0728208081580687
-0.07672566081092176
-0.0839030352703143
-0.08423561958845699
-0.023934509837934697
-0.05204446813845397
-0.07346897620866141
-0.04760798109902239
-0.08961463362638844
-0.033283040490883126
-0.023909199948512965
-0.01625276548303451
0.014804325428101003
0.005762041515203338
0.04210674853078195
0.06028176524869086
-0.0076781141082222955
0.02071249650187458
0.050338033472200526
-0.02560379289516803
-0.03110747694333727
-0.003489083298887238
-0.060340591125755204
-0.018887088788975614
-0.02099890028165989
-0.05379116674180872
-0.0016991684010490718
-0.011135061400867799
-0.08491873490910162
-0.07103681690781222
-0.07036898206799269
-0.08883994178916466
-0.05632553819236447
-0.020155373317991658
-0.05662765394401049
-0.014361171649671134
-0.07812890565426112
-0.07214746059094013
-0.12378137238020365
-0.072006273464991
-0.076011723130638
-0.045267019909486755
0.0040443048980265345
0.07515537358143985
0.008832398922520681
-0.04052462461969536
0.037411351457270835
0.018256812835888495
0.007615652483613721
-0.06457865826840498
-0.0012581793945593606
-0.09475147761880995
-0.10841139467636168
-0.023115119837413906
-0.023098026855475372
0.012502941753725226
-0.06673315782178584
-0.052660112737011794
-0.08215436637611326
-0.07691274444499878
-0.1334967385180174
-0.18076467678820402
-0.15324793137478881
-0.07339217778766098
-0.13222030257832995
-0.06971585051205828
-0.06589395657161208
-0.07841847963035155
-0.02834524888963407
-0.07136691871565089
-0.022752970206255017
0.09592601032328181
0.009235734852170684
0.05501932980520673
0.00812692993088951
-0.048016882079038314
-0.01536001703688059
-0.0895049120376605
-0.12024135230746287
-0.09594821863398051
-0.020632243170216533
0.00993411906208187
-0.007233990602379599
0.03714247755994153
-0.011448002176322162
-0.02326305632455638
-0.05592938834329315
-0.09340656180425326
-0.11743605669407228
-0.097726546301894
-0.1333556362916468
-0.16192502993601537
-0.09089440112427269
-0.05094161471773932
-0.06264277239106779
-0.053580801036747366
-0.09655040134295077
-0.05793181913082535
-0.03675194587750107
0.024438851244554968
-0.0058798576149329635
0.008343031906402452
0.032895365408073036
-0.009011655813014424
-0.033385681265904375
-0.07362468368336135
-0.058895322450274484
-0.047065792587568364
-0.05338771548177172
0.09080129420813976
0.13714894767998786
0.07088339137029459
0.07276182605489817
0.04592947917795615
0.009225636216036073
0.04749406826782134
-0.04189538585954519
-0.07866152080055754
-0.04099831490015907
-0.07251628789966026
-0.07893381451362362
-0.09941186943193174
-0.033585905506567225
-0.033685562321644255
-0.04327556304961912
-0.07599984482286772
-0.03104845686455074
-0.014773685347388205
-0.043780265536405204
-9.517178169057576E-4
0.04648584516619444
-0.055343036700136725
-0.04393643612432954
-0.06740193610096173
-0.02516582552260229
-0.01669188941227343
0.08871343412662644
0.16289242857191769
0.13562187795704572
0.17034126409583086
0.1186081954037938
0.15527738553766982
0.10672133410745312
0.09337875593921433
0.043258331588970175
0.047219063961517156
0.06385215112232677
0.038711718379332107
0.02279743764239949
0.03769041771242606
0.04400327306273744
0.04592295788905313
0.0073164764648667
0.05567983038451034
0.04026749820633749
0.059352959756631574
0.037894240728504315
-0.036652600408220555
-0.046102030076410616
-0.06463582386058248
0.007403503893704533
-0.013768345548757414
-0.03991394072041164
-0.03557611851238603
0.08635398131902247
0.19866327187670926
0.17671859672943013
0.1309527663542963
0.1639860056000863
0.08427889164646624
0.07779883386758867
0.1277543925567087
0.09854883918301861
0.12047939546725886
0.14779745432072994
0.058177963686740095
0.09800394117571957
0.056210608688930894
0.11012932492425066
0.08916866021991214
0.1240310267158447
0.07853731810547863
0.1182085871745583
0.005305838941183379
-0.03569685451647272
-0.008793067743269892
7.545644135566779E-4
0.00530986008064808
0.02534890169762628
-0.039950503725093865
-0.06421845356831826
0.005023090632939616
0.14335553047384106
0.14988500415580067
0.10783562190287778
0.07121927916196509
0.08698223286110947
-0.03008546794233206
-0.009658002774943367
0.07580695077445834
0.11046482402629022
0.025075120471515625
0.11333066770231807
0.03288958130533663
0.0319214696628141
0.05915968710373801
0.10783500191243738
0.13023831977850747
0.06770901046406333
0.12699899102205406
0.06636160787757388
0.06548687418756886
0.03103409473669916
-0.035576709732990826
0.016965386198855677
-0.04758388204788926
-0.06775709124821169
-0.007842161319015417
-0.07632818327034718
0.038803552732372154
0.058886815869323685
0.06446767906481264
0.12663211040179312
0.10132873926196179
-0.045948175676402185
-0.012377767522212113
0.01716469174935855
0.02992476806033162
0.1183567483610228
0.06667720375718018
0.09935057732663248
0.05722376062858677
0.036770811881420847
-0.002860007857685262
0.052059889927669994
0.009144897735565101
0.007773827737131835
0.0612457051083289
0.005795481064790408
-0.05158741802574674
0.013966212314235468
-0.03228463973926111
5.658900411528308E-4
-0.00818929671441542
-0.014245794436091913
-0.055521618425475816
-0.018784100369380424
0.0056441735024679585
0.02773277997754226
0.10861265552382915
0.11950637016610494
0.10303460896209679
0.06552343281578366
-0.01864177381484101
-0.020972064567555973
0.11144701945075594
0.033718259185522036
0.11499230295866954
0.09126344008058816
0.03727059326905947
0.010430342656793597
-0.015294339561056336
0.02289958953797404
-0.06655307036810089
-0.0318564522768684
-0.01089810864785669
0.05630949510271345
-0.07596719321485963
-0.08332652429731023
-0.046507699769139745
-0.022178246680820232
8.112090957854357E-4
-0.04409364558003922
0.029214096950755178
-0.0291264020711913
-0.06139394117270601
-0.053946476599789545
-0.020360195934856384
0.12069158472123584
0.09486593036551487
0.033042788696041867
0.10450075400909965
0.08678329398501929
0.11808487121950617
0.11256145213906682
0.09207252457779959
-0.0013982047435556232
0.032069696407711616
-0.10170621089830342
-0.06525028758964233
-0.0745353680924904
-0.054573478225810726
-0.08200136617320641
-0.06489296439806039
-0.06566994809527954
-0.019878815706768665
-0.06275617204951751
-0.049377862498585987
-8.963852964378817E-4
-0.055734396677775945
0.016499610595665314
-0.007016497192440723
-0.06398514325865808
-0.10542556852161636
-0.033465917012801744
-0.04297801376867955
0.025554145356449714
0.055692907865461834
0.11009203781453213
0.08393668290250975
0.06178055383020628
0.0985202948422864
0.19232564843853844
0.10506500032442134
0.029382294528248764
-0.01664857346017443
-0.03394995985405743
-0.04787821777932696
-0.0376884802328306
-0.00141913987238027
-0.047921726454373786
-0.055294627910978174
-0.027027892996773346
-0.08999534848061279
-0.03638380621313423
-0.06402896754634398
-0.015817522464750593
0.012818873148890313
-0.038053381107848415
0.0018173810749272182
-0.013589138882106146
-0.17545225416140375
-0.083752573807025
-0.022437563763577986
0.00459265112815701
0.005941510850171042
0.12561787759389273
0.07581860789787204
0.09794411144332987
0.10556275392664154
0.030779008706911033
0.022953425245470997
-0.06816479886147854
-0.13864794593545898
-0.09168291700707072
-0.06253285425706279
-0.03903856428886809
0.013597014044547712
-0.06772363625375642
-0.11751523177714904
-0.09784816701218682
-0.05631430236548485
-0.06041653957427315
-0.025847164456235867
-0.012466179558628155
0.0025213809293579393
0.009448754024822845
0.026132307389131516
-0.027951141937133467
-0.1360055462898925
-0.08483530876728577
-0.08455949245048544
-0.04737808232709613
-0.06157340639198609
-0.028961987894701547
-0.03738904661537079
-0.04626311134996653
-0.022226750101531068
-0.08420407315364106
-0.08790240974066309
-0.09392933359649351
-0.052720629411854264
-0.022945595988332967
-0.016733930311678153
0.032180962287624584
0.01605403805402288
-0.011111345765516588
-0.028553741528792153
-0.08317189601495471
-0.09641417288611696
-0.08705737064887575
0.008058207204573377
0.00978203447727902
0.024254599815593997
-0.023853638969115493
0.008512372741720743
-0.010267217092529746
-0.1420510194506205
-0.11269609373294887
-0.1281499760749205
-0.06603647950219936
-0.06284046498139435
-0.11593075209489882
-0.09490879805441903
-0.13148304258214952
-0.07987591060554548
-0.07270133590223023
0.005537555614000436
0.0017146851905449642
-0.04660152586173098
0.050088340699265765
0.014309686409443521
-0.021079577258929814
-0.06105776809478805
-0.027006298184671595
-0.04211848771731484
-0.03125022609813278
-0.08007677755167099
-0.05570135832187454
-0.05334684135810282
0.012974336722298115
0.022491999563564402
-0.015368722091618513
-0.011786746200381134
-0.036136507620460986
-0.09400193189620643
-0.09897205935159836
-0.061056548197544774
-0.060628792406815124
-0.03917157082560941
-0.04426360983114557
-0.09880370340665862
-0.0019230418487754407
0.03929808412264731
0.009229157539695198
0.05299782365433507
0.10819263131383475
0.04900804098690268
0.012916930076521711
0.04793419595813901
-0.016065570378499875
0.0033262193875059957
0.016267856791467996
0.0052720167461188
-0.07053099953172391
2.0425241205791772E-4
-0.06637128522918832
0.00399378035387023
-0.0011368496511588537
-0.005668949006714009
-0.016598083702878737
0.023092891429905425
-0.025618713546765752
-0.030867972468142026
-0.06922608944036329
-0.07441563382207625
-0.09470200550438318
-0.06030308864617525
-0.09688472625962317
-0.05130474220454432
-0.006874871246334458
0.0018952849136854451
0.024709496112129203
0.0026477920249822406
0.009299148600783376
0.07622111544465753
0.056142629321447333
-0.03326526619640278
0.03668486056255754
0.08373731096614354
0.045432847681584294
-0.03987534145176465
-0.08306681526212092
-0.0542767181241324
-0.026629651874625748
-0.053734391148561184
-0.02847865479728531
-0.04383135170072537
-0.06620289164562086
0.011704807624243614
0.010184850323210955
-0.05324095089629694
-0.05748699665231473
-0.057053934899884286
-0.04689897968090889
0.024177708678358677
-0.024854051859993058
-0.08812643104319869
-0.012728450414818246
-0.016943533226109544
-0.016987091043802874
0.10450017610248295
0.11787157367182464
0.021881078654008318
0.09958612719056247
0.052496906434110105
0.03775848450624763
0.043607564920232045
0.049184944620584634
-0.08320246474992686
0.004694797777547798
-0.007215045111002003
-0.012348930845000265
-0.00795841791392995
-0.056121280432446664
7.195441104161513E-5
0.0328303027535565
-0.005546995558577419
0.01836745176933437
-0.026449209829601025
-0.063282876505643
-0.03625031775040328
-0.12368633550444116
0.010296636057361436
-0.0035336717851356505
-0.021998388354006658
-0.0569776355527723
-0.012833733934434462
-0.040089844146627494
-0.05909692978994955
0.021148240945913197
0.02946992593098235
0.028187537828469996
0.04232960409980789
0.05335139440205644
0.07167294779535908
0.0651271996600082
-0.02894151339540087
-0.03262598664098606
-0.047708649353068074
-0.014849347400078709
-0.012288245027219983
-0.042062528734260675
-0.004265135284803153
-0.04971199798182304
0.020027586666761604
0.020960768666238555
-0.011555935099127428
0.013817220360047365
-0.0931516385545939
-0.057581503587170076
-0.10771948689078988
-0.11063219637921583
-0.06297403592375422
-0.09239433674516484
-0.06940333547855124
-0.12363809661672637
-0.017611248581212505
-0.06736049312541044
0.007589380810951849
-0.050120310265608876
-0.04513341942453915
0.02262645428198498
0.028013077724675317
0.06212730092335859
-0.007602347822049399
0.051545771634862486
-0.034918798704879996
0.02404730687843361
0.03188811803952725
0.0015773359024787398
0.03912381009567988
-0.020191183274451806
-0.039501380843687706
0.005932005393677125
0.014924759338141372
-0.030160562804595652
0.018497962182956913
0.018832152613106685
0.00315978815394618
-0.06471518320993476
-0.0017842927225584966
-0.02929450471369934
0.01285439248908926
-0.02721633119010772
-0.07560452717476139
-0.02380489043464485
-0.0853330602684043
-0.0014796859111336762
0.009125803854512695
0.0034530857488207214
0.00425704999953937
0.03562891665679823
-0.017678546209760296
0.02583329746709654
0.0129698824389232
-0.03411333744170859
-0.01782928720535758
0.025198260144457033
-0.008505826055191557
0.02086483178317588
0.02593022130560251
-0.014893715502137521
-0.055600959132939144
-0.04416601775749944
0.023657947641434696
-0.04481464729848229
-0.03280121362893124
-0.008620428995137156
0.0028419072613974565
0.011832096990191521
0.03688000786724431
0.004695551277040619
0.03568937940247383
0.026934312927369877
-0.044314567506505934
-0.022027020035120973
-0.02892436101163489
0.02013839178643278
0.0033335670347325107
0.025218252139266616
-0.027328001359170243
-0.021503895011305767
-0.03636021929290534
-0.016479378129694182
0.025824925080341645
0.014765466248032188
-0.051549576396428196
-0.021052884512408745
0.02495923066621145
6.301147070395893E-4
0.02591591655699712
-0.018715917058561817
-0.012467053460495888
0.008021305042773048
-0.019655075934707552
0.021629879482072293
-0.050578581654212515
-0.008093566390597213
0.016421306308635288
-0.01344551897134613
-0.016263837373971277
0.012054004914635033
0.00362755091290961
-0.0120923661111088
-0.04020806152635857
0.017279789904995776
-0.03430710674379455
0.035780250678095205
0.04232915939332201
-0.027309564566159395
-4.7295623534102934E-4
-0.030876056418019198
-0.029104799933475572
-0.028946546772182075
0.02115134940795779
0.01176294002572094
-0.020659155988852252
-0.016392950902762014
0.032832537993226295
-0.03987973778493323
-0.03259607571345114
0.004182204217465336
-0.017751677799061862
-0.016252702542789484
-9.090580134480644E-4
0.014286992648707763
0.03631591409328088
-0.04696339446458546
-0.08047129409551801
-0.030031043435519076
-0.012031582299917442
-0.0560885907259369
-0.06623373042765049
0.01678528937566713
0.04279760551168071
0.03217859866657928
-0.0032528398347714776
-0.03651057729718328
0.010191683655968646
-0.0279240821357418
-0.03954713155954996
0.005510350264920129
0.032291279554674084
0.016935985922842976
0.020647651340474617
0.011290555117301886
-0.022806462066721746
-0.0033349034108581697
0.02595519542243119
7.197761366705369E-4
-0.02817495763242125
0.03583174762222464
-0.04942284654521674
-0.07940214761919859
2.1285512922790585E-4
-0.012443041687853405
-0.036842811332884834
-0.09448820949568063
6.211415326034551E-4
-0.07663598134726199
-0.031914074151550086
0.0016131436425809022
-0.011786126451460897
0.0033292816528629194
-0.05214343879524466
-0.022733978968208387
0.05812902588055884
-0.03756923514393132
0.051337961604016207
0.051079101671890725
-0.02362722357232773
0.019514757604209024
-0.04156594162954277
0.025379938703634083
-0.029472093498252864
0.02634369588026919
0.03132432286013147
0.03839802400616849
-0.05756033113306742
-0.0077312966366163876
0.011128612905095092
-0.006822282628475674
-0.014078105443732896
-0.0847108364049406
-0.10952298590470048
-0.15714782391190837
-0.07626766818558961
-0.04512920749529037
-0.06509167751086269
-0.10539448335146734
-0.08469219225102688
-0.012245868062871297
-0.07186610410381833
-0.05134621743894529
-0.022414319899723558
-0.011854388514853775
-0.04852453252740723
-0.025478996204578986
0.046671281179057104
0.05078239301331617
0.017196127644580055
0.027295418011107877
-0.027910368913172688
-0.005860996825756816
-0.0018413694329983972
0.03030861095295602
0.04024656036715049
-0.02111476922337206
-0.03364113109601425
0.012597606572844583
-0.0019722191267926925
-0.10436615868376135
-0.07275517333332604
-0.12428711719054486
-0.1403330731001947
-0.08226531220095154
-0.05583936600465391
-0.07326406507889965
-0.10080779902628355
-0.007834334253430312
-0.004749168783870223
-0.014245235564559111
0.04313017922592597
0.02168904221904099
0.0032674870583203823
0.028537740020201124
-0.031556832834629886
-0.018660860769363873
0.0013731306442194364
-0.008924538499336426
-0.034093047922883396
0.04860365746421772
-0.0037798462448011463
0.02321754102311361
0.0037274971607944643
0.006122937563244809
0.016785419465918633
-0.04899590353778717
-0.023528502144953622
-0.018594180986442426
-0.024310072090809706
-0.10448136740750621
-0.07240113318833837
-0.17715055342127473
-0.10011934180925189
-0.1227998773772143
-0.08298975837047612
-0.06415814239228583
-0.02538006744319728
0.004943387205607635
-0.05773198214234187
0.034606241080574626
0.06058332907652727
0.00263675121123565
0.00725408953006171
0.0021291976154082966
0.02705764669823064
-0.03317410135340832
-0.02062025644505254
0.008462654479885182
0.07526111915750343
0.013942192202615254
-0.013907280979509646
0.03880684161146337
0.11359681491790964
0.1385006123470447
0.10265773952903906
0.13595060346956508
0.15760886460405255
0.20574623246401225
0.17819744353607744
0.11440206384229677
0.17301075500223007
0.004119534271420118
0.00948447412527503
-0.050839980566367675
-0.03125686424728314
0.05080610439748971
0.018471149397119854
0.03863146596814082
0.041706948700402605
0.01859501429842775
0.00557005579712478
0.005747239520434714
0.010992001837071396
-0.01945067500198641
0.02301790292412928
0.048103289789152355
0.010924575857726868
0.07096280226075721
0.05476306370614718
0.03819535990376706
0.11870562614044501
0.17160611513573726
0.1892862719454475
0.26225333583655674
0.26402321314314975
0.28383183290382086
0.2822697388266461
0.271609455457379
0.2281840872745189
0.1414204197283885
0.07242970650467137
-0.0053789677711190195
-0.03697488219595832
-0.08244433213671651
0.022999498042994195
-0.007931709961871541
0.010254159628210163
0.015331590705279084
0.042253872402339784
-0.031658090168309526
-0.017992345704750196
-0.019578596582120217
0.03959732247339438
0.028239578410941858
0.017558285955742794
0.053574161600825856
0.021532848162859334
0.09118693135317175
0.13591717527167874
0.08328934425417037
0.17287350258067455
0.1462238919421695
0.12795825495316773
0.2644299824173393
0.16975490796193668
0.22105628515903297
0.08038769761859557
0.012317899083216687
0.01286008538133963
-0.025744880678257125
-0.12559463346933394
-0.08841486668743798
-0.05245838437355489
-0.041958214685047276
0.04798286999060902
0.03710372559566993
-0.0064629913898448
0.018710798960179232
0.02738838354361136
-0.04784813366695799
-0.036280894840555446
-0.027947384459565853
-0.014535807359353
0.02303638816223663
-0.004691250717228745
0.021031878793048887
0.10171370500614238
0.04618235238062414
0.09248370491125975
0.0710968772853241
0.05741003058361023
0.07770409140256705
0.09032862784136424
0.0828113374449472
-0.0365472104718189
-0.05657064181312018
-0.08267601168671554
-0.16131741149975423
-0.09168121384730386
-0.03393268859550847
-0.050466136148046487
0.031057544814876506
-0.031237712544011885
0.03164530839821676
-0.05193461005872071
-0.07762651171406693
-0.001426534053638358
-0.009234860732945325
0.023595232648170997
0.029136009080901113
0.010182443385074772
-0.06903025901934086
-0.018345832843020573
-0.02424028728811505
-0.008092693541463705
-0.023769769819372556
-0.04321202095440958
0.014589445841092431
-0.02768995742038528
-0.013967026549653516
0.01189030913416302
-0.019629272235162504
-0.0663146990298078
-0.03589822630505866
-0.12947170888827972
-0.06070444813987392
-0.10846086898015024
-0.1440215579100912
-0.046419793595350235
-0.03241445959511938
-0.036640201899633525
-0.025847567716776182
0.0346713783673345
-0.030795656439175163
-0.03522637053784464
0.01927180621277161
0.031736375251234884
0.02376404172866362
0.03659685728779053
0.05505980783379642
0.05561825218739693
-0.01746514350807319
-0.10888655925679444
-0.025011964062580445
-0.004017940919696022
-0.07276042008216242
-0.08234758309018794
-0.07489443903262265
-0.02701739244236871
0.08320317402684553
0.04602588376985458
0.04039515225170873
-0.1042626616052815
-0.03610657174476881
-0.06421783628327508
-0.059579476772865056
-0.09531318991964427
-0.06646068329184264
-0.006115740824904783
-0.02611660552166297
0.03136161624964176
9.078005338129336E-5
-0.019321680096719838
0.02546595589311612
1.454056395731814E-4
0.10103015068413992
0.07052290866570675
0.0567432367164593
0.06976208786067087
-0.03932337805917266
-0.021827943274023303
-0.029585864769266064
-0.060959713250253685
-0.18318926437123206
-0.15247723043622433
-0.04515461277578996
0.052497453915617186
0.08476450661766952
0.0887604661732477
0.0743301625696276
-0.009479881776602082
-0.007137168937532222
-0.038444222956051426
-0.017491841898472853
-0.05747000799961351
-0.12099425273194085
-0.009773117637700958
-0.010138955106604687
0.00817045399083729
-0.05670860051253455
-0.0062929492436956695
-0.05695848556941529
-0.019421762492483577
0.020578392995022045
0.1291699217839215
0.11821528594106778
0.06553522574954118
0.019132211428324292
-0.023900117652934122
-0.05658010818741011
-0.10675768831529696
-0.12604252824644152
-0.14376545314344125
-0.01967103475808407
0.008515461810061183
-0.02164211586237849
-0.05103627701904977
-0.01226050066047658
0.05089689744546056
-0.005843864898200033
0.025160017511218727
0.0012163177012574152
-0.058156689182627105
-0.07135451905141092
0.021191755628184174
-0.0253359246425992
-0.03970161205708271
0.02339794737896575
-0.045790170369100096
0.04042454870172205
0.002235180590125927
0.08316702307406347
0.13954908050610257
0.03237090323188979
0.017201007870947086
-0.029699028128338325
0.014796223845826009
4.299000946521351E-4
-0.08711328924746617
-0.06628890013214835
-0.14760077188358645
-0.0353253745440012
-0.04187653922244965
-0.059783184860639486
-0.0620883988153597
0.0582589273673821
0.00947269413046726
0.11399049501438688
0.06982199350867332
0.0251360171144262
-0.013825112179039464
-0.03788032413345047
-0.058634145679197745
-0.06117887046514571
-0.051059037041918616
-0.01715875024310477
-0.06227798692709125
-0.001943769232595327
-0.06428978167751587
-0.01529380047648906
0.04272977941490237
8.68945772515199E-5
0.02497405344341637
0.008528756637259336
0.06892418709432273
0.08803491572984366
0.029849855965668904
-5.89912247242774E-4
-0.05825072501372368
-0.1044288182879652
-0.12317164476258943
-0.15846358051755996
0.0824602867747398
0.09334080617649744
0.14649589316924944
0.17114409489856475
0.10721382163106569
0.13982918788715956
0.047806083944336615
-0.036755002779664994
-0.048050376167279446
0.01271797066160439
-0.019830803609845415
0.0769229904665594
0.07644600423880936
0.027127925692479408
0.06580252518924232
0.037565046515481496
0.04252843508060222
0.055616473071872084
-0.08368181704815793
-0.0020757868687337703
0.0350276818981776
0.09030078250846695
0.07957910678087676
0.06080830937891708
-0.1362068169556256
-0.23469790156708836
-0.19927424320237863
-0.06093142873299295
0.09785993263170516
0.10237486171002828
0.08695276988479651
0.1533705013419908
0.07091360547305144
0.10473672716234188
0.04944802230061887
-0.07438817041837728
-0.06138030187637992
-0.0740269392327652
-0.004667808007463934
0.02891730413531987
0.05078754906424912
0.04564378499308076
-0.007940556321041074
0.03949828608514949
-0.08176994392682778
-0.019629939066653525
-0.10780347732179169
-0.08209395217940671
-0.05035018669034763
0.053150383434992426
0.02532985429898032
0.024962048321097885
-0.13390526840281108
-0.1791572872503394
-0.06887164109803069
-0.07580971048453099
0.07713297566609169
0.09903831312975729
0.13010558661828275
-0.015256458835425328
0.04720297607642757
0.006872222419407667
-0.0401801199869862
-0.034571471530893946
-0.04786396878138824
0.01649675473930227
-0.011499974258216366
0.012869323210509123
0.02931575727143213
-0.024119112656410112
-0.013417103792517662
-0.02478286125204862
-0.05058114639696044
-0.11226405993855183
-0.0999639376230899
-0.15197476793249626
-0.08517126489155273
-0.13188693692411854
-0.08576655503341642
-0.1664672045320103
-0.2417410010267875
-0.1499729081720478
-0.1066397214102106
-0.0029400802504616873
0.049579909295898825
-0.009942154032248131
0.01547785797118291
0.01657347572202376
0.01239564717628116
-0.00487589284227179
0.020775826354311133
-0.07840698216044387
-0.024225635539268094
-0.017504758141009876
-0.06257923975524482
0.02454439985127676
-0.0065965676565498555
0.03962065122710565
0.001619690398646561
-0.006741481677859492
-0.027714603087632645
-0.13037349000665566
-0.17529532672434775
-0.20380388892096085
-0.231208335264327
-0.20382947756545805
-0.21105991666371052
-0.2617796553055301
-0.20197486998256103
-0.1863646639792856
-0.1125980213431223
-0.015372163089101014
0.026581637689296996
0.01835598322902862
-0.008414206316676586
0.008159331424686727
-0.02586052470557652
-0.09097717034457739
-0.11754371050915052
-0.06149671923787048
-0.06493895093590434
0.023992752348812717
4.938107808901384E-4
0.034268806567797336
0.03629034040207721
0.030074255475457702
-0.008447851120261888
-0.012586002216821912
-0.011359164622367909
-0.14661118267834372
-0.19999067571737708
-0.16531539091358774
-0.2559659638866094
-0.1735394668249209
-0.2617995194362281
-0.18299448812308117
-0.14871157453830888
-0.0953952681153485
-0.05986119693432293
-0.06754946569207752
-0.041134637526762406
-0.060066929424352496
-0.05369261054807193
-0.0700237392081403
-0.052113905873416126
-0.06669289234472302
-0.0017349365024418226
-0.04828776859971781
-0.021519063866274724
-0.016059528735897187
-0.023234651952646013
0.013693240934602533
0.04983920179509098
0.0297673320221996
0.061320871743949436
-0.016867789886519345
-0.05501004497863866
-0.051245886298560285
-0.08752002110160295
-0.1293143543145633
-0.21669837050643712
-0.11519078536398872
-0.08200287928141972
-0.06903960829175836
-0.07987651814651103
-0.03090936534962822
0.003207607785728709
-0.02713458844656334
-0.02101733578186301
-0.12329631294689775
-0.07826619567867214
-0.06410300977001816
-0.06179911897757877
-0.09026468283130731
-0.050956149288522545
-0.013306551852219769
0.008870055365903785
0.005647421686692412
-0.014428267368609249
0.03215645999358339
-0.02298430632661068
1.3351423056426738E-4
0.05650368207155933
-0.03155360433627138
-0.07195441359351383
-0.04544477062319642
-0.06819243753467029
-0.04907904053057833
-0.002917860565956713
-0.0350526167527809
0.004890359798714109
0.005298762859812226
-0.04248745283416282
0.04587501809936657
-0.03154032129383739
-0.03361030857010908
-0.12662909579453357
-0.05452426308063059
-0.11319160306342033
-0.04290200123229012
-0.0014992741286604945
-0.021911304837023495
-0.009113778706527048
-0.0038692191573339906
-0.05879014989940904
-0.05667678108800578
-0.010219865559639517
0.01815334371554852
0.016555012924113766
0.02044844142537447
0.01812780938281167
0.012255796175511077
0.03493816282962071
0.04624695143638749
0.0018926257764200983
-0.024687972342556482
0.0739459398383448
0.12937736386630988
0.13439983813261072
0.053394191800358495
-0.04530196767407866
-0.08013413520072916
-0.09865458276448201
-0.12050216831403447
-0.12331728216422465
-0.14881953187913213
-0.07610426293859487
-0.06119624900244883
-0.06311937458157092
-0.008205946710136946
-0.031479248226215346
-0.017149934108704162
-0.0052086533365569895
0.033453069871500644
0.02249951110190814
-0.015200348172682466
0.007788037678815418
0.0167573194068149
0.02323492869751282
0.01911917486226987
0.09999486838072008
0.05597282927839789
0.07371485144848386
0.1380818052999462
0.12624863012195003
0.11336358266415117
0.06660842170604143
0.041739415580125706
-0.021913863500158764
-0.09298129589527655
-0.1379930033176293
-0.10370573659557754
-0.11650748486327268
-0.05872526826772518
-0.02368263676469679
-0.024723020647169056
-0.00328053912745035
0.02625532653846079
-0.011298696365472658
-0.04421794430318811
0.03799779437505885
0.04305262702751633
-0.03559696886735602
0.01174308579883955
-0.028259603044937194
0.03341426055119246
0.0230569881104164
-0.0077855936236692815
0.07954924976398106
0.07220862004133131
0.10530705747335774
0.14583575980508667
0.2129301190504041
0.14575793347751193
0.08288896843964853
0.13559427961922985
0.10087817709278485
0.07048692341332331
0.07924334365399635
0.004470371626760258
0.12529300967876994
0.06508614349555039
0.05917537498817151
0.05002729285414291
-6.067320257691568E-4
-0.006536949678149085
-0.03709340377912837
0.055874489433374884
-0.04247768687058493
0.04498256716681947
-0.041762211305386536
0.004962013759012645
0.010811448705378915
0.05105750818611768
-0.019340523622128365
-0.03090575310220228
0.0336776396350684
0.018892985137080317
0.010402691170901441
0.05416018811196155
0.0405507103904558
0.043152802471451514
0.029794902668400267
0.0673996951593927
0.12732125613824283
0.11547954207046188
0.09440895832890171
0.13003111518264182
0.024504323353275834
0.08553204350747198
-0.007715742724427419
0.05773889828431621
0.011370714684154305
0.045517805946781925
-0.02766124025616037
-0.043673407253965055
-0.024152557693897986
-0.01916953614222905
-0.048573858552115094
0.003391351675324869
-0.03350939278583028
-0.011471326270044338
0.03220003644748742
0.03261998911793539
-0.0388782358710471
-0.018126798504264446
-0.027945184573095434
0.06703652799012982
0.0022518596217952
0.05588823478631282
0.07087491368418426
0.030598103504845913
0.014814419506576009
0.05313533359663059
0.0525319749671588
0.037480901696440194
-0.06401849572197493
0.030344969225490636
-0.04593559734948442
-0.03593769746809936
-0.011149223429600681
-0.022273762333716318
-0.04947170131856284
0.005197550974411838
-0.04628084261839771
0.044764429551549925
0.020067173696233193
0.16688695910520202
0.03364014255005332
-0.020691057750737915
-0.027550708818009893
-0.011381929314295852
0.00979595508513
0.04610762892926601
-0.0035721825297315313
0.006381714980911493
-0.019311853517924367
-0.08566522455172541
-0.06422986750087215
0.015349725194562498
-0.06098125699512081
-0.03218392611904921
0.026933228367768614
-0.01346484498577711
-0.02968655058870203
-0.04871766254114935
-0.01943097677157307
0.0364123905161825
-0.041373454062980285
0.027665818441490308
0.009416719732722295
-0.05850779557565491
-0.03983448860652811
-0.05712544416377989
0.01968196697019571
-0.049775012428636786
-0.033918934925059194
-0.04765725766071771
0.012191494407450362
0.03487029801344727
0.026530718725644834
0.01749178360171727
0.03004197094133696
-0.003909598915710533
-0.0182595084177018
-0.03952142197505243
-0.06260721818400208
-0.011582139819748679
-0.07895115722486491
-0.07025829072043435
-0.06414960862341236
0.02252616641674206
-0.03396472720730594
-0.03049750440025426
0.02650700465522249
-0.02696064531644009
0.0051215831043055155
-0.0480987217841308
0.015411016889700554
0.027945601658975694
0.015249186146479687
-0.024733738830540326
0.027034681465748733
0.0013809477528643548
-0.030348401632756532
0.0379500087202624
-0.006394023211316386
-0.014064055973488287
0.04992766807887794
0.006315641378926739
-0.0013302681002713734
-0.007911977878100964
-0.006730216043182114
-0.005283869367400532
-0.01798962432797552
-0.06391324404468378
-0.09952058503126951
0.005745677045371228
-0.037153952751074255
-0.054546874489627195
-0.04573809887944584
-0.034055719848479195
-0.09501621794505523
-0.04125183723474088
-0.056311195389146904
-5.031783972525637E-4
-0.0018173527460728575
0.00961426199307721
-0.04741527110223944
-0.012967383812823925
-0.002136827904489223
-0.017368352331431077
-0.012675179100184498
0.03906445569389569
0.002115181528488366
0.04850098814405622
0.044194405279943914
0.005356766291440841
-0.05378063997226375
-0.025437128695533898
-0.0965520445512616
-0.021816142975975995
-0.025856238630958338
-0.08867112829094131
-0.01295291430274546
-0.06957503917734076
0.0032636118976109682
0.01829637603947213
-0.010124891762509403
-0.03471911855346683
-0.03798178565355304
-0.09843801279705745
-0.011169173528638504
-0.07668097837606833
-0.07591043303376283
-0.0848984440214151
-0.01355215676790118
-0.014417400233024636
0.01763516635860822
0.03529119939703992
0.003413188866131899
-0.017627850679872107
-0.03507960598396604
0.04819755705863003
0.04394584418842043
-0.027925820087250437
-0.0020124547551502326
-0.018445459279796024
-0.05321750196683766
-0.06728173862254316
-0.08236282103903853
-0.05301282354076135
0.018489441749010835
0.004081706245032341
0.028257954595974976
0.06666579848690707
0.0907834167652075
0.01874150531666227
0.04103832070214239
-0.01231019293779958
-0.046672465579102616
-0.08410137324824939
-0.10040528329083748
-0.05925409447754357
-0.04871348587437848
-0.03383796778255196
-0.051014633099536306
-0.05521710125699228
-0.004985620997203437
0.020206618411218392
-0.04427327561636304
0.05169126184999495
0.021988577942748038
0.005236444910996377
0.02801561476831695
-0.03645029670890627
-0.07291339988710863
-0.032174116465187974
-0.05875340484833835
-0.050320291869502425
-0.04085172695599795
-0.015791456412029767
-0.0024628054685052777
0.0807297052336165
0.07961401521171323
0.0535749895167506
0.0792134946454265
0.020332929782861043
-0.04629506606010771
-0.09210874154342372
-0.0641098060100293
-0.1545931224200753
-0.0422617564720034
-0.004465494193134352
-0.0160450889092039
-0.06937495594263843
-1.7833722783477962E-4
0.02475477194533971
0.044355111762860944
0.04564784983024614
-0.026400516383492546
-0.0264777603159685
0.003161084475269054
-0.006016804680096798
-0.06968374958107994
-0.0831497446096235
-0.03563711615213084
0.007204809034857625
-0.01703292462749979
0.05031161400372494
0.03449010317780883
0.1045298058363626
0.2491796299580975
0.1744033569178441
0.10961585813059124
0.12188616454310812
-0.006247638487531842
0.009473055833551017
-0.05810743502839098
-0.08771480282315909
-0.16936636480889167
-0.05327884130101152
-0.036584375050982054
-0.05886055969143775
-0.007189737048268439
-0.008794994992293066
-0.02095486622469515
0.015275541551153194
0.009240066675025634
0.004320779829072111
-0.025651794826357568
-0.020635168072714514
-0.06635653728321882
-0.0360574292505222
0.01792490936597216
-0.007698339596215523
-0.016688454212072327
0.050196421386448344
0.08425051183410348
0.15311063197076288
0.17139022042030577
0.21737956533569758
0.17156050237210077
0.06893041527779735
0.11758882147981033
0.05137078957428824
-0.09079739923709389
-0.1279960057677533
-0.1305113821012805
-0.1274839104425587
-0.07865126136819932
0.019935134628470644
0.03786028760274674
0.026241598059592617
0.08312026958272689
0.020099633414268875
0.1300285823252794
0.024705220506937804
0.067929766350178
-0.06092302649274695
0.00861148566975798
-0.0425407572636851
-0.00848092673946992
-0.030945642518664707
-0.0077208237699063756
-0.026536498802550816
0.15923955845086638
0.08822839060224003
0.19253377425023846
0.1870496083208391
0.14135969656393332
0.04540469101558766
0.05450625797153556
-0.013577923922084836
-0.017337326764126085
-0.12387497084036983
-0.17759383709004167
-0.14172767829852373
-0.04728647025340586
-0.05073384827257053
0.04011159202902856
0.04808728356421961
-5.718699677322283E-4
0.06700828812517867
0.12802289502514339
0.14726411532861342
0.09983796405889397
0.024854078061778126
-0.03435471670794442
-0.037175610287961805
-0.0213355721360397
-0.010358601392783228
-0.04232264265194442
0.046409569461347035
0.09963834273571434
0.146370275159957
0.18957854221826953
0.22678869705562876
0.1249338741999925
0.10370266841363669
0.03259280587235156
0.09017193503617037
-0.02048283667140409
-0.04586468874450306
-0.07941219957294783
-0.06694370558641148
-0.026875303033664873
-0.013557241717616261
0.01737085354770904
0.05100092955331589
0.06423207400915673
0.10961250124700563
0.07745418750133745
0.07177727373595245
-0.014110188434373961
0.008663625356718477
-0.03562509659070769
-0.12055670734351981
-0.10637789347098389
-0.147103779550253
-0.13338900707685988
-0.0776468316743981
0.014959592414699819
0.1118882378722819
0.16830018130325186
0.15847096444955638
0.18809904434906713
0.10564987949952716
0.1639222507927136
0.08466138877414218
0.06998152924164944
-0.015157751122281262
-0.09072097374378114
-0.06113905075149904
-0.06020113385556751
-0.0187862270843396
0.03257291125889932
0.0016235982392884835
0.02400733595693076
0.10138681251398685
0.12751792470819684
0.038728125824105425
0.05405346591630469
-7.211904129168979E-4
-0.0734229072593101
-0.10711879019618138
-0.1197336187322226
-0.05787238199612994
-0.16321873991273608
-0.12464041943212785
-0.07232760589901543
0.02141400674011038
0.054966666307876215
0.12056280323347568
0.12856846870124514
0.13617449173994828
0.16829194023443542
0.12617132608448653
0.11344565858727369
0.0709517068407743
-0.06771228693936687
-0.05831339859964106
-0.07725839075716154
-0.05591484182560745
0.06548021028441332
0.014651399941672824
0.09734438299577453
0.11380399277314639
0.1259493493102267
0.013434989512221043
0.024587800308252312
-0.06315435923886349
-0.03377562540538854
-0.07647886825926112
-0.0940713175669478
-0.09591734007066083
-0.19957568726193894
-0.10875856694715334
-0.02988090662278147
-0.02808137300440391
0.043990400261703415
0.08594173359052203
0.1302766992142679
0.09685447116934244
0.043199831638147515
0.048213534150607376
0.029769114471707096
0.014031572105706979
-0.03850623384905438
-0.059078716998538415
-0.04838264965413549
0.02001227345165669
0.03183417860064476
0.055620108651754555
0.06875318565636755
0.1066792086781479
0.15000031665181845
0.07720162014304499
0.0655999452009805
0.033766280960924995
-0.025320386437304332
-0.08792358170532068
-0.07523492568483213
-0.0489758802688157
-0.14274199949059874
-0.06686472109248769
-0.0694814765507976
-0.07110980694319342
-0.02250150750069834
0.037017986202144075
0.0018313170224185877
0.035787623279037166
0.039015984329608906
0.04844678700434844
0.026748143423891143
0.029047802345665126
0.009064202353873842
0.002449920081320479
-0.015521032299140591
-0.02284968145847994
0.04585989691128451
0.08680792926111837
0.022960801102782962
0.014476394364551169
0.07242829951024347
0.11056225236749656
0.009478368560145306
0.09101808342013394
-0.0012461493861779447
0.015030188565395926
0.09266229867621344
0.025038201573013594
-0.014389727410374732
-0.11009695375456653
-0.048880130242194245
-0.09715350684303907
-0.11003897495308283
0.06455666947079149
0.07380709134583821
0.011964064541553332
0.08205739652628535
0.008278919134440357
0.04170993553456299
0.01743499217635763
0.004682002911271916
0.0655124463243364
0.038808434372837916
-0.032324949765101495
0.053315958249591774
0.05655222052384314
0.025822444467466215
0.014133811456205854
0.052449671921494356
0.15203157285181199
0.07466916481817404
0.06839963649521884
0.08720691944080064
0.1335215451887789
0.15438603965059866
0.044358865260942855
-0.0630605193225232
-0.04447555449345804
-0.17717270085434686
-0.06940154878413343
-0.01398101307782951
0.13148466575518306
0.14891710752151102
0.10631640729973764
0.03841658588088872
0.0953863631905551
0.09715075185650893
-7.32172666227791E-4
0.01269397885336412
0.052102102992046796
-0.0034428718909335935
-0.004902751656848398
-0.0055533373042912565
0.01058518861792686
-0.03752555764698498
-0.0235745774571047
0.09992960673366799
0.053720219581579264
0.07309647395860148
0.09821322858349449
0.07461738458098764
0.16461047286771438
0.11915347831682137
0.09744739325605621
0.02120092813289024
-0.046863274995299777
-0.06973102080171194
0.0024138176981469642
0.04738880671386702
0.1630968045653235
0.130687938246061
0.12974298080370952
0.05369649521662105
0.08332333348251592
0.09309539672786585
0.03863078397428887
-0.0021008237229867763
0.06856284917552052
-0.014206838621165351
-0.012794852134418208
-0.01642114791086096
0.025520391967096892
0.018595177970067617
-0.010881447541051307
0.11475434047848035
0.08598389634451681
0.06343080610300009
0.09124077183819783
0.050696181399283495
0.05486955133254285
0.0490431242568688
0.05998031791466584
-0.028115939351856717
-0.09394551302561986
-0.011108054558087504
-0.024133330530363872
0.1338733078186046
0.12105166233416453
0.07942934496759009
0.12067464396396599
0.04316515909620454
0.04917092477429863
0.011606047054950915
-0.03594183154731236
0.028166468480794193
0.07455754334232809
0.02799213510434375
-0.02636457439738106
-0.03872585380182087
0.014608475351919226
0.011035129736961202
0.03271049866446122
0.07212193239613783
0.07853298600642704
0.0061651714978491435
0.009695521257453795
0.012084086594821209
0.017495894612896898
0.023100370590491824
-0.06179141701485292
-0.04673916758915148
-0.004857794671557228
-0.020771757712820076
-0.003694411992071764
-0.02783601452496459
0.04487139827980617
0.02544418572914387
-4.671730227011326E-4
-0.030387187862381582
-0.06303894116946678
-0.0025478014626684094
0.00363154276581943
-0.015599150774711154
-0.002553654356235639
-0.029176823545785373
-0.031367544900988885
-0.031452741111368795
0.035854603493837206
0.016768901973163556
0.006559100958706286
0.04582778785793908
0.031947903888924344
0.06279881727023653
1.5301998774225515E-4
-0.07728803760267476
-0.019346572109287214
-0.05447890536920135
-0.09709905093582595
-0.06256935248516114
-0.030647791160807434
-0.035701873992092875
-0.0996238494422717
-0.08840951679572594
-0.02809056495866607
-0.0116269652350416
-0.006942559513218002
-0.08229473596169189
-0.0025725017279411835
-0.05305448225554802
-0.017203896676142024
0.011295445528282901
0.06917474391219475
0.01446761271534811
0.05245034620307556
0.009442600472264324
0.0060488013094240995
-0.013544264677542711
-0.027032078413769013
0.06025784771699965
0.12010904643364322
-0.010330211430397014
-0.04254711455326839
-0.03219196473659102
-0.08704722356608321
-0.1383943254019785
-0.11741261604936944
-0.1531462630893824
-0.17105983698061733
-0.15301874086495554
-0.2199903147806804
-0.09737984156185082
-0.10584071044414799
-0.07075887848515991
-0.05907075081093427
-0.007488331200483613
-0.04887021337062808
-0.07102578153582047
0.0023109016044869537
0.053352340998928785
0.04017463452199396
0.03891326306905914
0.00509244058444464
-0.004098087145838122
-0.0487624691272592
0.006822336289443425
0.024833653299818497
0.004424994894523977
0.03932680471456225
0.05718568245866458
-0.038896694348057
-0.06546108998473106
-0.09592766658352013
-0.12181403237609267
-0.18836244196542357
-0.21293607177345056
-0.1288712697669161
-0.1509092419113154
-0.22215919725115854
-0.07859153982338866
-0.07067363697206205
-0.047797416563742555
-0.05068801260202638
-0.07597330466689542
-0.06132396729905316
0.0034405952508756547
-0.016569042281615598
0.04401634949017393
0.028714524687154068
-0.023152238397986642
-0.007753017324644569
-0.0063711774330514085
-0.04978535643330428
0.030977750269732554
-6.718638843090562E-4
-0.007440025812730267
0.03697194208657322
0.021285183875860595
0.023186015116358427
0.011677240318677708
0.023008522003397088
-0.010242508502555366
-0.052109760105067154
-0.07611255962894156
-0.10991551818249766
-0.05137500954052739
-0.08048353328354368
-0.06472315392217429
-0.029519638466395662
0.006134360476855884
-0.0024015715026982523
-0.017751679852950782
-0.059806456712644854
-0.012919480960154607
-0.01504738980757153
0.05319580045897009
0.05199873325389052
-0.03441776002937716
0.04737105417979454
-0.03966944505773461
-0.028477081498387322
-0.010344475844490181
0.025322858307017516
0.047514902805719926
0.07654615565220538
0.08137072263577182
0.06471681248519377
-0.02526524729795854
-0.018266185634271317
0.002879056989995511
0.015240801995938252
-0.0262358954539656
-0.02508815303570243
-0.01838887903523751
-0.05693658495204304
-0.02179827923023353
-0.07642585727505535
-0.014652163657578996
-0.03500808378189878
0.003697035991318077
-0.011207083369636186
0.031402992241540445
-0.01886836658482182
0.018452594150260626
-0.01566443351499817
-0.01600604136538808
-0.034561390183546474
0.001500289425145931
-0.011519303088567164
-0.020743603700316856
0.039384782768892075
0.037238158067715826
0.03552120120772794
0.011995468965699422
0.017931545282781316
-0.019967540420497903
-0.06865006413560518
-0.022951934658019688
-0.03307077716709216
-0.08510069760957405
-0.021054779657699536
-0.04160002879782867
-0.0028484697812661574
0.007934889768368225
-1.3163649717148985E-4
-0.0698840670333857
-0.04474566126768886
-0.046881108259212795
-0.007281465698266225
0.03583598432998438
-0.0015527701984286888
-0.04313548925996117
-0.014629387960686241
0.037465261602832034
-0.01217717257417683
-0.014215048764729947
0.022644746775541374
0.024044476323447445
-0.019175370208881378
0.023786577669468338
-0.012016241779755955
0.07274804741493725
0.010836025393355007
0.069187703058671
-0.007698596742448657
0.0495170928011242
0.047330117300261716
0.08284230475595579
0.019599233933170975
0.013271846752618693
0.10167019619594
-0.00429062271819687
0.03517589659422539
0.009579715689796604
-0.017086649033782698
0.0041182853611905984
0.029675561438054866
0.006550984327852315
0.029219089114808416
-0.01880732279417465
-0.023823413016473807
-0.027975830616296122
-0.029770798484421223
0.019183697252553113
0.009169270898440166
-0.019538535019497896
0.05359304943260485
-0.012507980846593913
-0.013396037858028498
-0.0075614671038284125
0.07709456868123177
0.04798688447613191
-0.011684770709698653
0.0492200330088201
0.05404341269103769
0.012079803893507197
0.07007074746423747
0.09643345828513525
0.07067141922920638
0.02685121664486676
0.09387593774228173
0.07901679234203136
0.007571088493777402
-0.0034510696505540717
0.05156798847007844
-0.0455973465799492
0.04876111036235481
0.01944777250007287
0.018188179204572375
0.010067292863250499
0.0017210353263806093
0.03592374188118906
0.04200429935062509
-0.030556812341245704
-0.03283078913536024
0.011612800669474415
-0.041134408109697054
0.010086999959106174
-0.02464839594024194
-0.01562763381560148
0.031815863507951875
-0.021258516857028682
-0.026378435448163946
2.138936044511247E-4
0.006209267754442963
0.05817039918531691
0.042610161206541534
-0.01497792162636802
0.03600600878285158
-0.03126216381233637
0.0036086266848236975
0.03604625905158598
-0.01670884935012209
0.048426630868642455
0.03610750253979766
0.018499876608439037
0.04282627253064374
2.8813117156236675E-4
0.047119951735703554
-0.008383496752120956
0.0030051468145340394
0.023860797753572503
-0.03862061068240198
-0.046804808855416685
0.020181904365336144
-0.01665783814205876
0.031023412787149804
-0.03725450983971917
-0.012281845141057506
0.058943513307310784
0.05380282104294734
0.007901370208265404
0.05650970400458764
0.03243266923193592
-0.021416926334917905
0.039313329985996036
0.027625966352315783
0.029261781568205365
0.05001698342201491
0.01646973502703545
-0.006259451193277717
0.013973294409709241
-0.02560535288376574
0.05895572191283825
-0.010380563977547533
-0.021757357034082103
0.010617967929498892
-0.019411009941917808
-0.005486775567852519
-0.017265664322464132
0.007790696946974487
0.05442675046639531
0.02575863780358069
0.042379943101270266
-0.024815497591690973
0.039445674583030964
-0.004569867006109142
-0.02586757486968963
-0.0389351435468132
0.04558905716293089
0.046483361850701115
-0.0224009605444368
0.012089421863521202
0.05330168902230761
0.022537157396137805
-0.04572801851696821
-0.015093288910689884
-0.010010001697818358
0.02311150415873502
-0.007460402970645132
0.019592927214471437
-0.022935788661767334
-0.03977732224356631
0.007359181637895279
-0.009606570500123712
-0.0014074548262426427
0.007622853005482838
0.024998770241368796
-0.036135535520958495
-0.006109143995551254
-0.025393936684470306
-0.0072838463277529126
0.016555997972348833
5.728482924151388E-5
-0.031169975990333824
0.05439984806411918
0.024677347715698825
-0.0343854031949202
0.035365014191241814
0.022342071762436057
-0.0033725210116599003
-0.006798484668288487
0.0012765380407611488
0.04614341973428535
0.04276874506044646
0.030769487322311675
0.01081127167364417
0.06924255781130793
0.07427687410506123
